~o
<STREAMINFO> 1 39
<VECSIZE> 39<NULLD><MFCC_D_A_0><DIAGC>
~h "proto"
<BEGINHMM>
<NUMSTATES> 5
<STATE> 2
<MEAN> 39
 -8.597339e+00 -5.265631e-02 1.105138e+00 1.223828e+00 5.573194e+00 2.670188e+00 1.608455e+00 5.253546e+00 3.172566e+00 2.301795e+00 -2.700553e-01 1.183363e+00 6.740252e+01 1.003678e-02 8.885461e-03 1.552027e-02 -3.807972e-03 2.058569e-02 2.005885e-02 2.779385e-02 3.878925e-02 1.865423e-03 9.910516e-03 1.841787e-02 2.070317e-02 2.047059e-02 -3.800630e-03 -3.225480e-03 -3.902494e-04 -2.495048e-03 -1.015759e-03 -1.946707e-03 3.366903e-05 2.709857e-03 7.177485e-04 -3.346770e-04 -5.243966e-04 -1.776849e-03 -8.091087e-03
<VARIANCE> 39
 7.185759e+01 3.560656e+01 1.196023e+02 5.317179e+01 8.185878e+01 1.123801e+02 8.797414e+01 8.385458e+01 8.306217e+01 6.116877e+01 6.701823e+01 4.352322e+01 2.349199e+02 3.062224e+00 2.071966e+00 3.120034e+00 2.466990e+00 2.568015e+00 5.476922e+00 3.653991e+00 3.912161e+00 4.114477e+00 3.285082e+00 3.519013e+00 2.635582e+00 3.872038e+00 4.114977e-01 3.433897e-01 5.186895e-01 4.143106e-01 4.094034e-01 8.622394e-01 5.795253e-01 6.654075e-01 6.626960e-01 5.907103e-01 6.562725e-01 5.220424e-01 4.955909e-01
<GCONST> 1.354632e+02
<STATE> 3
<MEAN> 39
 -8.597339e+00 -5.265631e-02 1.105138e+00 1.223828e+00 5.573194e+00 2.670188e+00 1.608455e+00 5.253546e+00 3.172566e+00 2.301795e+00 -2.700553e-01 1.183363e+00 6.740252e+01 1.003678e-02 8.885461e-03 1.552027e-02 -3.807972e-03 2.058569e-02 2.005885e-02 2.779385e-02 3.878925e-02 1.865423e-03 9.910516e-03 1.841787e-02 2.070317e-02 2.047059e-02 -3.800630e-03 -3.225480e-03 -3.902494e-04 -2.495048e-03 -1.015759e-03 -1.946707e-03 3.366903e-05 2.709857e-03 7.177485e-04 -3.346770e-04 -5.243966e-04 -1.776849e-03 -8.091087e-03
<VARIANCE> 39
 7.185759e+01 3.560656e+01 1.196023e+02 5.317179e+01 8.185878e+01 1.123801e+02 8.797414e+01 8.385458e+01 8.306217e+01 6.116877e+01 6.701823e+01 4.352322e+01 2.349199e+02 3.062224e+00 2.071966e+00 3.120034e+00 2.466990e+00 2.568015e+00 5.476922e+00 3.653991e+00 3.912161e+00 4.114477e+00 3.285082e+00 3.519013e+00 2.635582e+00 3.872038e+00 4.114977e-01 3.433897e-01 5.186895e-01 4.143106e-01 4.094034e-01 8.622394e-01 5.795253e-01 6.654075e-01 6.626960e-01 5.907103e-01 6.562725e-01 5.220424e-01 4.955909e-01
<GCONST> 1.354632e+02
<STATE> 4
<MEAN> 39
 -8.597339e+00 -5.265631e-02 1.105138e+00 1.223828e+00 5.573194e+00 2.670188e+00 1.608455e+00 5.253546e+00 3.172566e+00 2.301795e+00 -2.700553e-01 1.183363e+00 6.740252e+01 1.003678e-02 8.885461e-03 1.552027e-02 -3.807972e-03 2.058569e-02 2.005885e-02 2.779385e-02 3.878925e-02 1.865423e-03 9.910516e-03 1.841787e-02 2.070317e-02 2.047059e-02 -3.800630e-03 -3.225480e-03 -3.902494e-04 -2.495048e-03 -1.015759e-03 -1.946707e-03 3.366903e-05 2.709857e-03 7.177485e-04 -3.346770e-04 -5.243966e-04 -1.776849e-03 -8.091087e-03
<VARIANCE> 39
 7.185759e+01 3.560656e+01 1.196023e+02 5.317179e+01 8.185878e+01 1.123801e+02 8.797414e+01 8.385458e+01 8.306217e+01 6.116877e+01 6.701823e+01 4.352322e+01 2.349199e+02 3.062224e+00 2.071966e+00 3.120034e+00 2.466990e+00 2.568015e+00 5.476922e+00 3.653991e+00 3.912161e+00 4.114477e+00 3.285082e+00 3.519013e+00 2.635582e+00 3.872038e+00 4.114977e-01 3.433897e-01 5.186895e-01 4.143106e-01 4.094034e-01 8.622394e-01 5.795253e-01 6.654075e-01 6.626960e-01 5.907103e-01 6.562725e-01 5.220424e-01 4.955909e-01
<GCONST> 1.354632e+02
<TRANSP> 5
 0.000000e+00 1.000000e+00 0.000000e+00 0.000000e+00 0.000000e+00
 0.000000e+00 5.000000e-01 5.000000e-01 0.000000e+00 0.000000e+00
 0.000000e+00 0.000000e+00 5.000000e-01 5.000000e-01 0.000000e+00
 0.000000e+00 0.000000e+00 0.000000e+00 5.000000e-01 5.000000e-01
 0.000000e+00 0.000000e+00 0.000000e+00 0.000000e+00 0.000000e+00
<ENDHMM>
