~o
<STREAMINFO> 1 39
<VECSIZE> 39<NULLD><MFCC_D_A_0><DIAGC>
~h "C"
<BEGINHMM>
<NUMSTATES> 5
<STATE> 2
<MEAN> 39
 -1.050087e+01 -2.278263e+00 2.465337e-01 3.422074e+00 6.648398e+00 4.889215e+00 2.075875e+00 7.309366e+00 4.701294e+00 2.578941e+00 1.572546e+00 5.940995e-01 6.802679e+01 2.721285e-02 -3.754421e-02 1.688912e-01 7.932462e-03 -4.164316e-02 -9.601535e-02 -9.225841e-02 -4.366941e-02 -3.732270e-02 -1.078719e-01 -9.620014e-02 1.361273e-02 1.587307e-01 2.195719e-03 3.031387e-03 -5.518085e-03 -3.122673e-03 -4.365771e-03 -3.002441e-03 1.813657e-03 1.725204e-03 2.338925e-03 2.696691e-03 4.598639e-04 4.737133e-03 -4.512446e-03
<VARIANCE> 39
 7.029050e+01 2.727144e+01 1.586197e+02 4.771069e+01 5.682549e+01 8.852017e+01 8.356596e+01 5.487746e+01 5.649924e+01 7.607323e+01 6.033310e+01 5.296249e+01 2.232754e+02 3.021466e+00 1.225773e+00 3.487777e+00 2.204220e+00 2.202894e+00 5.218332e+00 3.044343e+00 3.695069e+00 3.798715e+00 2.989189e+00 3.061311e+00 2.603023e+00 2.632207e+00 3.129847e-01 1.958756e-01 5.607055e-01 3.843027e-01 3.902689e-01 8.027442e-01 5.033740e-01 6.535760e-01 6.125565e-01 5.841627e-01 5.904917e-01 5.089101e-01 3.245113e-01
<GCONST> 1.306947e+02
<STATE> 3
<MEAN> 39
 -1.030724e+01 -2.439907e+00 1.201152e+00 3.371153e+00 6.298358e+00 4.243150e+00 1.523915e+00 7.068081e+00 4.521352e+00 1.985656e+00 9.882190e-01 7.766150e-01 6.892176e+01 2.972601e-02 -2.275201e-02 1.492817e-01 -1.375950e-02 -6.096240e-02 -1.078680e-01 -8.364908e-02 -3.545859e-02 -2.732830e-02 -9.254665e-02 -9.408897e-02 3.432376e-02 1.367344e-01 2.393502e-05 2.248681e-03 -2.666046e-03 -3.454969e-03 -2.670567e-03 -1.744660e-03 1.429908e-03 1.205311e-03 1.191105e-03 2.379952e-03 4.907436e-04 2.985029e-03 -3.100285e-03
<VARIANCE> 39
 7.838644e+01 2.770821e+01 1.602128e+02 5.138157e+01 6.094658e+01 1.009265e+02 8.684191e+01 5.666256e+01 5.843433e+01 7.525806e+01 6.565742e+01 5.648040e+01 2.303076e+02 3.299034e+00 1.245184e+00 3.330944e+00 2.338362e+00 2.200312e+00 5.904042e+00 3.084164e+00 3.943920e+00 3.939023e+00 2.937410e+00 3.395167e+00 2.665947e+00 2.580365e+00 3.397166e-01 1.982604e-01 5.412112e-01 3.915759e-01 3.839241e-01 9.010460e-01 5.062602e-01 6.996168e-01 6.350157e-01 5.701031e-01 6.493541e-01 5.154323e-01 3.192266e-01
<GCONST> 1.321750e+02
<STATE> 4
<MEAN> 39
 -1.015700e+01 -2.545010e+00 2.125608e+00 3.193158e+00 5.877614e+00 3.550664e+00 1.014260e+00 6.859705e+00 4.356255e+00 1.470481e+00 4.247526e-01 1.031282e+00 6.975192e+01 2.081699e-02 -1.516757e-02 1.480917e-01 -3.312885e-02 -6.950902e-02 -1.142828e-01 -7.687171e-02 -3.092250e-02 -2.797728e-02 -8.123312e-02 -8.974609e-02 4.357826e-02 1.305897e-01 -1.696464e-03 9.428124e-04 4.209405e-04 -2.890616e-03 -9.040901e-04 -8.571876e-04 1.040144e-03 6.021229e-04 -5.707781e-04 1.572653e-03 8.084002e-04 1.083190e-03 -2.613963e-04
<VARIANCE> 39
 8.566129e+01 2.835647e+01 1.599901e+02 5.506464e+01 6.554413e+01 1.119384e+02 8.828743e+01 5.909624e+01 6.126823e+01 7.307765e+01 6.966532e+01 5.950426e+01 2.358940e+02 3.571583e+00 1.277948e+00 3.220144e+00 2.472346e+00 2.215369e+00 6.573415e+00 3.163519e+00 4.191728e+00 4.116626e+00 2.874365e+00 3.729108e+00 2.753357e+00 2.633223e+00 3.696929e-01 2.029420e-01 5.265741e-01 4.015317e-01 3.791513e-01 1.006990e+00 5.165937e-01 7.422554e-01 6.668718e-01 5.492533e-01 7.064270e-01 5.301232e-01 3.280888e-01
<GCONST> 1.336745e+02
<TRANSP> 5
 0.000000e+00 1.000000e+00 0.000000e+00 0.000000e+00 0.000000e+00
 0.000000e+00 8.386490e-01 1.613510e-01 0.000000e+00 0.000000e+00
 0.000000e+00 0.000000e+00 8.386493e-01 1.613507e-01 0.000000e+00
 0.000000e+00 0.000000e+00 0.000000e+00 8.386507e-01 1.613493e-01
 0.000000e+00 0.000000e+00 0.000000e+00 0.000000e+00 0.000000e+00
<ENDHMM>
~h "I"
<BEGINHMM>
<NUMSTATES> 5
<STATE> 2
<MEAN> 39
 -7.794988e+00 1.186935e+00 -5.567205e+00 1.358552e-01 3.609254e+00 6.563248e+00 5.495428e+00 7.536673e+00 6.218679e+00 5.118279e+00 1.998291e+00 2.187611e+00 6.328931e+01 -7.517815e-02 -4.324537e-02 6.470451e-02 5.783923e-02 5.162907e-02 5.748960e-02 2.122235e-02 1.918189e-02 -3.506194e-02 2.664232e-02 4.419659e-02 -7.675244e-03 -1.050566e-01 -1.371500e-02 -1.267106e-03 2.976766e-03 -9.323578e-04 -3.587578e-03 -5.505437e-03 -4.346235e-03 -7.509339e-03 -9.042371e-03 -6.597676e-03 -4.008123e-03 -5.553462e-03 -8.217100e-03
<VARIANCE> 39
 3.445386e+01 2.406219e+01 5.936976e+01 4.024655e+01 2.840114e+01 5.010789e+01 3.260445e+01 5.367191e+01 5.128562e+01 5.925250e+01 6.622947e+01 2.317240e+01 1.252209e+02 9.298782e-01 1.810454e+00 2.637974e+00 2.116367e+00 1.777111e+00 2.676352e+00 1.956441e+00 2.712102e+00 3.355528e+00 3.057314e+00 2.966566e+00 2.033731e+00 2.950502e+00 1.547343e-01 3.080586e-01 4.783677e-01 3.977773e-01 3.376474e-01 4.605291e-01 3.609479e-01 5.097677e-01 5.820622e-01 5.978856e-01 5.547193e-01 4.242420e-01 4.189875e-01
<GCONST> 1.201370e+02
<STATE> 3
<MEAN> 39
 -8.289602e+00 9.553106e-01 -5.197355e+00 5.248781e-01 3.918006e+00 6.845302e+00 5.652883e+00 7.590142e+00 5.913873e+00 5.229225e+00 2.259789e+00 2.106644e+00 6.267002e+01 -8.523082e-02 -4.087391e-02 6.126195e-02 6.384110e-02 5.669839e-02 4.066749e-02 2.574017e-02 1.047733e-02 -5.150946e-02 1.869966e-02 4.665228e-02 -1.343605e-02 -9.866026e-02 -6.523583e-04 6.021275e-04 -4.192187e-04 7.412942e-04 1.052845e-03 -3.480589e-03 3.021802e-04 -1.653081e-03 -2.641303e-03 -1.859097e-03 -2.303418e-04 -8.843299e-04 2.148803e-03
<VARIANCE> 39
 3.394492e+01 2.529899e+01 6.609294e+01 3.896277e+01 3.005580e+01 4.957651e+01 3.453766e+01 5.324131e+01 5.247206e+01 5.836652e+01 6.345222e+01 2.409979e+01 1.295076e+02 9.309576e-01 1.814252e+00 3.026793e+00 2.163038e+00 1.743425e+00 2.810861e+00 2.053195e+00 2.673427e+00 3.369348e+00 3.197479e+00 2.898102e+00 2.109248e+00 2.800500e+00 1.478803e-01 3.103780e-01 5.371526e-01 4.104742e-01 3.266126e-01 4.789010e-01 3.657149e-01 4.956702e-01 5.723447e-01 6.283208e-01 5.374088e-01 4.357308e-01 3.776987e-01
<GCONST> 1.206413e+02
<STATE> 4
<MEAN> 39
 -8.748765e+00 7.616212e-01 -4.856662e+00 9.690757e-01 4.314069e+00 6.970818e+00 5.787940e+00 7.598568e+00 5.544390e+00 5.299551e+00 2.546129e+00 2.036684e+00 6.214317e+01 -7.689746e-02 -3.354898e-02 5.985428e-02 7.106572e-02 7.243065e-02 1.044254e-02 1.802207e-02 -1.506946e-04 -6.368060e-02 7.454308e-03 4.502765e-02 -1.390868e-02 -7.558155e-02 1.723015e-03 1.348947e-03 3.790345e-04 9.240494e-04 2.786025e-03 -5.497674e-03 -1.860558e-03 -2.274606e-03 -2.214226e-03 -2.505024e-03 -1.200785e-03 -4.516512e-04 5.124525e-03
<VARIANCE> 39
 3.341148e+01 2.520266e+01 7.469344e+01 3.739089e+01 3.276253e+01 4.915089e+01 3.763640e+01 5.288693e+01 5.355587e+01 5.773877e+01 6.047541e+01 2.513779e+01 1.359995e+02 9.915040e-01 1.745154e+00 3.213531e+00 2.145771e+00 1.704083e+00 2.909631e+00 2.174201e+00 2.694015e+00 3.306571e+00 3.332169e+00 2.848609e+00 2.082168e+00 2.741478e+00 1.508364e-01 3.004389e-01 5.597053e-01 4.077837e-01 3.129798e-01 4.935245e-01 3.734301e-01 4.946254e-01 5.504853e-01 6.549942e-01 5.256187e-01 4.221272e-01 3.601898e-01
<GCONST> 1.209653e+02
<TRANSP> 5
 0.000000e+00 1.000000e+00 0.000000e+00 0.000000e+00 0.000000e+00
 0.000000e+00 8.386195e-01 1.613805e-01 0.000000e+00 0.000000e+00
 0.000000e+00 0.000000e+00 8.386198e-01 1.613802e-01 0.000000e+00
 0.000000e+00 0.000000e+00 0.000000e+00 8.386216e-01 1.613784e-01
 0.000000e+00 0.000000e+00 0.000000e+00 0.000000e+00 0.000000e+00
<ENDHMM>
~h "O"
<BEGINHMM>
<NUMSTATES> 5
<STATE> 2
<MEAN> 39
 -5.010918e+00 -1.219736e+00 1.046323e+01 6.574087e+00 1.470492e+01 -1.146924e+00 -7.429425e+00 -1.035501e+00 -9.635668e-01 -9.741575e-01 -6.077778e+00 -5.974711e+00 7.860608e+01 7.173780e-02 1.436844e-01 -1.304169e-01 1.709747e-01 6.089699e-02 4.903711e-02 -4.980986e-02 -2.289906e-02 3.423825e-02 5.833524e-02 1.115488e-01 5.158183e-02 -1.730241e-01 -8.911418e-03 1.917862e-03 -1.179914e-02 -6.855050e-03 -6.151465e-03 1.043043e-02 1.547562e-02 6.995757e-03 4.286328e-03 6.101806e-03 7.976574e-03 8.665607e-03 -1.253243e-02
<VARIANCE> 39
 5.767054e+01 5.825867e+01 6.283131e+01 6.679626e+01 8.061305e+01 9.995721e+01 1.394707e+02 9.460717e+01 5.018465e+01 4.938813e+01 5.582019e+01 4.998877e+01 6.406738e+01 2.567751e+00 3.892694e+00 3.511040e+00 2.544377e+00 3.745301e+00 7.336070e+00 6.778971e+00 4.892438e+00 4.413110e+00 3.698591e+00 2.741815e+00 5.501939e+00 2.737327e+00 3.920006e-01 6.359694e-01 5.453492e-01 4.047783e-01 5.686235e-01 1.007953e+00 1.071638e+00 7.151893e-01 8.006242e-01 6.639132e-01 5.266082e-01 1.144044e+00 3.779241e-01
<GCONST> 1.385159e+02
<STATE> 3
<MEAN> 39
 -4.642991e+00 -3.147896e-01 9.565021e+00 7.577906e+00 1.503464e+01 -7.579691e-01 -7.606812e+00 -1.122532e+00 -7.175117e-01 -5.640393e-01 -5.317596e+00 -5.591072e+00 7.743645e+01 1.697642e-02 1.531128e-01 -2.053221e-01 1.218111e-01 1.676170e-02 1.131216e-01 4.925925e-02 2.531064e-02 6.370876e-02 9.546114e-02 1.579929e-01 1.044949e-01 -2.509394e-01 -8.432352e-03 1.436967e-04 -1.285055e-02 -1.097847e-02 -1.081444e-02 9.990221e-03 1.766819e-02 1.071489e-02 6.493824e-03 5.677200e-03 5.798739e-03 7.892686e-03 -1.306363e-02
<VARIANCE> 39
 4.563271e+01 5.652156e+01 7.392049e+01 6.055689e+01 8.406818e+01 9.502432e+01 1.398701e+02 9.880696e+01 5.158545e+01 4.643747e+01 5.363427e+01 5.365805e+01 7.360596e+01 2.218957e+00 3.669237e+00 3.258611e+00 2.313539e+00 3.483514e+00 6.445166e+00 6.358063e+00 4.727062e+00 4.239964e+00 3.345990e+00 2.589815e+00 5.450173e+00 2.333045e+00 3.462361e-01 5.824017e-01 4.925521e-01 3.739402e-01 5.117227e-01 8.865554e-01 9.823417e-01 6.820137e-01 7.493051e-01 6.129110e-01 4.972972e-01 1.117717e+00 3.134291e-01
<GCONST> 1.362722e+02
<STATE> 4
<MEAN> 39
 -4.608111e+00 6.330054e-01 8.197856e+00 8.241378e+00 1.505835e+01 1.993236e-02 -7.159333e+00 -8.849351e-01 -2.731579e-01 7.007241e-02 -4.289561e+00 -4.888599e+00 7.578716e+01 -3.380159e-02 1.513974e-01 -2.845001e-01 4.947448e-02 -5.461687e-02 1.725588e-01 1.588768e-01 9.537590e-02 1.060585e-01 1.295460e-01 1.907860e-01 1.511659e-01 -3.312818e-01 -7.323173e-03 -1.796711e-03 -1.197810e-02 -1.321832e-02 -1.380010e-02 7.965872e-03 1.740492e-02 1.319775e-02 7.800418e-03 4.847297e-03 3.552210e-03 5.930232e-03 -1.278830e-02
<VARIANCE> 39
 3.657131e+01 5.287876e+01 8.747723e+01 5.278351e+01 8.675226e+01 9.113605e+01 1.436651e+02 1.040166e+02 5.401688e+01 4.404670e+01 5.166027e+01 5.656254e+01 8.826465e+01 1.884823e+00 3.331577e+00 2.982924e+00 2.069033e+00 3.179740e+00 5.456614e+00 5.798787e+00 4.478879e+00 3.970930e+00 3.016500e+00 2.428741e+00 5.191047e+00 1.946415e+00 2.985982e-01 5.128999e-01 4.422477e-01 3.398660e-01 4.524694e-01 7.505002e-01 8.718478e-01 6.335694e-01 6.810069e-01 5.641004e-01 4.618500e-01 1.046436e+00 2.530503e-01
<GCONST> 1.334527e+02
<TRANSP> 5
 0.000000e+00 1.000000e+00 0.000000e+00 0.000000e+00 0.000000e+00
 0.000000e+00 8.384916e-01 1.615085e-01 0.000000e+00 0.000000e+00
 0.000000e+00 0.000000e+00 8.384916e-01 1.615085e-01 0.000000e+00
 0.000000e+00 0.000000e+00 0.000000e+00 8.384941e-01 1.615060e-01
 0.000000e+00 0.000000e+00 0.000000e+00 0.000000e+00 0.000000e+00
<ENDHMM>
~h "a"
<BEGINHMM>
<NUMSTATES> 5
<STATE> 2
<MEAN> 39
 -6.093297e+00 1.009604e+00 -1.628041e+00 -1.951337e+00 3.373533e+00 1.324733e+00 1.753290e+00 1.994312e+00 9.240953e-02 1.138407e+00 6.841805e-01 3.651007e+00 6.773547e+01 -1.763029e-02 6.066933e-02 -1.576995e-01 -2.086466e-02 -2.992091e-02 1.298561e-01 9.955732e-02 7.244236e-02 1.147279e-01 4.498088e-02 2.801671e-02 4.766195e-04 -1.695026e-01 2.639772e-03 -1.088418e-03 1.839878e-03 -1.912675e-03 -4.849110e-03 -6.657403e-03 -8.621244e-04 4.981535e-03 7.098739e-03 -1.056163e-05 -4.863559e-03 -1.151901e-03 4.579165e-03
<VARIANCE> 39
 6.165982e+01 2.327902e+01 7.272970e+01 3.728130e+01 6.205955e+01 1.218875e+02 6.670428e+01 9.754649e+01 1.354431e+02 5.866020e+01 4.982685e+01 2.284202e+01 1.783286e+02 4.566928e+00 2.016686e+00 3.583342e+00 2.610568e+00 3.064358e+00 4.831632e+00 3.829159e+00 4.183685e+00 4.991678e+00 3.349270e+00 4.541566e+00 2.169352e+00 4.589326e+00 7.870744e-01 3.595447e-01 6.212371e-01 4.636883e-01 4.944212e-01 8.254080e-01 5.908242e-01 7.660867e-01 7.343787e-01 5.779147e-01 9.356263e-01 4.695759e-01 6.257430e-01
<GCONST> 1.359733e+02
<STATE> 3
<MEAN> 39
 -6.150568e+00 1.364678e+00 -2.560349e+00 -2.113695e+00 3.107277e+00 2.004131e+00 2.346609e+00 2.532201e+00 9.214167e-01 1.410393e+00 7.652721e-01 3.626400e+00 6.677538e+01 1.624756e-03 5.350595e-02 -1.418967e-01 -3.179765e-02 -5.494925e-02 8.715707e-02 8.899955e-02 9.384741e-02 1.492875e-01 4.092446e-02 -2.486873e-03 -8.200963e-03 -1.345461e-01 3.469463e-03 -1.263117e-03 3.571124e-03 -1.638077e-03 -3.322842e-03 -7.008165e-03 -2.492037e-03 1.879834e-03 3.934747e-03 -1.429221e-03 -5.146830e-03 -1.687684e-03 7.119237e-03
<VARIANCE> 39
 5.828856e+01 2.202281e+01 6.665633e+01 3.932162e+01 5.400256e+01 1.039103e+02 5.780819e+01 9.228625e+01 1.269659e+02 5.769953e+01 4.851737e+01 2.125264e+01 1.857368e+02 4.103705e+00 1.934222e+00 3.108337e+00 2.480669e+00 2.844074e+00 4.343482e+00 3.433587e+00 4.005996e+00 4.422938e+00 3.304943e+00 4.234924e+00 2.017812e+00 4.950135e+00 7.048098e-01 3.414373e-01 5.427032e-01 4.297790e-01 4.729303e-01 7.509574e-01 5.470747e-01 7.389434e-01 6.598186e-01 5.794275e-01 8.739589e-01 4.339375e-01 6.641796e-01
<GCONST> 1.334977e+02
<STATE> 4
<MEAN> 39
 -6.078935e+00 1.674679e+00 -3.366348e+00 -2.333476e+00 2.718800e+00 2.423282e+00 2.848338e+00 3.142941e+00 1.899450e+00 1.634419e+00 6.602808e-01 3.541008e+00 6.606355e+01 2.379310e-02 4.585512e-02 -1.151564e-01 -3.970299e-02 -6.992044e-02 4.612375e-02 7.013609e-02 9.582424e-02 1.624448e-01 2.869360e-02 -3.335143e-02 -1.948821e-02 -8.645301e-02 3.568877e-03 -1.231446e-03 5.204876e-03 -8.909840e-04 -1.556152e-03 -6.051928e-03 -3.490177e-03 -1.184860e-03 2.940193e-04 -2.534054e-03 -4.900368e-03 -1.961156e-03 8.568705e-03
<VARIANCE> 39
 5.549577e+01 2.139598e+01 5.994414e+01 4.201507e+01 4.790879e+01 9.065520e+01 4.936116e+01 8.735411e+01 1.178967e+02 5.695977e+01 4.925122e+01 2.011131e+01 1.935220e+02 3.597416e+00 1.918261e+00 2.653792e+00 2.394934e+00 2.670217e+00 3.993759e+00 3.075696e+00 3.934771e+00 3.989385e+00 3.310818e+00 4.021652e+00 1.891849e+00 5.369857e+00 6.135467e-01 3.322900e-01 4.657815e-01 4.035079e-01 4.547693e-01 6.967040e-01 5.091066e-01 7.335401e-01 6.068485e-01 5.911150e-01 8.283677e-01 4.026999e-01 7.120228e-01
<GCONST> 1.313827e+02
<TRANSP> 5
 0.000000e+00 1.000000e+00 0.000000e+00 0.000000e+00 0.000000e+00
 0.000000e+00 8.386238e-01 1.613762e-01 0.000000e+00 0.000000e+00
 0.000000e+00 0.000000e+00 8.386245e-01 1.613756e-01 0.000000e+00
 0.000000e+00 0.000000e+00 0.000000e+00 8.386264e-01 1.613736e-01
 0.000000e+00 0.000000e+00 0.000000e+00 0.000000e+00 0.000000e+00
<ENDHMM>
~h "b"
<BEGINHMM>
<NUMSTATES> 5
<STATE> 2
<MEAN> 39
 -5.874841e+00 1.939541e+00 -3.984314e+00 -2.585326e+00 2.272976e+00 2.615250e+00 3.220531e+00 3.710530e+00 2.891902e+00 1.767125e+00 3.771859e-01 3.383505e+00 6.565934e+01 4.422745e-02 3.875321e-02 -7.931365e-02 -4.187328e-02 -7.395888e-02 1.424118e-02 4.734435e-02 8.053709e-02 1.534999e-01 1.107380e-02 -6.106300e-02 -3.159312e-02 -3.329701e-02 2.922649e-03 -1.039984e-03 6.368156e-03 2.701255e-04 2.252132e-04 -4.088928e-03 -3.791734e-03 -3.587426e-03 -3.095227e-03 -3.058199e-03 -4.045148e-03 -1.928903e-03 8.505946e-03
<VARIANCE> 39
 5.348719e+01 2.147142e+01 5.352879e+01 4.524007e+01 4.363389e+01 8.228432e+01 4.220192e+01 8.280502e+01 1.083079e+02 5.654561e+01 5.184267e+01 1.944660e+01 2.019355e+02 3.096377e+00 1.974917e+00 2.261023e+00 2.362083e+00 2.555332e+00 3.772734e+00 2.779487e+00 3.973516e+00 3.719905e+00 3.362560e+00 3.920233e+00 1.798327e+00 5.810229e+00 5.228380e-01 3.338553e-01 3.984152e-01 3.870235e-01 4.420204e-01 6.614297e-01 4.791513e-01 7.495759e-01 5.783350e-01 6.117601e-01 8.031296e-01 3.779818e-01 7.654358e-01
<GCONST> 1.298302e+02
<STATE> 3
<MEAN> 39
 -5.560671e+00 2.164383e+00 -4.363877e+00 -2.828595e+00 1.833293e+00 2.647217e+00 3.451015e+00 4.147429e+00 3.773297e+00 1.785428e+00 -5.837266e-02 3.154413e+00 6.557320e+01 5.847760e-02 3.291313e-02 -3.853620e-02 -3.613110e-02 -6.746361e-02 -4.027569e-03 2.487773e-02 5.381311e-02 1.266482e-01 -7.621449e-03 -8.200092e-02 -4.254393e-02 1.524301e-02 1.515740e-03 -8.423869e-04 6.712606e-03 1.729479e-03 1.894199e-03 -1.567599e-03 -3.345777e-03 -4.827112e-03 -5.507108e-03 -2.779092e-03 -2.571016e-03 -1.540670e-03 6.816822e-03
<VARIANCE> 39
 5.220631e+01 2.221903e+01 4.845668e+01 4.884286e+01 4.090174e+01 7.811399e+01 3.686309e+01 7.906439e+01 9.896532e+01 5.651018e+01 5.579100e+01 1.919404e+01 2.105703e+02 2.641901e+00 2.101039e+00 1.958914e+00 2.384297e+00 2.499393e+00 3.661002e+00 2.558195e+00 4.103368e+00 3.617777e+00 3.447666e+00 3.930097e+00 1.739953e+00 6.220118e+00 4.404742e-01 3.465445e-01 3.465440e-01 3.813753e-01 4.354806e-01 6.423033e-01 4.578225e-01 7.822568e-01 5.737743e-01 6.384879e-01 7.982275e-01 3.608461e-01 8.180494e-01
<GCONST> 1.289448e+02
<STATE> 4
<MEAN> 39
 -5.185355e+00 2.356450e+00 -4.491246e+00 -3.012508e+00 1.461449e+00 2.610054e+00 3.553728e+00 4.402474e+00 4.453131e+00 1.694670e+00 -5.951642e-01 2.866111e+00 6.575281e+01 6.288303e-02 2.825803e-02 1.902902e-03 -2.146770e-02 -5.162096e-02 -6.620998e-03 6.651033e-03 2.293904e-02 8.847860e-02 -2.275973e-02 -9.260678e-02 -5.032279e-02 5.011306e-02 -3.254785e-04 -6.467137e-04 6.138745e-03 3.174031e-03 3.253738e-03 9.562565e-04 -2.384114e-03 -4.807219e-03 -6.656926e-03 -1.781162e-03 -5.853104e-04 -8.752474e-04 3.837563e-03
<VARIANCE> 39
 5.142542e+01 2.347838e+01 4.535452e+01 5.262993e+01 3.937067e+01 7.686806e+01 3.348201e+01 7.655230e+01 9.094183e+01 5.679162e+01 6.037963e+01 1.921251e+01 2.181870e+02 2.260492e+00 2.280657e+00 1.763280e+00 2.454025e+00 2.491128e+00 3.627233e+00 2.411254e+00 4.287660e+00 3.660854e+00 3.547513e+00 4.035029e+00 1.714252e+00 6.550439e+00 3.715196e-01 3.687270e-01 3.136134e-01 3.858818e-01 4.345904e-01 6.346517e-01 4.439297e-01 8.233283e-01 5.894090e-01 6.669722e-01 8.102770e-01 3.511186e-01 8.629122e-01
<GCONST> 1.286937e+02
<TRANSP> 5
 0.000000e+00 1.000000e+00 0.000000e+00 0.000000e+00 0.000000e+00
 0.000000e+00 8.386171e-01 1.613829e-01 0.000000e+00 0.000000e+00
 0.000000e+00 0.000000e+00 8.386174e-01 1.613825e-01 0.000000e+00
 0.000000e+00 0.000000e+00 0.000000e+00 8.386196e-01 1.613804e-01
 0.000000e+00 0.000000e+00 0.000000e+00 0.000000e+00 0.000000e+00
<ENDHMM>
~h "e"
<BEGINHMM>
<NUMSTATES> 5
<STATE> 2
<MEAN> 39
 -6.973557e+00 3.449331e+00 -9.933600e-01 6.237653e+00 1.040824e+01 5.365515e+00 1.717747e-01 4.531002e+00 4.123340e+00 4.180727e+00 8.598645e-01 -2.719215e-01 6.483879e+01 -1.477450e-01 3.788898e-02 -3.912951e-01 -2.008746e-01 -3.022262e-01 1.949375e-01 3.641440e-01 3.109095e-01 2.231882e-01 1.788925e-01 1.937763e-01 1.832571e-01 -5.381834e-01 -1.720276e-04 -5.696790e-03 8.758054e-03 -9.533510e-04 2.110975e-03 -8.208915e-03 -8.058202e-03 -4.820040e-03 -3.915909e-03 -3.492809e-03 -4.305898e-03 -4.358601e-03 4.428292e-04
<VARIANCE> 39
 2.121276e+01 2.456921e+01 9.241273e+01 3.304376e+01 7.788431e+01 5.639623e+01 1.240085e+02 1.022053e+02 5.209214e+01 3.246599e+01 3.514280e+01 4.209948e+01 1.276904e+02 7.150657e-01 1.420002e+00 1.529451e+00 1.028417e+00 1.608167e+00 2.018121e+00 2.884064e+00 2.798988e+00 2.212975e+00 1.726879e+00 1.582153e+00 2.669562e+00 6.298895e-01 1.099127e-01 1.912424e-01 2.292579e-01 1.827702e-01 2.269369e-01 2.705000e-01 3.973920e-01 3.714236e-01 3.491618e-01 3.354314e-01 2.775272e-01 4.919871e-01 7.235580e-02
<GCONST> 1.109273e+02
<STATE> 3
<MEAN> 39
 -7.888776e+00 3.637419e+00 -3.350030e+00 4.974974e+00 8.550891e+00 6.501612e+00 2.356770e+00 6.415816e+00 5.476405e+00 5.263725e+00 2.026047e+00 8.359187e-01 6.152872e+01 -1.463245e-01 4.376889e-03 -3.319747e-01 -2.013168e-01 -2.824903e-01 1.420937e-01 3.073491e-01 2.734466e-01 1.937809e-01 1.542213e-01 1.649267e-01 1.547292e-01 -5.310488e-01 1.763067e-03 -3.856923e-03 1.252930e-02 3.180233e-03 7.417107e-03 -9.148085e-03 -1.268987e-02 -1.045191e-02 -7.505646e-03 -5.733166e-03 -5.729358e-03 -5.296884e-03 3.952807e-03
<VARIANCE> 39
 1.802129e+01 1.758668e+01 7.235773e+01 2.822310e+01 6.384489e+01 4.152482e+01 9.688244e+01 8.383424e+01 4.281631e+01 2.678407e+01 2.827600e+01 3.270615e+01 1.172241e+02 5.008584e-01 1.002684e+00 1.163574e+00 8.142303e-01 1.254982e+00 1.485292e+00 2.248717e+00 2.316411e+00 1.753668e+00 1.404621e+00 1.320452e+00 1.997442e+00 4.150325e-01 7.493994e-02 1.318969e-01 1.756179e-01 1.458097e-01 1.815990e-01 2.004751e-01 3.110492e-01 3.118320e-01 2.763160e-01 2.708556e-01 2.295059e-01 3.613881e-01 4.641679e-02
<GCONST> 1.010235e+02
<STATE> 4
<MEAN> 39
 -8.780346e+00 3.631310e+00 -5.313480e+00 3.741788e+00 6.853742e+00 7.302991e+00 4.155362e+00 8.027640e+00 6.619355e+00 6.176627e+00 3.001651e+00 1.759282e+00 5.828830e+01 -1.337340e-01 -1.676107e-02 -2.522554e-01 -1.778263e-01 -2.323683e-01 8.638085e-02 2.264858e-01 2.048569e-01 1.445232e-01 1.168522e-01 1.282859e-01 1.213462e-01 -5.037492e-01 2.837480e-03 -1.419568e-03 1.365996e-02 5.522105e-03 1.007916e-02 -7.825404e-03 -1.343200e-02 -1.255092e-02 -8.795375e-03 -6.541777e-03 -6.058909e-03 -5.083393e-03 6.025319e-03
<VARIANCE> 39
 1.421784e+01 1.190152e+01 5.007455e+01 2.220584e+01 4.673718e+01 2.804193e+01 6.744931e+01 6.111351e+01 3.161794e+01 2.044998e+01 2.124006e+01 2.359613e+01 9.984058e+01 3.331302e-01 6.712826e-01 8.448388e-01 6.384832e-01 9.673311e-01 1.083232e+00 1.712162e+00 1.865590e+00 1.357618e+00 1.111291e+00 1.067957e+00 1.439610e+00 2.574363e-01 4.854839e-02 8.794846e-02 1.289857e-01 1.140448e-01 1.450544e-01 1.517740e-01 2.441948e-01 2.612137e-01 2.159926e-01 2.117596e-01 1.860695e-01 2.578492e-01 2.803196e-02
<GCONST> 8.925439e+01
<TRANSP> 5
 0.000000e+00 1.000000e+00 0.000000e+00 0.000000e+00 0.000000e+00
 0.000000e+00 8.384314e-01 1.615686e-01 0.000000e+00 0.000000e+00
 0.000000e+00 0.000000e+00 8.384315e-01 1.615685e-01 0.000000e+00
 0.000000e+00 0.000000e+00 0.000000e+00 8.384329e-01 1.615671e-01
 0.000000e+00 0.000000e+00 0.000000e+00 0.000000e+00 0.000000e+00
<ENDHMM>
~h "g"
<BEGINHMM>
<NUMSTATES> 5
<STATE> 2
<MEAN> 39
 -4.873199e+00 1.554985e+00 6.348603e+00 8.439776e+00 1.462007e+01 1.145125e+00 -6.044864e+00 -1.981606e-01 4.443477e-01 9.072371e-01 -3.079777e+00 -3.913941e+00 7.364910e+01 -7.722779e-02 1.376413e-01 -3.556125e-01 -3.339564e-02 -1.413219e-01 2.174364e-01 2.629275e-01 1.778941e-01 1.547634e-01 1.581530e-01 2.100188e-01 1.849735e-01 -4.087761e-01 -5.891874e-03 -3.800950e-03 -8.682196e-03 -1.296486e-02 -1.378142e-02 4.331660e-03 1.392967e-02 1.291289e-02 7.383943e-03 3.551938e-03 1.477722e-03 3.177974e-03 -1.114474e-02
<VARIANCE> 39
 3.045550e+01 4.736044e+01 1.000526e+02 4.567536e+01 8.876231e+01 8.685926e+01 1.485570e+02 1.097113e+02 5.679242e+01 4.197292e+01 4.919381e+01 5.751228e+01 1.050757e+02 1.563368e+00 2.899435e+00 2.665854e+00 1.809408e+00 2.826123e+00 4.453636e+00 5.120347e+00 4.149451e+00 3.612355e+00 2.698150e+00 2.252497e+00 4.732634e+00 1.573092e+00 2.493506e-01 4.321592e-01 3.920595e-01 3.026833e-01 3.929328e-01 6.108823e-01 7.484946e-01 5.734100e-01 6.013895e-01 5.138001e-01 4.206339e-01 9.348739e-01 1.976441e-01
<GCONST> 1.298156e+02
<STATE> 3
<MEAN> 39
 -5.396524e+00 2.375605e+00 4.086149e+00 8.124392e+00 1.364672e+01 2.518834e+00 -4.315121e+00 9.959260e-01 1.458834e+00 1.911762e+00 -1.766879e+00 -2.748564e+00 7.104832e+01 -1.117131e-01 1.117850e-01 -4.034867e-01 -1.114855e-01 -2.237710e-01 2.384538e-01 3.415448e-01 2.543684e-01 1.983618e-01 1.784387e-01 2.165669e-01 2.015714e-01 -4.741603e-01 -4.249847e-03 -5.469010e-03 -3.353920e-03 -1.027756e-02 -1.039920e-02 -3.305783e-04 7.435964e-03 9.156641e-03 4.923836e-03 1.738204e-03 -4.755758e-04 2.306863e-04 -8.072795e-03
<VARIANCE> 39
 2.660294e+01 4.030860e+01 1.071582e+02 4.046193e+01 8.928719e+01 8.027064e+01 1.498924e+02 1.136439e+02 5.854546e+01 3.978444e+01 4.576096e+01 5.547485e+01 1.200132e+02 1.257611e+00 2.407953e+00 2.307523e+00 1.540920e+00 2.428466e+00 3.515189e+00 4.367482e+00 3.745031e+00 3.179534e+00 2.382309e+00 2.055753e+00 4.113387e+00 1.222431e+00 1.998989e-01 3.469041e-01 3.402556e-01 2.632993e-01 3.346769e-01 4.791500e-01 6.220983e-01 5.063090e-01 5.160862e-01 4.597217e-01 3.752723e-01 7.942773e-01 1.485898e-01
<GCONST> 1.250836e+02
<STATE> 4
<MEAN> 39
 -6.119659e+00 3.023029e+00 1.567235e+00 7.345488e+00 1.218746e+01 3.985071e+00 -2.151801e+00 2.634154e+00 2.725116e+00 3.029056e+00 -4.299361e-01 -1.498955e+00 6.806975e+01 -1.357355e-01 7.644838e-02 -4.168193e-01 -1.703901e-01 -2.819530e-01 2.302685e-01 3.775898e-01 3.037893e-01 2.242773e-01 1.865741e-01 2.110477e-01 2.002636e-01 -5.191352e-01 -2.302854e-03 -6.252415e-03 2.972698e-03 -5.869825e-03 -4.491341e-03 -4.947642e-03 -6.479474e-04 2.564750e-03 7.530214e-04 -7.450492e-04 -2.421216e-03 -2.410424e-03 -3.906159e-03
<VARIANCE> 39
 2.389572e+01 3.242908e+01 1.049599e+02 3.673877e+01 8.632539e+01 7.001792e+01 1.425173e+02 1.121700e+02 5.742866e+01 3.680380e+01 4.109322e+01 5.013514e+01 1.285708e+02 9.722993e-01 1.900715e+00 1.920854e+00 1.275624e+00 2.010977e+00 2.696208e+00 3.603713e+00 3.285530e+00 2.701120e+00 2.058556e+00 1.831975e+00 3.399910e+00 9.036838e-01 1.525722e-01 2.644805e-01 2.856013e-01 2.227871e-01 2.789082e-01 3.640883e-01 5.026397e-01 4.375058e-01 4.305392e-01 3.999600e-01 3.270108e-01 6.410411e-01 1.066940e-01
<GCONST> 1.189069e+02
<TRANSP> 5
 0.000000e+00 1.000000e+00 0.000000e+00 0.000000e+00 0.000000e+00
 0.000000e+00 8.384645e-01 1.615355e-01 0.000000e+00 0.000000e+00
 0.000000e+00 0.000000e+00 8.384647e-01 1.615353e-01 0.000000e+00
 0.000000e+00 0.000000e+00 0.000000e+00 8.384671e-01 1.615330e-01
 0.000000e+00 0.000000e+00 0.000000e+00 0.000000e+00 0.000000e+00
<ENDHMM>
~h "h"
<BEGINHMM>
<NUMSTATES> 5
<STATE> 2
<MEAN> 39
 -8.620592e+00 -3.475552e+00 9.135876e+00 -2.471518e+00 -2.060482e+00 -4.224424e+00 3.031629e-01 8.261716e+00 2.714054e+00 8.185511e-02 -3.617411e+00 5.136158e+00 7.726228e+01 6.688319e-02 5.102499e-02 -1.327566e-01 -4.182027e-02 -3.445750e-02 -6.465846e-02 9.647612e-02 3.790940e-02 3.968148e-03 8.434454e-02 1.333645e-02 -1.283474e-02 -1.267930e-01 4.616315e-03 1.400561e-03 -3.110633e-03 5.708722e-03 8.730425e-03 7.987107e-04 -6.555782e-03 -7.073722e-03 8.949753e-04 -3.272074e-03 -1.088462e-03 -5.618448e-03 2.735498e-04
<VARIANCE> 39
 1.215286e+02 4.359998e+01 7.125784e+01 5.279516e+01 7.780665e+01 1.934128e+02 7.929137e+01 1.005050e+02 1.290937e+02 5.858992e+01 8.414095e+01 4.197287e+01 9.039160e+01 5.916080e+00 2.884981e+00 3.543482e+00 4.385372e+00 2.973754e+00 1.172172e+01 4.488669e+00 5.220789e+00 6.826278e+00 4.047887e+00 5.727751e+00 3.066401e+00 3.107023e+00 7.664194e-01 4.620090e-01 6.304976e-01 7.456811e-01 4.458063e-01 2.070639e+00 7.773880e-01 9.016529e-01 1.054989e+00 6.895751e-01 9.973072e-01 5.816785e-01 4.747470e-01
<GCONST> 1.444609e+02
<STATE> 3
<MEAN> 39
 -8.112301e+00 -3.131301e+00 8.241210e+00 -2.593701e+00 -2.064037e+00 -4.596912e+00 7.269709e-01 8.302162e+00 2.767168e+00 5.206491e-01 -3.545932e+00 4.943738e+00 7.647272e+01 9.096188e-02 5.654643e-02 -1.459358e-01 -1.365668e-02 1.331835e-02 -6.067555e-02 5.104849e-02 -1.123215e-02 4.693074e-03 6.099585e-02 1.009555e-02 -3.749089e-02 -1.196035e-01 3.361642e-03 8.306449e-04 -2.020400e-03 4.190505e-03 7.638496e-03 1.069975e-03 -7.391296e-03 -8.402361e-03 -6.024105e-04 -3.914197e-03 6.770973e-05 -3.315359e-03 1.169791e-03
<VARIANCE> 39
 1.127796e+02 4.361435e+01 7.693713e+01 4.770108e+01 8.300167e+01 2.017325e+02 8.020876e+01 1.100714e+02 1.372368e+02 5.979655e+01 8.238618e+01 3.837078e+01 9.969824e+01 5.631659e+00 2.988176e+00 3.580274e+00 4.272956e+00 3.123346e+00 1.131915e+01 4.642264e+00 5.308051e+00 7.009890e+00 4.110439e+00 5.635177e+00 2.994558e+00 3.157419e+00 7.536592e-01 4.794051e-01 6.286575e-01 7.429093e-01 4.567663e-01 1.995922e+00 7.868626e-01 9.130349e-01 1.072691e+00 6.942753e-01 9.899446e-01 5.741796e-01 4.847675e-01
<GCONST> 1.447419e+02
<STATE> 4
<MEAN> 39
 -7.499969e+00 -2.774443e+00 7.309588e+00 -2.588092e+00 -1.813567e+00 -4.940632e+00 8.648586e-01 8.024014e+00 2.780225e+00 8.053676e-01 -3.466300e+00 4.659922e+00 7.575980e+01 1.035574e-01 5.850238e-02 -1.514790e-01 5.072540e-03 5.429385e-02 -5.152933e-02 6.435514e-03 -6.453034e-02 -6.843072e-03 3.589635e-02 1.558917e-02 -4.860674e-02 -1.083470e-01 1.262824e-03 3.182912e-04 -8.426070e-04 2.713917e-03 6.522247e-03 2.330604e-03 -6.707142e-03 -8.680897e-03 -2.641679e-03 -3.979676e-03 1.571487e-03 -1.213581e-03 1.489703e-03
<VARIANCE> 39
 1.043821e+02 4.295550e+01 8.117506e+01 4.397444e+01 9.059916e+01 2.107174e+02 8.236209e+01 1.200674e+02 1.456644e+02 6.097028e+01 8.060652e+01 3.628582e+01 1.080771e+02 5.376215e+00 3.064302e+00 3.680625e+00 4.144593e+00 3.302649e+00 1.095047e+01 4.788762e+00 5.405046e+00 7.229770e+00 4.140642e+00 5.628959e+00 2.963520e+00 3.213739e+00 7.436121e-01 4.936843e-01 6.362614e-01 7.349700e-01 4.729811e-01 1.909078e+00 7.912659e-01 9.320436e-01 1.097098e+00 6.949108e-01 1.003301e+00 5.758047e-01 4.934299e-01
<GCONST> 1.451314e+02
<TRANSP> 5
 0.000000e+00 1.000000e+00 0.000000e+00 0.000000e+00 0.000000e+00
 0.000000e+00 8.386425e-01 1.613575e-01 0.000000e+00 0.000000e+00
 0.000000e+00 0.000000e+00 8.386428e-01 1.613571e-01 0.000000e+00
 0.000000e+00 0.000000e+00 0.000000e+00 8.386445e-01 1.613555e-01
 0.000000e+00 0.000000e+00 0.000000e+00 0.000000e+00 0.000000e+00
<ENDHMM>
~h "i"
<BEGINHMM>
<NUMSTATES> 5
<STATE> 2
<MEAN> 39
 -1.105567e+01 -2.852423e+00 9.567402e+00 2.007788e+00 1.301934e+01 2.083549e+00 -3.509761e-01 1.227040e+00 -1.549111e+00 4.010420e-01 -3.521602e+00 -3.431250e+00 7.671965e+01 1.307833e-01 -5.911015e-02 1.207879e-01 1.073244e-02 2.614907e-02 -1.304357e-01 -2.018099e-01 -7.547322e-02 1.799009e-03 -7.962417e-02 -1.758572e-01 -1.130854e-01 2.247642e-01 7.424942e-03 5.649407e-03 -5.539218e-03 6.421354e-03 -1.544359e-03 -7.930679e-04 -3.453966e-03 1.232660e-03 2.347849e-03 4.709274e-04 2.068836e-03 3.652465e-04 -9.306653e-03
<VARIANCE> 39
 1.014390e+02 5.047840e+01 8.725968e+01 5.013030e+01 6.742262e+01 1.221506e+02 1.422412e+02 7.646701e+01 6.155114e+01 7.017434e+01 7.823616e+01 3.538902e+01 1.507056e+02 4.292164e+00 3.451027e+00 5.049230e+00 3.359051e+00 4.331406e+00 8.342785e+00 6.648241e+00 4.240459e+00 3.859175e+00 5.829677e+00 3.510168e+00 3.706625e+00 5.174187e+00 5.531039e-01 6.253957e-01 8.635138e-01 5.199234e-01 6.970597e-01 1.165887e+00 1.026243e+00 6.300717e-01 6.901335e-01 1.015144e+00 6.441865e-01 7.716088e-01 7.040184e-01
<GCONST> 1.440886e+02
<STATE> 3
<MEAN> 39
 -1.017347e+01 -3.164112e+00 1.025494e+01 2.143829e+00 1.315917e+01 1.271559e+00 -1.626447e+00 7.766633e-01 -1.512986e+00 -8.408806e-02 -4.583116e+00 -4.127789e+00 7.800923e+01 1.725265e-01 -2.243845e-02 8.751027e-02 5.356438e-02 2.063597e-02 -1.327556e-01 -2.205320e-01 -6.831737e-02 1.426534e-02 -7.512984e-02 -1.581994e-01 -1.095399e-01 1.660640e-01 4.495221e-03 6.525665e-03 -5.295881e-03 7.718696e-03 8.958402e-04 9.384633e-04 -1.596548e-03 8.389727e-04 9.326351e-04 1.585891e-03 5.143293e-03 1.443522e-03 -1.024413e-02
<VARIANCE> 39
 1.044196e+02 5.207288e+01 7.404098e+01 5.420724e+01 6.602502e+01 1.242844e+02 1.487644e+02 7.908253e+01 5.809763e+01 6.771225e+01 7.712113e+01 3.697387e+01 1.227886e+02 4.181395e+00 3.639213e+00 4.837175e+00 3.330014e+00 4.398298e+00 8.683600e+00 6.958258e+00 4.500963e+00 4.058910e+00 5.578528e+00 3.403053e+00 4.032701e+00 4.875026e+00 5.536445e-01 6.554192e-01 8.251740e-01 5.105184e-01 7.127284e-01 1.203704e+00 1.094962e+00 6.650167e-01 7.426015e-01 9.671919e-01 6.256183e-01 8.484685e-01 6.769418e-01
<GCONST> 1.442131e+02
<STATE> 4
<MEAN> 39
 -9.062822e+00 -3.242140e+00 1.074302e+01 2.558290e+00 1.328838e+01 4.621285e-01 -2.998863e+00 3.662508e-01 -1.412446e+00 -5.306432e-01 -5.507633e+00 -4.793103e+00 7.893246e+01 1.945092e-01 1.843649e-02 5.536613e-02 1.022290e-01 2.957027e-02 -1.235892e-01 -2.265572e-01 -6.396706e-02 1.828056e-02 -6.320400e-02 -1.220352e-01 -9.851173e-02 1.025128e-01 6.858727e-04 6.659499e-03 -5.344972e-03 7.691043e-03 2.781845e-03 3.143059e-03 1.028449e-03 3.788046e-04 -1.086432e-04 2.973194e-03 7.851787e-03 3.000771e-03 -1.061588e-02
<VARIANCE> 39
 1.029888e+02 5.372375e+01 6.357088e+01 5.927741e+01 6.627911e+01 1.232305e+02 1.513453e+02 8.188621e+01 5.507899e+01 6.452923e+01 7.359719e+01 3.881305e+01 9.798047e+01 3.953480e+00 3.803756e+00 4.580474e+00 3.252613e+00 4.384834e+00 8.854832e+00 7.160586e+00 4.720994e+00 4.244446e+00 5.249031e+00 3.283693e+00 4.390529e+00 4.492854e+00 5.388694e-01 6.776993e-01 7.760692e-01 4.964947e-01 7.117438e-01 1.220254e+00 1.144659e+00 6.957285e-01 7.888857e-01 9.080282e-01 6.064523e-01 9.294685e-01 6.332143e-01
<GCONST> 1.438535e+02
<TRANSP> 5
 0.000000e+00 1.000000e+00 0.000000e+00 0.000000e+00 0.000000e+00
 0.000000e+00 8.385321e-01 1.614679e-01 0.000000e+00 0.000000e+00
 0.000000e+00 0.000000e+00 8.385326e-01 1.614674e-01 0.000000e+00
 0.000000e+00 0.000000e+00 0.000000e+00 8.385351e-01 1.614650e-01
 0.000000e+00 0.000000e+00 0.000000e+00 0.000000e+00 0.000000e+00
<ENDHMM>
~h "k"
<BEGINHMM>
<NUMSTATES> 5
<STATE> 2
<MEAN> 39
 -1.173220e+01 -1.018708e+00 6.328135e+00 2.546784e+00 1.175298e+01 4.099200e+00 2.482387e+00 2.825864e+00 -8.242646e-01 1.782114e+00 -5.757996e-01 -1.432932e+00 7.133932e+01 -3.059259e-02 -1.141548e-01 2.122061e-01 -3.853978e-02 1.112417e-01 -9.022201e-02 -1.170236e-01 -9.170645e-02 -7.383754e-02 -6.882647e-02 -1.315065e-01 -1.015910e-01 3.192992e-01 7.876470e-03 8.402125e-04 -3.719321e-03 -4.105563e-04 -5.728151e-03 -2.449910e-03 -4.555461e-03 4.073820e-05 4.486652e-03 -1.060858e-03 -4.904738e-03 -1.017719e-03 -8.757445e-04
<VARIANCE> 39
 8.085400e+01 4.284964e+01 1.274078e+02 4.357858e+01 7.576932e+01 1.020497e+02 1.066602e+02 6.941537e+01 7.297964e+01 7.265853e+01 6.998519e+01 3.179586e+01 2.174385e+02 3.777610e+00 2.821742e+00 5.235705e+00 3.215677e+00 3.645198e+00 6.704640e+00 5.273002e+00 3.439790e+00 3.393239e+00 5.881309e+00 3.685684e+00 2.935361e+00 5.395622e+00 4.590362e-01 5.103976e-01 8.900713e-01 5.176396e-01 5.689499e-01 9.672792e-01 7.739432e-01 5.293111e-01 5.570874e-01 1.038863e+00 6.719415e-01 5.794275e-01 6.780051e-01
<GCONST> 1.407280e+02
<STATE> 3
<MEAN> 39
 -1.183981e+01 -1.716995e+00 7.582982e+00 2.296489e+00 1.236851e+01 3.519685e+00 1.716993e+00 2.265837e+00 -1.232369e+00 1.353151e+00 -1.430454e+00 -2.066394e+00 7.328114e+01 2.065783e-02 -1.061127e-01 1.868767e-01 -3.662238e-02 7.641780e-02 -1.056547e-01 -1.457939e-01 -8.983063e-02 -4.572102e-02 -7.500425e-02 -1.591501e-01 -1.076720e-01 3.071527e-01 9.004715e-03 2.508062e-03 -5.080976e-03 1.865686e-03 -5.296553e-03 -2.381548e-03 -4.793431e-03 8.965858e-04 4.502086e-03 -6.885376e-04 -3.171260e-03 -7.056023e-04 -4.655520e-03
<VARIANCE> 39
 8.836203e+01 4.611239e+01 1.159382e+02 4.504841e+01 7.306647e+01 1.102064e+02 1.200353e+02 7.170612e+01 6.928126e+01 7.265846e+01 7.371108e+01 3.287467e+01 2.016768e+02 4.081929e+00 3.034890e+00 5.258349e+00 3.294324e+00 3.945327e+00 7.312743e+00 5.777654e+00 3.686786e+00 3.509788e+00 5.994549e+00 3.656525e+00 3.162598e+00 5.437292e+00 5.034333e-01 5.507255e-01 8.968658e-01 5.233662e-01 6.217158e-01 1.043336e+00 8.590031e-01 5.593048e-01 5.926083e-01 1.054451e+00 6.694328e-01 6.370621e-01 7.027484e-01
<GCONST> 1.423251e+02
<STATE> 4
<MEAN> 39
 -1.161989e+01 -2.348808e+00 8.672562e+00 2.086665e+00 1.277735e+01 2.844540e+00 7.724413e-01 1.725014e+00 -1.468647e+00 8.873543e-01 -2.438445e+00 -2.736464e+00 7.511349e+01 7.704651e-02 -8.766605e-02 1.548647e-01 -2.019249e-02 4.604829e-02 -1.200479e-01 -1.752745e-01 -8.346926e-02 -1.895998e-02 -7.891490e-02 -1.752099e-01 -1.117898e-01 2.736960e-01 8.954579e-03 4.209218e-03 -5.618358e-03 4.282495e-03 -3.819420e-03 -1.902744e-03 -4.502550e-03 1.314546e-03 3.710974e-03 -2.436691e-04 -7.821441e-04 -3.003527e-04 -7.492279e-03
<VARIANCE> 39
 9.558025e+01 4.861249e+01 1.018476e+02 4.715997e+01 7.000540e+01 1.171980e+02 1.322920e+02 7.403536e+01 6.535348e+01 7.182883e+01 7.686486e+01 3.403755e+01 1.783369e+02 4.259731e+00 3.247476e+00 5.193848e+00 3.344840e+00 4.178904e+00 7.871448e+00 6.245585e+00 3.961331e+00 3.670562e+00 5.974652e+00 3.597893e+00 3.417273e+00 5.365881e+00 5.359032e-01 5.898153e-01 8.878710e-01 5.242565e-01 6.658096e-01 1.110935e+00 9.451183e-01 5.938817e-01 6.384087e-01 1.045780e+00 6.597899e-01 7.009597e-01 7.125278e-01
<GCONST> 1.434586e+02
<TRANSP> 5
 0.000000e+00 1.000000e+00 0.000000e+00 0.000000e+00 0.000000e+00
 0.000000e+00 8.385499e-01 1.614502e-01 0.000000e+00 0.000000e+00
 0.000000e+00 0.000000e+00 8.385503e-01 1.614498e-01 0.000000e+00
 0.000000e+00 0.000000e+00 0.000000e+00 8.385527e-01 1.614473e-01
 0.000000e+00 0.000000e+00 0.000000e+00 0.000000e+00 0.000000e+00
<ENDHMM>
~h "m"
<BEGINHMM>
<NUMSTATES> 5
<STATE> 2
<MEAN> 39
 -1.092120e+01 -9.993888e-01 -5.287068e+00 2.983918e+00 6.194167e+00 6.560622e+00 5.439092e+00 8.590129e+00 5.483406e+00 5.573602e+00 4.136250e+00 1.458019e+00 6.070816e+01 -2.120116e-02 -9.642649e-03 2.571211e-01 1.160320e-01 1.568877e-01 -1.102338e-01 -1.723287e-01 -1.340663e-01 -1.066776e-01 -1.810958e-01 -1.215865e-01 -1.143907e-01 2.253115e-01 -1.280513e-03 -3.064247e-03 1.502011e-02 1.661096e-03 5.229471e-03 -1.724073e-03 -8.973228e-03 -4.409559e-03 -2.669168e-03 -7.165450e-03 -5.233988e-03 -4.814421e-03 1.918300e-02
<VARIANCE> 39
 2.901460e+01 1.661916e+01 1.125880e+02 2.739634e+01 3.680530e+01 3.908704e+01 5.975731e+01 5.357275e+01 4.016035e+01 5.321168e+01 3.380416e+01 3.864161e+01 2.022119e+02 1.286223e+00 6.555260e-01 2.450854e+00 1.192687e+00 1.538003e+00 2.490370e+00 2.615345e+00 3.568175e+00 2.914768e+00 2.461102e+00 2.313874e+00 1.975330e+00 2.496236e+00 1.507849e-01 1.058586e-01 3.593741e-01 2.436535e-01 2.610132e-01 4.579653e-01 4.092897e-01 6.343737e-01 5.055127e-01 4.842855e-01 4.743338e-01 4.119945e-01 3.062745e-01
<GCONST> 1.159984e+02
<STATE> 3
<MEAN> 39
 -1.106467e+01 -1.182451e+00 -3.270360e+00 3.733125e+00 7.250244e+00 5.815432e+00 4.123415e+00 7.666607e+00 4.759425e+00 4.269543e+00 3.244166e+00 6.333885e-01 6.270706e+01 -2.208172e-02 -3.381805e-02 3.415186e-01 1.219701e-01 1.738458e-01 -1.231352e-01 -2.207053e-01 -1.521363e-01 -1.217929e-01 -2.210995e-01 -1.504614e-01 -1.349192e-01 3.447966e-01 7.061366e-05 -4.062580e-03 1.329530e-02 6.335835e-04 1.921266e-03 -1.979942e-03 -7.483865e-03 -2.603969e-03 -2.211658e-03 -6.272947e-03 -4.579114e-03 -2.771091e-03 1.876868e-02
<VARIANCE> 39
 4.145337e+01 1.885375e+01 1.434151e+02 3.233989e+01 4.540355e+01 4.693190e+01 7.153917e+01 6.205282e+01 4.763274e+01 6.105394e+01 3.925269e+01 4.330370e+01 2.489548e+02 1.861718e+00 7.040822e-01 2.727406e+00 1.297576e+00 1.843104e+00 2.956121e+00 3.049277e+00 4.007807e+00 3.242712e+00 2.439385e+00 2.571903e+00 2.091147e+00 3.230280e+00 2.020117e-01 1.079520e-01 3.872486e-01 2.484700e-01 3.055103e-01 5.199648e-01 4.717201e-01 6.921486e-01 5.501205e-01 4.635688e-01 5.184770e-01 4.298314e-01 3.929337e-01
<GCONST> 1.215024e+02
<STATE> 4
<MEAN> 39
 -1.115641e+01 -1.518372e+00 -8.480320e-01 4.483834e+00 8.296208e+00 4.989904e+00 2.581642e+00 6.702837e+00 3.983487e+00 2.766862e+00 2.198103e+00 -2.385538e-01 6.536406e+01 -1.244031e-02 -5.840765e-02 4.028908e-01 1.193533e-01 1.658888e-01 -1.352966e-01 -2.541535e-01 -1.559466e-01 -1.269453e-01 -2.505933e-01 -1.747771e-01 -1.385043e-01 4.442835e-01 1.735984e-03 -3.888963e-03 9.066873e-03 -8.995791e-04 -2.310605e-03 -1.842475e-03 -4.814130e-03 -1.465825e-04 -2.282694e-04 -4.238560e-03 -3.799246e-03 9.727345e-05 1.473740e-02
<VARIANCE> 39
 5.708011e+01 2.208564e+01 1.677522e+02 3.769923e+01 5.301814e+01 5.749079e+01 8.126147e+01 6.750804e+01 5.520554e+01 6.773031e+01 4.520893e+01 4.743321e+01 2.838413e+02 2.578827e+00 8.148646e-01 3.113875e+00 1.506541e+00 2.207765e+00 3.629737e+00 3.488191e+00 4.380908e+00 3.639231e+00 2.513827e+00 2.857528e+00 2.242002e+00 3.890263e+00 2.664448e-01 1.205202e-01 4.385451e-01 2.699112e-01 3.633285e-01 6.067811e-01 5.393296e-01 7.401961e-01 5.998885e-01 4.650180e-01 5.656142e-01 4.498099e-01 4.727089e-01
<GCONST> 1.268745e+02
<TRANSP> 5
 0.000000e+00 1.000000e+00 0.000000e+00 0.000000e+00 0.000000e+00
 0.000000e+00 8.386496e-01 1.613504e-01 0.000000e+00 0.000000e+00
 0.000000e+00 0.000000e+00 8.386499e-01 1.613501e-01 0.000000e+00
 0.000000e+00 0.000000e+00 0.000000e+00 8.386509e-01 1.613491e-01
 0.000000e+00 0.000000e+00 0.000000e+00 0.000000e+00 0.000000e+00
<ENDHMM>
~h "n"
<BEGINHMM>
<NUMSTATES> 5
<STATE> 2
<MEAN> 39
 -7.938443e+00 1.250026e+00 -6.061513e-01 6.598579e-01 5.930491e+00 3.964406e+00 2.570274e+00 4.838326e+00 3.748247e+00 2.733003e+00 -6.333246e-01 4.604070e-01 6.445229e+01 4.766127e-03 1.035169e-02 4.505621e-02 4.305815e-02 3.523103e-02 -2.349040e-02 -4.822414e-02 -1.231007e-02 7.212165e-04 -1.627293e-03 -9.490635e-03 -3.268557e-02 -6.391034e-02 -1.922466e-03 1.265363e-03 2.503033e-03 2.107458e-03 3.098666e-03 1.090262e-03 -3.807118e-04 -1.993709e-03 -2.430960e-03 2.554478e-04 1.668524e-03 -6.281091e-04 1.547198e-03
<VARIANCE> 39
 5.633165e+01 3.316027e+01 1.037151e+02 5.031908e+01 6.376065e+01 7.729922e+01 7.776141e+01 7.209514e+01 6.711980e+01 5.697266e+01 6.947741e+01 3.490749e+01 2.599946e+02 1.839178e+00 2.224259e+00 2.500101e+00 2.193026e+00 2.348916e+00 4.200596e+00 3.291133e+00 3.418449e+00 3.209142e+00 3.231480e+00 2.997144e+00 2.261425e+00 3.900918e+00 2.645636e-01 3.782065e-01 4.281488e-01 3.490265e-01 3.924743e-01 6.352672e-01 5.456955e-01 5.857096e-01 5.474328e-01 5.866103e-01 5.595856e-01 4.576392e-01 5.105546e-01
<GCONST> 1.300386e+02
<STATE> 3
<MEAN> 39
 -7.924229e+00 1.323247e+00 -2.952757e-01 9.520338e-01 6.181794e+00 3.832091e+00 2.265979e+00 4.735217e+00 3.716054e+00 2.723152e+00 -6.756728e-01 2.570402e-01 6.408057e+01 -9.731804e-03 1.758759e-02 5.871603e-02 5.494343e-02 5.389066e-02 -1.444742e-02 -4.814161e-02 -2.334407e-02 -1.333424e-02 1.044072e-03 1.654617e-03 -3.581522e-02 -5.586085e-02 -3.707562e-03 6.362041e-04 1.928204e-03 1.243927e-03 2.997295e-03 2.514525e-03 1.049221e-03 -1.178845e-03 -2.723065e-03 2.950895e-04 1.561215e-03 5.636958e-05 1.263629e-03
<VARIANCE> 39
 5.605323e+01 3.325900e+01 1.057753e+02 5.264182e+01 6.774234e+01 7.738329e+01 8.281516e+01 7.313954e+01 6.632006e+01 5.737212e+01 7.028996e+01 3.701450e+01 2.765088e+02 1.749444e+00 2.269707e+00 2.512011e+00 2.176186e+00 2.335495e+00 4.212390e+00 3.329941e+00 3.440258e+00 3.237097e+00 3.216635e+00 2.973360e+00 2.371902e+00 3.795395e+00 2.507127e-01 3.825977e-01 4.261511e-01 3.476108e-01 3.866044e-01 6.357259e-01 5.513189e-01 5.904208e-01 5.536995e-01 5.858771e-01 5.559880e-01 4.789124e-01 4.937317e-01
<GCONST> 1.303346e+02
<STATE> 4
<MEAN> 39
 -8.012980e+00 1.436704e+00 8.581217e-02 1.307748e+00 6.542106e+00 3.767354e+00 1.977720e+00 4.574907e+00 3.606032e+00 2.735759e+00 -6.459836e-01 3.929966e-02 6.374886e+01 -3.482356e-02 2.050471e-02 6.851506e-02 6.052260e-02 7.096993e-02 2.537162e-03 -3.901418e-02 -2.818289e-02 -2.888015e-02 3.404381e-03 1.139081e-02 -3.336310e-02 -4.962343e-02 -6.556558e-03 -5.846279e-04 2.841136e-03 -8.660416e-04 2.045061e-03 2.502577e-03 2.534358e-03 1.852192e-03 -3.852419e-03 -1.713044e-04 1.539411e-03 3.750189e-03 1.691705e-03
<VARIANCE> 39
 5.658950e+01 3.326102e+01 1.071610e+02 5.480417e+01 7.260313e+01 7.722012e+01 8.799372e+01 7.464426e+01 6.642136e+01 5.761088e+01 7.010410e+01 3.839248e+01 2.919854e+02 1.701265e+00 2.307338e+00 2.560973e+00 2.162738e+00 2.336202e+00 4.193524e+00 3.373474e+00 3.455484e+00 3.257591e+00 3.212397e+00 2.954440e+00 2.488545e+00 3.687748e+00 2.429309e-01 3.853410e-01 4.307555e-01 3.480029e-01 3.824077e-01 6.322718e-01 5.541129e-01 5.939825e-01 5.564304e-01 5.871389e-01 5.526264e-01 5.004080e-01 4.764322e-01
<GCONST> 1.306638e+02
<TRANSP> 5
 0.000000e+00 1.000000e+00 0.000000e+00 0.000000e+00 0.000000e+00
 0.000000e+00 8.385078e-01 1.614923e-01 0.000000e+00 0.000000e+00
 0.000000e+00 0.000000e+00 8.385084e-01 1.614916e-01 0.000000e+00
 0.000000e+00 0.000000e+00 0.000000e+00 8.385099e-01 1.614901e-01
 0.000000e+00 0.000000e+00 0.000000e+00 0.000000e+00 0.000000e+00
<ENDHMM>
~h "s"
<BEGINHMM>
<NUMSTATES> 5
<STATE> 2
<MEAN> 39
 -1.006082e+01 9.585951e-01 2.257448e+00 2.817325e+00 8.842653e+00 5.273515e+00 3.866833e+00 4.236429e+00 1.158024e+00 2.677701e+00 6.593833e-01 1.359982e-01 6.632318e+01 -1.188748e-01 -9.322208e-02 2.102539e-01 1.609412e-02 1.828441e-01 -4.612851e-02 -4.781532e-02 -5.609958e-02 -1.186823e-01 -3.089071e-02 -1.685369e-02 -7.113513e-02 2.086359e-01 2.556618e-03 -2.030420e-03 3.338397e-03 -4.084893e-03 -1.716005e-03 -2.431217e-03 -3.275356e-03 -3.426106e-03 1.425594e-04 -2.945233e-03 -6.547075e-03 -2.149725e-03 1.069465e-02
<VARIANCE> 39
 6.130824e+01 3.112617e+01 1.310574e+02 4.373697e+01 7.385507e+01 7.865752e+01 6.968108e+01 6.341310e+01 7.812225e+01 6.862791e+01 6.589009e+01 2.804606e+01 2.136509e+02 2.528916e+00 2.317811e+00 4.702974e+00 2.910935e+00 2.645271e+00 4.944514e+00 3.829563e+00 3.054011e+00 3.388502e+00 4.907814e+00 3.710453e+00 2.381830e+00 4.880173e+00 3.073826e-01 4.112861e-01 7.928818e-01 4.841106e-01 4.129996e-01 7.375825e-01 5.643873e-01 4.948975e-01 5.303019e-01 8.754503e-01 6.565126e-01 4.444834e-01 5.756945e-01
<GCONST> 1.343688e+02
<STATE> 3
<MEAN> 39
 -1.076990e+01 3.573195e-01 3.578727e+00 2.857276e+00 9.939085e+00 4.972462e+00 3.539159e+00 3.853871e+00 4.250202e-01 2.465542e+00 4.873746e-01 -3.193134e-01 6.771730e+01 -1.006179e-01 -1.051081e-01 2.256885e-01 -8.535698e-03 1.686302e-01 -6.089658e-02 -6.831275e-02 -7.490238e-02 -1.137824e-01 -4.752878e-02 -5.690333e-02 -8.353422e-02 2.679877e-01 4.164003e-03 -1.508674e-03 9.168165e-04 -3.458349e-03 -3.546768e-03 -2.260834e-03 -3.587053e-03 -2.383863e-03 1.989236e-03 -2.202361e-03 -6.514038e-03 -1.746855e-03 7.463105e-03
<VARIANCE> 39
 6.704813e+01 3.491075e+01 1.355568e+02 4.275196e+01 7.673464e+01 8.560353e+01 8.073730e+01 6.507124e+01 7.772861e+01 7.044237e+01 6.542110e+01 2.943925e+01 2.217715e+02 2.952972e+00 2.445855e+00 4.945196e+00 3.011738e+00 2.960290e+00 5.487439e+00 4.273708e+00 3.109923e+00 3.328370e+00 5.304291e+00 3.693368e+00 2.545562e+00 5.077971e+00 3.555011e-01 4.373791e-01 8.350259e-01 4.961641e-01 4.590541e-01 8.093287e-01 6.244127e-01 4.948979e-01 5.254508e-01 9.429381e-01 6.613157e-01 4.826226e-01 6.072867e-01
<GCONST> 1.365698e+02
<STATE> 4
<MEAN> 39
 -1.134928e+01 -3.112597e-01 4.964078e+00 2.752642e+00 1.092760e+01 4.580313e+00 3.083063e+00 3.370068e+00 -2.553734e-01 2.158932e+00 7.236703e-02 -8.462762e-01 6.943424e+01 -7.150938e-02 -1.129211e-01 2.261880e-01 -2.797045e-02 1.437242e-01 -7.520038e-02 -9.111375e-02 -8.700978e-02 -9.807805e-02 -5.992906e-02 -9.617890e-02 -9.363060e-02 3.061774e-01 6.057844e-03 -5.490418e-04 -1.608312e-03 -2.228051e-03 -5.007645e-03 -2.299220e-03 -4.045775e-03 -1.144285e-03 3.564423e-03 -1.538141e-03 -5.987551e-03 -1.355232e-03 3.367337e-03
<VARIANCE> 39
 7.366199e+01 3.898510e+01 1.343356e+02 4.278389e+01 7.728854e+01 9.360780e+01 9.325710e+01 6.716113e+01 7.596297e+01 7.186888e+01 6.691669e+01 3.067871e+01 2.239463e+02 3.384768e+00 2.620108e+00 5.127105e+00 3.117655e+00 3.305415e+00 6.084146e+00 4.761949e+00 3.242783e+00 3.330563e+00 5.642298e+00 3.692419e+00 2.730157e+00 5.264372e+00 4.077776e-01 4.715298e-01 8.684596e-01 5.080118e-01 5.128055e-01 8.875546e-01 6.947225e-01 5.071802e-01 5.343373e-01 1.000019e+00 6.681588e-01 5.277897e-01 6.438825e-01
<GCONST> 1.387599e+02
<TRANSP> 5
 0.000000e+00 1.000000e+00 0.000000e+00 0.000000e+00 0.000000e+00
 0.000000e+00 8.385656e-01 1.614344e-01 0.000000e+00 0.000000e+00
 0.000000e+00 0.000000e+00 8.385659e-01 1.614341e-01 0.000000e+00
 0.000000e+00 0.000000e+00 0.000000e+00 8.385683e-01 1.614317e-01
 0.000000e+00 0.000000e+00 0.000000e+00 0.000000e+00 0.000000e+00
<ENDHMM>
~h "t"
<BEGINHMM>
<NUMSTATES> 5
<STATE> 2
<MEAN> 39
 -6.378830e+00 -9.363713e-01 4.040763e+00 -5.263320e-01 2.334053e+00 -8.095282e-01 -3.427923e-01 4.406667e+00 2.980815e+00 -5.843956e-01 -2.963014e+00 2.163458e+00 7.366101e+01 1.736348e-02 1.646725e-02 -7.159638e-04 -3.310435e-02 -3.387801e-02 1.225174e-02 -3.142316e-04 -4.118524e-02 -3.855601e-02 4.133923e-03 9.220163e-03 4.764172e-02 -1.690511e-02 -4.391060e-03 6.077575e-04 -3.616982e-03 -3.741515e-04 9.959526e-05 3.816481e-03 5.228447e-03 2.717013e-03 -1.719547e-03 4.056115e-03 5.239632e-03 2.354032e-03 -7.921091e-03
<VARIANCE> 39
 9.927024e+01 4.224225e+01 1.024351e+02 6.982439e+01 8.857388e+01 1.695767e+02 7.536079e+01 9.271002e+01 1.148750e+02 6.080045e+01 7.584177e+01 4.716258e+01 1.739941e+02 4.372723e+00 2.654289e+00 3.501855e+00 3.498269e+00 3.150735e+00 8.263259e+00 3.837681e+00 5.186132e+00 6.008807e+00 3.659971e+00 5.501686e+00 2.807962e+00 4.415163e+00 5.721416e-01 4.300427e-01 6.014729e-01 5.717181e-01 4.965934e-01 1.302612e+00 6.230794e-01 9.397611e-01 9.306511e-01 6.574561e-01 1.029025e+00 5.479684e-01 6.015765e-01
<GCONST> 1.430631e+02
<STATE> 3
<MEAN> 39
 -6.357538e+00 -8.170555e-01 3.957498e+00 -7.386693e-01 2.132643e+00 -6.689705e-01 -2.250214e-01 4.216275e+00 2.702915e+00 -4.762103e-01 -2.806732e+00 2.484483e+00 7.341257e+01 -9.532386e-03 1.978802e-02 -2.070023e-02 -3.012802e-02 -2.786900e-02 3.437984e-02 3.188921e-02 -2.186899e-02 -4.652690e-02 2.715574e-02 3.804597e-02 5.447764e-02 -6.129280e-02 -4.168919e-03 4.266510e-04 -3.197821e-03 5.516287e-04 9.647651e-04 3.078754e-03 5.145866e-03 3.617256e-03 -6.079438e-04 3.681089e-03 4.291104e-03 6.666856e-04 -6.859015e-03
<VARIANCE> 39
 9.781673e+01 4.201218e+01 9.972361e+01 6.670302e+01 8.417931e+01 1.686603e+02 7.543196e+01 9.254818e+01 1.170715e+02 6.055961e+01 7.749371e+01 4.546359e+01 1.699268e+02 4.416227e+00 2.668953e+00 3.591060e+00 3.540328e+00 3.106162e+00 8.245245e+00 3.829437e+00 5.099373e+00 6.070985e+00 3.655402e+00 5.593927e+00 2.798026e+00 4.276499e+00 5.932752e-01 4.368312e-01 6.228033e-01 5.818953e-01 4.893894e-01 1.312966e+00 6.193413e-01 9.252541e-01 9.403930e-01 6.555471e-01 1.043540e+00 5.486363e-01 5.879364e-01
<GCONST> 1.429726e+02
<STATE> 4
<MEAN> 39
 -6.486590e+00 -6.793585e-01 3.762542e+00 -9.013605e-01 1.997323e+00 -4.034734e-01 7.953112e-02 4.153446e+00 2.403163e+00 -2.427192e-01 -2.503571e+00 2.802057e+00 7.292159e+01 -3.172353e-02 2.208399e-02 -3.827321e-02 -2.203694e-02 -1.752931e-02 5.068347e-02 6.060718e-02 1.019252e-03 -4.560307e-02 4.670610e-02 5.876790e-02 5.131774e-02 -9.769901e-02 -3.071448e-03 2.564949e-04 -2.602917e-03 1.251483e-03 1.612286e-03 1.854596e-03 4.182714e-03 3.839934e-03 7.838568e-04 2.861570e-03 2.679372e-03 -9.688310e-04 -5.079151e-03
<VARIANCE> 39
 9.545517e+01 4.138701e+01 9.867162e+01 6.295534e+01 7.981760e+01 1.647315e+02 7.497425e+01 9.253311e+01 1.182026e+02 6.057401e+01 7.845524e+01 4.295090e+01 1.688115e+02 4.433202e+00 2.645434e+00 3.662777e+00 3.540836e+00 3.032057e+00 8.075244e+00 3.818699e+00 4.957196e+00 6.037203e+00 3.645765e+00 5.573333e+00 2.749016e+00 4.160364e+00 6.115736e-01 4.372033e-01 6.389788e-01 5.867562e-01 4.783337e-01 1.307281e+00 6.169244e-01 8.975681e-01 9.340843e-01 6.513280e-01 1.036412e+00 5.409117e-01 5.753372e-01
<GCONST> 1.425700e+02
<TRANSP> 5
 0.000000e+00 1.000000e+00 0.000000e+00 0.000000e+00 0.000000e+00
 0.000000e+00 8.386273e-01 1.613727e-01 0.000000e+00 0.000000e+00
 0.000000e+00 0.000000e+00 8.386281e-01 1.613719e-01 0.000000e+00
 0.000000e+00 0.000000e+00 0.000000e+00 8.386298e-01 1.613702e-01
 0.000000e+00 0.000000e+00 0.000000e+00 0.000000e+00 0.000000e+00
<ENDHMM>
~h "OE"
<BEGINHMM>
<NUMSTATES> 5
<STATE> 2
<MEAN> 39
 -1.114030e+01 -1.979638e+00 1.786624e+00 5.160888e+00 9.160438e+00 4.110612e+00 9.311627e-01 5.791210e+00 3.254056e+00 1.164718e+00 1.033775e+00 -1.033458e+00 6.845506e+01 5.608208e-03 -7.725872e-02 4.302250e-01 1.034772e-01 1.295167e-01 -1.429691e-01 -2.669797e-01 -1.442409e-01 -1.146282e-01 -2.619469e-01 -1.925826e-01 -1.212665e-01 5.032530e-01 2.971950e-03 -2.761822e-03 3.193905e-03 -3.187645e-03 -6.940412e-03 -1.058430e-03 -1.233223e-03 2.412259e-03 2.754181e-03 -1.021164e-03 -2.617395e-03 3.524634e-03 7.601081e-03
<VARIANCE> 39
 7.513013e+01 2.566711e+01 1.787917e+02 4.337066e+01 5.963611e+01 7.104716e+01 8.698850e+01 6.957071e+01 6.174131e+01 7.101608e+01 5.118589e+01 5.113728e+01 2.961489e+02 3.374383e+00 9.686586e-01 3.519665e+00 1.805692e+00 2.573529e+00 4.518229e+00 3.873663e+00 4.687351e+00 4.056928e+00 2.638576e+00 3.184593e+00 2.431402e+00 4.362281e+00 3.375610e-01 1.411266e-01 5.005053e-01 3.041133e-01 4.238843e-01 7.175702e-01 6.019096e-01 7.817527e-01 6.503030e-01 4.797102e-01 6.195503e-01 4.737643e-01 5.294652e-01
<GCONST> 1.315835e+02
<STATE> 3
<MEAN> 39
 -1.098691e+01 -2.509844e+00 4.398992e+00 5.658300e+00 9.667262e+00 3.218316e+00 -6.867270e-01 5.020812e+00 2.685634e+00 -3.954948e-01 -1.915868e-01 -1.613629e+00 7.166050e+01 2.741379e-02 -8.626922e-02 4.183932e-01 6.990002e-02 6.555068e-02 -1.441010e-01 -2.561126e-01 -1.183634e-01 -8.432182e-02 -2.493484e-01 -1.999765e-01 -8.179669e-02 5.087981e-01 3.428437e-03 -1.089188e-03 -3.240411e-03 -6.127049e-03 -1.120876e-02 -5.914080e-05 2.664569e-03 4.645461e-03 5.500715e-03 2.990053e-03 -7.527577e-04 7.103058e-03 -1.161175e-03
<VARIANCE> 39
 9.432291e+01 2.897024e+01 1.736663e+02 4.972964e+01 6.636404e+01 8.763970e+01 8.783679e+01 6.885257e+01 6.683419e+01 6.967973e+01 5.659246e+01 5.523070e+01 2.812627e+02 4.170412e+00 1.147765e+00 3.864803e+00 2.173044e+00 2.879602e+00 5.619264e+00 4.152683e+00 4.931738e+00 4.447934e+00 2.772114e+00 3.563148e+00 2.661754e+00 4.574808e+00 4.084466e-01 1.673460e-01 5.616273e-01 3.470546e-01 4.765692e-01 8.530067e-01 6.500162e-01 8.195512e-01 6.976251e-01 4.992436e-01 6.827986e-01 5.047953e-01 5.529732e-01
<GCONST> 1.353815e+02
<STATE> 4
<MEAN> 39
 -1.070032e+01 -3.041124e+00 6.760762e+00 5.860509e+00 9.676494e+00 2.345782e+00 -2.131904e+00 4.461282e+00 2.357229e+00 -1.760123e+00 -1.396315e+00 -1.853275e+00 7.464057e+01 4.769144e-02 -8.415253e-02 3.701923e-01 1.806495e-02 -1.906523e-02 -1.405563e-01 -2.226008e-01 -8.175644e-02 -4.327017e-02 -2.120488e-01 -1.932794e-01 -2.286739e-02 4.607092e-01 3.040209e-03 6.971214e-04 -8.932066e-03 -8.938988e-03 -1.416118e-02 6.243009e-04 6.282120e-03 6.266048e-03 6.848629e-03 6.862189e-03 1.634429e-03 1.002466e-02 -9.461783e-03
<VARIANCE> 39
 1.129938e+02 3.159670e+01 1.547084e+02 5.742488e+01 7.455915e+01 1.067610e+02 8.443247e+01 6.655223e+01 7.085362e+01 6.433665e+01 6.102987e+01 6.075623e+01 2.433481e+02 4.893355e+00 1.336585e+00 4.094816e+00 2.578412e+00 3.079037e+00 6.901669e+00 4.293757e+00 5.114451e+00 4.782514e+00 2.889648e+00 3.993463e+00 2.920341e+00 4.517892e+00 4.736704e-01 1.969286e-01 6.135678e-01 3.950706e-01 5.136462e-01 1.013149e+00 6.779893e-01 8.538983e-01 7.405179e-01 5.185364e-01 7.551644e-01 5.433688e-01 5.428868e-01
<GCONST> 1.382264e+02
<TRANSP> 5
 0.000000e+00 1.000000e+00 0.000000e+00 0.000000e+00 0.000000e+00
 0.000000e+00 8.386496e-01 1.613505e-01 0.000000e+00 0.000000e+00
 0.000000e+00 0.000000e+00 8.386499e-01 1.613501e-01 0.000000e+00
 0.000000e+00 0.000000e+00 0.000000e+00 8.386511e-01 1.613489e-01
 0.000000e+00 0.000000e+00 0.000000e+00 0.000000e+00 0.000000e+00
<ENDHMM>
~h "OY"
<BEGINHMM>
<NUMSTATES> 5
<STATE> 2
<MEAN> 39
 -6.863720e+00 -2.422058e+00 6.384803e+00 -2.508927e+00 -1.351328e+00 -5.203807e+00 7.568467e-01 7.429283e+00 2.671574e+00 9.396202e-01 -3.324480e+00 4.357789e+00 7.513383e+01 1.024514e-01 5.824714e-02 -1.505602e-01 1.589910e-02 8.866227e-02 -3.172308e-02 -2.879286e-02 -1.150229e-01 -3.093772e-02 1.252056e-02 2.970457e-02 -4.896271e-02 -9.742891e-02 -1.027208e-03 3.827550e-05 1.003456e-04 1.556367e-03 5.335868e-03 4.279563e-03 -4.730563e-03 -7.721105e-03 -4.375093e-03 -3.486128e-03 2.853446e-03 3.807071e-04 1.142149e-03
<VARIANCE> 39
 9.663075e+01 4.169534e+01 8.381792e+01 4.119708e+01 9.900288e+01 2.185988e+02 8.553676e+01 1.294642e+02 1.541482e+02 6.216742e+01 7.903690e+01 3.511852e+01 1.153574e+02 5.190358e+00 3.106200e+00 3.847661e+00 4.010376e+00 3.495739e+00 1.059560e+01 4.927138e+00 5.495482e+00 7.467523e+00 4.143774e+00 5.706390e+00 2.960948e+00 3.285161e+00 7.431173e-01 5.038206e-01 6.548718e-01 7.234719e-01 4.927527e-01 1.815798e+00 7.922999e-01 9.560831e-01 1.125963e+00 6.924213e-01 1.035947e+00 5.841601e-01 5.025811e-01
<GCONST> 1.455830e+02
<STATE> 3
<MEAN> 39
 -6.285529e+00 -2.080081e+00 5.498385e+00 -2.389529e+00 -7.111602e-01 -5.306671e+00 4.832396e-01 6.560669e+00 2.378077e+00 9.417796e-01 -3.078204e+00 4.082512e+00 7.458085e+01 8.846837e-02 5.753547e-02 -1.457247e-01 2.117694e-02 1.152782e-01 1.217356e-03 -4.834808e-02 -1.549224e-01 -6.221823e-02 -6.067716e-03 4.936963e-02 -4.229411e-02 -9.107587e-02 -2.939469e-03 2.794905e-05 5.764677e-04 7.007766e-04 3.874070e-03 6.337908e-03 -1.949957e-03 -5.560922e-03 -5.055116e-03 -2.512689e-03 3.483455e-03 1.363877e-03 1.361501e-04
<VARIANCE> 39
 8.990132e+01 3.998602e+01 8.513449e+01 3.912416e+01 1.066310e+02 2.238376e+02 8.897202e+01 1.367657e+02 1.620501e+02 6.327319e+01 7.763293e+01 3.443213e+01 1.217339e+02 5.098400e+00 3.106876e+00 4.067896e+00 3.874758e+00 3.680467e+00 1.021084e+01 5.053756e+00 5.562262e+00 7.682546e+00 4.123582e+00 5.834832e+00 2.968351e+00 3.375918e+00 7.563887e-01 5.085840e-01 6.835525e-01 7.090270e-01 5.138122e-01 1.717623e+00 7.912139e-01 9.803129e-01 1.152853e+00 6.873021e-01 1.080683e+00 5.953658e-01 5.130529e-01
<GCONST> 1.459977e+02
<STATE> 4
<MEAN> 39
 -5.827177e+00 -1.742583e+00 4.656403e+00 -2.257300e+00 5.455526e-02 -5.170682e+00 1.531950e-01 5.505699e+00 1.884156e+00 8.508947e-01 -2.710063e+00 3.862666e+00 7.405525e+01 6.562805e-02 5.791178e-02 -1.404883e-01 2.265610e-02 1.322822e-01 4.540149e-02 -4.972119e-02 -1.782106e-01 -9.233613e-02 -1.755490e-02 7.001837e-02 -3.211884e-02 -9.287059e-02 -4.140155e-03 2.125444e-04 5.431891e-04 1.387506e-04 2.049102e-03 7.743965e-03 9.914897e-04 -2.463976e-03 -4.202330e-03 -1.219525e-03 3.329593e-03 1.801091e-03 -1.249814e-03
<VARIANCE> 39
 8.443273e+01 3.799968e+01 8.553280e+01 3.754162e+01 1.118003e+02 2.254824e+02 9.175177e+01 1.405163e+02 1.683448e+02 6.406105e+01 7.611305e+01 3.385385e+01 1.275552e+02 5.099793e+00 3.063258e+00 4.311344e+00 3.738456e+00 3.831344e+00 9.753206e+00 5.155542e+00 5.587860e+00 7.823639e+00 4.082384e+00 5.963769e+00 2.967236e+00 3.482965e+00 7.836422e-01 5.071626e-01 7.186665e-01 6.916781e-01 5.333009e-01 1.614331e+00 7.878251e-01 9.984329e-01 1.169335e+00 6.797321e-01 1.126682e+00 6.052584e-01 5.246820e-01
<GCONST> 1.462393e+02
<TRANSP> 5
 0.000000e+00 1.000000e+00 0.000000e+00 0.000000e+00 0.000000e+00
 0.000000e+00 8.386390e-01 1.613611e-01 0.000000e+00 0.000000e+00
 0.000000e+00 0.000000e+00 8.386393e-01 1.613607e-01 0.000000e+00
 0.000000e+00 0.000000e+00 0.000000e+00 8.386408e-01 1.613591e-01
 0.000000e+00 0.000000e+00 0.000000e+00 0.000000e+00 0.000000e+00
<ENDHMM>
~h "at"
<BEGINHMM>
<NUMSTATES> 5
<STATE> 2
<MEAN> 39
 -8.092710e+00 -3.135040e-01 1.905517e+00 6.784189e-03 2.779582e+00 9.743352e-01 1.088368e+00 5.922429e+00 3.226406e+00 1.827794e+00 -2.916695e-01 3.472205e+00 6.867194e+01 -4.851791e-02 2.158853e-02 -1.271543e-01 -9.960552e-02 -1.000684e-01 4.708345e-02 1.197148e-01 5.698511e-02 9.654469e-03 6.752825e-02 7.195177e-02 7.353153e-02 -2.448285e-01 4.934069e-04 9.468078e-04 2.128186e-03 3.515426e-03 4.257285e-03 -6.394474e-04 -1.214544e-03 -8.896134e-04 -2.224004e-04 -4.255673e-04 -1.842723e-03 -3.653178e-03 -3.325823e-04
<VARIANCE> 39
 7.944361e+01 3.576308e+01 1.095769e+02 4.637060e+01 7.520252e+01 1.525382e+02 7.931143e+01 8.803657e+01 1.069643e+02 5.670457e+01 6.444373e+01 3.734770e+01 2.017251e+02 4.029633e+00 1.809897e+00 2.967860e+00 2.711127e+00 2.435958e+00 6.873865e+00 3.411129e+00 3.888704e+00 4.789777e+00 2.747646e+00 4.210213e+00 2.388012e+00 2.367967e+00 5.646542e-01 2.986460e-01 5.135614e-01 4.593291e-01 3.735537e-01 1.131697e+00 5.432886e-01 6.834165e-01 7.324257e-01 4.774280e-01 7.868283e-01 4.682484e-01 3.360222e-01
<GCONST> 1.351711e+02
<STATE> 3
<MEAN> 39
 -8.379875e+00 -1.593526e-01 1.097554e+00 -5.395077e-01 2.237183e+00 1.275479e+00 1.836031e+00 6.290908e+00 3.320056e+00 2.251760e+00 1.261792e-01 3.841637e+00 6.712635e+01 -4.053166e-02 2.783150e-02 -1.140594e-01 -7.626512e-02 -7.290185e-02 4.078500e-02 1.071173e-01 4.988920e-02 1.364877e-02 6.262261e-02 5.708416e-02 4.924089e-02 -2.428669e-01 1.405027e-03 1.214393e-03 1.623136e-03 3.325144e-03 3.635617e-03 -1.040076e-03 -1.661290e-03 -3.954971e-04 1.782440e-03 -3.400046e-04 -2.182064e-03 -3.744841e-03 9.090331e-04
<VARIANCE> 39
 7.536278e+01 3.375082e+01 1.086567e+02 4.078869e+01 6.584246e+01 1.440766e+02 7.219575e+01 8.513342e+01 1.059623e+02 5.531957e+01 6.239350e+01 3.177319e+01 2.195059e+02 3.915908e+00 1.744249e+00 2.805432e+00 2.624808e+00 2.318969e+00 6.461380e+00 3.251786e+00 3.687603e+00 4.570739e+00 2.696733e+00 4.009583e+00 2.195044e+00 2.409441e+00 5.617028e-01 2.911470e-01 4.898377e-01 4.481333e-01 3.604298e-01 1.093475e+00 5.276608e-01 6.538596e-01 6.990950e-01 4.664511e-01 7.516438e-01 4.338197e-01 3.445275e-01
<GCONST> 1.335020e+02
<STATE> 4
<MEAN> 39
 -8.592299e+00 3.361579e-02 3.715926e-01 -9.426817e-01 1.858097e+00 1.520352e+00 2.474318e+00 6.602036e+00 3.463979e+00 2.633208e+00 4.393162e-01 4.063371e+00 6.561729e+01 -2.824949e-02 3.503466e-02 -1.035575e-01 -5.658669e-02 -5.148226e-02 3.130336e-02 9.158481e-02 4.466121e-02 2.791502e-02 5.849466e-02 4.205871e-02 2.674551e-02 -2.330628e-01 1.853682e-03 1.093752e-03 1.281119e-03 2.532602e-03 2.632935e-03 -1.704574e-03 -2.330801e-03 -3.789184e-04 3.067125e-03 -3.614572e-04 -2.204021e-03 -3.776273e-03 2.226209e-03
<VARIANCE> 39
 7.118301e+01 3.210932e+01 1.062544e+02 3.658277e+01 5.940141e+01 1.369597e+02 6.574709e+01 8.327910e+01 1.044207e+02 5.385657e+01 6.041924e+01 2.742141e+01 2.372163e+02 3.745467e+00 1.702073e+00 2.634514e+00 2.530859e+00 2.224650e+00 6.056606e+00 3.115912e+00 3.537669e+00 4.365551e+00 2.667414e+00 3.802611e+00 2.040420e+00 2.483991e+00 5.472306e-01 2.857845e-01 4.624696e-01 4.354500e-01 3.498712e-01 1.047931e+00 5.132710e-01 6.301576e-01 6.679544e-01 4.604472e-01 7.152652e-01 4.053856e-01 3.554224e-01
<GCONST> 1.319277e+02
<TRANSP> 5
 0.000000e+00 1.000000e+00 0.000000e+00 0.000000e+00 0.000000e+00
 0.000000e+00 8.385552e-01 1.614448e-01 0.000000e+00 0.000000e+00
 0.000000e+00 0.000000e+00 8.385551e-01 1.614449e-01 0.000000e+00
 0.000000e+00 0.000000e+00 0.000000e+00 8.385562e-01 1.614437e-01
 0.000000e+00 0.000000e+00 0.000000e+00 0.000000e+00 0.000000e+00
<ENDHMM>
~h "sil"
<BEGINHMM>
<NUMSTATES> 5
<STATE> 2
<MEAN> 39
 -1.561725e+01 1.532433e+00 -7.997611e+00 -4.522767e-01 1.609785e+00 5.462124e+00 4.482153e+00 7.614134e+00 6.159764e+00 6.476886e+00 4.004124e+00 2.098167e+00 4.705110e+01 8.558637e-01 2.878534e-01 -7.005010e-03 1.890043e-01 5.837600e-01 7.035882e-01 6.865206e-01 6.079119e-01 2.643379e-01 3.457678e-01 3.728404e-01 2.869011e-01 1.770807e+00 2.759095e-02 -5.993932e-02 -2.155266e-02 -2.904641e-02 1.887183e-02 -5.154283e-03 3.353991e-02 1.301234e-01 1.427161e-01 6.732184e-02 -3.439255e-03 -1.508622e-02 -4.400042e-02
<VARIANCE> 39
 4.836205e+01 1.072424e+01 1.034079e+01 8.222738e+00 1.817665e+01 2.861132e+01 3.574071e+01 3.352546e+01 2.450854e+01 2.015173e+01 1.618789e+01 1.461283e+01 1.429116e+02 3.757645e+00 8.445499e-01 8.698946e-01 7.167176e-01 1.550716e+00 2.049660e+00 2.342588e+00 2.577318e+00 2.146477e+00 1.436884e+00 1.060048e+00 1.081482e+00 1.326262e+01 4.640634e-01 1.428025e-01 1.794265e-01 1.361888e-01 2.562169e-01 2.832486e-01 3.609621e-01 5.255195e-01 4.640140e-01 2.570415e-01 1.602756e-01 1.970024e-01 1.533825e+00
<GCONST> 1.039641e+02
<STATE> 3
<MEAN> 39
 -1.319398e+01 1.942082e+00 -7.809455e+00 -1.121962e-01 3.440480e+00 7.542092e+00 6.716923e+00 1.019206e+01 7.636570e+00 7.936139e+00 5.269793e+00 3.240926e+00 5.095943e+01 2.039419e-01 -1.426290e-02 1.594899e-01 -3.307962e-02 2.598431e-01 2.146544e-01 3.051501e-01 5.082377e-01 1.110595e-01 1.800506e-01 2.139979e-01 2.773263e-01 5.515341e-01 -1.259675e-01 -5.646550e-02 3.449212e-02 -4.667470e-02 -5.283452e-02 -8.522917e-02 -5.856883e-02 -7.337793e-03 -5.996040e-02 -4.167813e-02 -1.427432e-02 -2.289998e-03 -2.012958e-01
<VARIANCE> 39
 2.701620e+01 8.569826e+00 1.912313e+01 9.871095e+00 9.632560e+00 1.367315e+01 1.950700e+01 1.793523e+01 1.590405e+01 1.888183e+01 1.585954e+01 1.855891e+01 1.332192e+02 2.874690e+00 5.484551e-01 1.512584e+00 8.687354e-01 1.317629e+00 1.734433e+00 2.000311e+00 2.502155e+00 2.233441e+00 1.675249e+00 1.190130e+00 1.734392e+00 5.861773e+00 3.502263e-01 1.058344e-01 2.831774e-01 1.721801e-01 2.385716e-01 2.554325e-01 3.263209e-01 4.792038e-01 4.088878e-01 2.781808e-01 2.037173e-01 3.540425e-01 7.711887e-01
<GCONST> 1.003278e+02
<STATE> 4
<MEAN> 39
 -1.426370e+01 1.384892e+00 -6.250759e+00 -8.085635e-01 3.938977e+00 7.479975e+00 7.203027e+00 1.206449e+01 6.918713e+00 7.935935e+00 5.904834e+00 4.515292e+00 5.125313e+01 -3.262440e-01 -2.003735e-01 3.414486e-01 -2.411073e-01 1.207028e-01 -4.927128e-02 1.655722e-01 5.512421e-01 -3.092398e-01 -6.638197e-02 2.078600e-01 2.622782e-01 1.148588e-01 -3.500979e-02 -2.505741e-02 -3.999214e-02 -2.375787e-02 -7.174285e-03 1.608738e-02 3.124721e-02 -3.393218e-03 -3.935489e-02 -3.170634e-02 6.641765e-04 -5.401474e-02 -8.031060e-02
<VARIANCE> 39
 3.840123e+01 9.793323e+00 3.608681e+01 1.461960e+01 8.181563e+00 1.336939e+01 1.444777e+01 2.247580e+01 2.181017e+01 2.120263e+01 1.732039e+01 2.626583e+01 1.229739e+02 2.176447e+00 5.023391e-01 2.810866e+00 1.288653e+00 9.306893e-01 1.329216e+00 1.300160e+00 2.942975e+00 3.065188e+00 1.821970e+00 1.278276e+00 2.798672e+00 1.651837e+00 3.289743e-01 9.324863e-02 4.664784e-01 2.133083e-01 1.967599e-01 2.406437e-01 2.619740e-01 4.649027e-01 4.550358e-01 3.146040e-01 2.215734e-01 5.268379e-01 3.192314e-01
<GCONST> 1.016683e+02
<TRANSP> 5
 0.000000e+00 1.000000e+00 0.000000e+00 0.000000e+00 0.000000e+00
 0.000000e+00 8.384321e-01 1.615679e-01 0.000000e+00 0.000000e+00
 0.000000e+00 0.000000e+00 8.384324e-01 1.615676e-01 0.000000e+00
 0.000000e+00 0.000000e+00 0.000000e+00 8.384327e-01 1.615673e-01
 0.000000e+00 0.000000e+00 0.000000e+00 0.000000e+00 0.000000e+00
<ENDHMM>
