~o
<STREAMINFO> 1 39
<VECSIZE> 39<NULLD><MFCC_D_A_0><DIAGC>
~h "C"
<BEGINHMM>
<NUMSTATES> 5
<STATE> 2
<MEAN> 39
 -1.565710e+01 -8.902259e+00 3.992156e+00 1.933561e+00 6.271814e+00 6.255521e+00 4.971106e+00 9.402396e+00 1.026869e+00 7.107651e+00 5.216044e+00 -5.687032e-01 7.226058e+01 1.033298e+00 -8.884746e-01 1.918138e+00 -1.424331e+00 -6.728042e-01 2.206320e+00 2.623543e-01 -4.037812e-02 -1.120308e+00 1.400420e-02 -7.808588e-01 -4.760393e-01 -2.940489e-01 4.125305e-01 5.297292e-01 -1.844816e-01 2.853464e-01 -4.844473e-02 3.353993e-01 -1.964904e-01 -1.561891e-01 4.768868e-01 -1.779806e-01 -1.846532e-01 -3.120215e-01 -9.082438e-02
<VARIANCE> 39
 3.585550e+01 3.660053e+01 1.026607e+02 6.116292e+01 8.577631e+01 4.493373e+01 5.355590e+01 2.402887e+01 2.959223e+01 1.042312e+02 3.854875e+01 4.463071e+01 1.073596e+02 8.781495e+00 3.891793e+00 8.001339e+00 4.430017e+00 3.615056e+00 3.846528e+00 3.113933e+00 2.790870e+00 4.266466e+00 9.793827e+00 2.414032e+00 6.752324e+00 3.883022e+00 4.853352e-01 8.238875e-01 2.772326e+00 1.232948e+00 9.052477e-01 7.695562e-01 4.833555e-01 5.853145e-01 7.279045e-01 2.789608e+00 4.183051e-01 1.310202e+00 4.866303e-01
<GCONST> 1.410287e+02
<STATE> 3
<MEAN> 39
 -7.496600e+00 -6.051663e+00 5.814700e+00 4.521375e+00 6.084785e+00 1.718255e+01 5.555930e-01 3.738436e+00 3.656806e+00 1.282494e+00 -1.700557e+00 -2.677243e+00 7.159679e+01 1.434359e+00 1.116552e+00 -1.328289e+00 3.752496e-01 -6.402091e-01 2.978231e-01 -2.852720e-01 -6.666633e-02 1.232202e+00 -4.412116e-01 -9.727895e-01 7.571828e-02 -8.830972e-01 -1.543483e-01 2.070001e-01 -6.237098e-02 6.673226e-02 5.005894e-02 -7.402176e-01 -1.338166e-01 1.854374e-01 1.869287e-02 4.234900e-02 1.954544e-01 8.363636e-02 4.640422e-02
<VARIANCE> 39
 5.056109e+01 1.624743e+01 7.178831e+01 5.694722e+01 3.709962e+01 6.725300e+01 7.028831e+01 4.050275e+01 5.760266e+01 7.201305e+01 7.909820e+01 5.500433e+01 1.013080e+02 3.008716e+00 9.330584e-01 5.228104e+00 2.135595e+00 2.321604e+00 7.621695e+00 1.048235e+00 3.509541e+00 3.328397e+00 1.964482e+00 1.785932e+00 2.878514e+00 9.272357e-01 3.256089e-01 3.254685e-01 9.897879e-01 5.564836e-01 4.371712e-01 8.148422e-01 2.707709e-01 5.361555e-01 8.168522e-01 6.006823e-01 5.343652e-01 8.144692e-01 1.647034e-01
<GCONST> 1.257167e+02
<STATE> 4
<MEAN> 39
 -8.536064e+00 -4.584604e+00 1.222482e+01 -4.916376e-01 1.552622e+00 -1.993146e+00 -4.878188e+00 7.754487e+00 -1.139498e-01 -1.757837e+00 -3.118579e+00 4.383110e+00 7.776059e+01 9.763108e-01 8.231375e-01 -3.569087e-01 1.796966e-01 2.631387e-01 5.070400e-01 5.813428e-02 -4.017139e-01 -5.336401e-01 -2.251888e-01 -2.554625e-01 -5.655428e-02 -2.496231e-01 -1.602321e-01 -4.923251e-02 -2.253953e-01 8.813518e-02 6.828994e-02 8.031164e-02 -5.070847e-02 -2.968263e-01 1.868833e-01 1.288603e-01 1.476844e-01 3.979445e-02 7.045565e-02
<VARIANCE> 39
 9.914301e+01 2.521791e+01 6.103222e+01 5.354950e+01 7.194547e+01 1.570790e+02 8.591322e+01 1.987748e+01 8.908262e+01 5.581041e+01 6.325559e+01 8.374643e+01 7.113009e+01 7.580001e+00 2.874884e+00 4.996873e+00 3.555886e+00 1.673946e+00 1.502857e+01 4.141296e+00 3.563706e+00 6.105616e+00 4.146038e+00 6.495366e+00 3.310531e+00 2.747328e+00 6.747254e-01 3.109780e-01 1.012548e+00 5.535384e-01 3.431710e-01 2.165454e+00 6.700537e-01 4.793206e-01 1.377875e+00 6.661863e-01 1.231987e+00 6.055586e-01 5.095108e-01
<GCONST> 1.402800e+02
<TRANSP> 5
 0.000000e+00 1.000000e+00 0.000000e+00 0.000000e+00 0.000000e+00
 0.000000e+00 6.131597e-01 3.868403e-01 0.000000e+00 0.000000e+00
 0.000000e+00 0.000000e+00 6.565017e-01 3.434983e-01 0.000000e+00
 0.000000e+00 0.000000e+00 0.000000e+00 8.320446e-01 1.679554e-01
 0.000000e+00 0.000000e+00 0.000000e+00 0.000000e+00 0.000000e+00
<ENDHMM>
~h "I"
<BEGINHMM>
<NUMSTATES> 5
<STATE> 2
<MEAN> 39
 -9.172863e+00 4.237784e+00 -6.232795e+00 3.791039e+00 6.332760e+00 1.081907e+01 7.259932e+00 9.934691e+00 7.601241e+00 6.602927e+00 2.717830e+00 -2.558106e-01 6.120966e+01 -2.041239e-01 -1.557758e-01 -6.363928e-01 -2.891155e-01 -9.932715e-02 -1.641764e-01 -3.807021e-01 7.359060e-02 7.654774e-01 5.751638e-01 2.766905e-01 5.020692e-01 -3.672467e-01 -4.698912e-02 -1.109975e-01 2.218346e-01 3.386866e-02 -6.844217e-02 -2.006818e-01 1.199250e-02 -1.588324e-01 -2.181782e-01 -1.271720e-02 1.498469e-02 3.946842e-02 1.078424e-01
<VARIANCE> 39
 1.413949e+00 5.791151e+00 9.279366e+00 8.813212e+00 6.357018e+00 2.575481e+00 6.844305e+00 6.283481e+00 1.592154e+01 1.342683e+01 1.550212e+01 1.227753e+01 9.660894e+00 9.790034e-02 2.851341e-01 1.101619e+00 6.092753e-01 6.094665e-01 5.755757e-01 5.908414e-01 1.007162e+00 1.985186e+00 1.363060e+00 1.225790e+00 1.277273e+00 2.176779e-01 4.237724e-02 8.148111e-02 2.203397e-01 1.469186e-01 1.028931e-01 1.182069e-01 8.048524e-02 2.165811e-01 4.030366e-01 2.103207e-01 1.974447e-01 1.595713e-01 4.299499e-02
<GCONST> 6.536780e+01
<STATE> 3
<MEAN> 39
 -1.084400e+01 1.798008e+00 -8.402283e+00 1.670017e+00 3.121412e+00 8.564791e+00 7.442833e+00 9.430089e+00 7.663332e+00 8.816570e+00 6.387094e+00 4.143932e+00 5.392252e+01 -3.890144e-02 -8.739730e-03 -4.618770e-02 -2.311259e-02 -1.833267e-02 -9.529185e-02 -7.907440e-03 6.636414e-02 1.628627e-01 5.445515e-02 -1.907241e-02 6.874696e-03 -4.154976e-01 9.351678e-03 2.221657e-02 2.812382e-02 1.150912e-02 2.640508e-02 2.288866e-02 2.937131e-02 1.648979e-02 -5.175684e-03 -2.671584e-02 -2.695597e-02 -4.230276e-02 7.004707e-03
<VARIANCE> 39
 1.166793e+00 2.320562e+00 4.005344e+00 4.863806e+00 4.670224e+00 5.101242e+00 8.278209e+00 7.204244e+00 8.322798e+00 7.968207e+00 7.921909e+00 5.559360e+00 1.424131e+01 6.596591e-02 1.715169e-01 2.458346e-01 3.396561e-01 3.305765e-01 5.503896e-01 8.135487e-01 8.614260e-01 8.577015e-01 6.589875e-01 7.630070e-01 8.126352e-01 3.872038e-02 1.449926e-02 3.062423e-02 5.441115e-02 6.338333e-02 6.661545e-02 1.115885e-01 1.774773e-01 1.628290e-01 1.625744e-01 1.419768e-01 1.328527e-01 1.453000e-01 5.230015e-03
<GCONST> 4.540875e+01
<STATE> 4
<MEAN> 39
 -9.257028e+00 3.089427e-01 -1.087055e+01 1.035096e+00 3.529398e+00 6.020159e+00 6.152906e+00 1.031658e+01 1.046574e+01 1.230628e+01 8.065881e+00 3.761825e+00 5.989038e+01 -1.632574e-01 -1.821892e-01 3.057272e-01 6.755587e-02 -1.046211e-01 -7.435616e-02 9.482086e-02 -3.608920e-02 -3.701295e-01 -3.510407e-01 1.356157e-01 2.176337e-01 -7.512023e-02 -8.744865e-02 -1.394575e-01 2.352996e-01 -8.664411e-02 -7.487689e-02 2.340340e-01 1.690310e-01 -5.323718e-02 -3.995732e-01 -1.872479e-01 -4.694454e-02 1.884060e-02 9.343791e-02
<VARIANCE> 39
 7.088122e+00 5.082544e+00 1.440736e+01 6.459388e+00 6.818550e+00 2.104934e+01 9.650076e+00 7.282917e+00 1.236226e+01 1.730177e+01 2.283845e+01 1.381244e+01 7.235400e+01 2.151962e-01 2.555155e-01 4.902498e-01 8.461773e-01 1.528539e+00 1.501868e+00 7.482104e-01 6.450498e-01 2.674800e+00 2.291021e+00 1.186178e+00 1.028037e+00 8.802533e-02 4.275686e-02 6.183568e-02 1.766744e-01 2.557757e-01 2.818837e-01 3.998553e-01 1.749602e-01 1.639630e-01 3.567475e-01 3.972293e-01 3.239922e-01 4.206079e-01 1.726090e-02
<GCONST> 7.754490e+01
<TRANSP> 5
 0.000000e+00 1.000000e+00 0.000000e+00 0.000000e+00 0.000000e+00
 0.000000e+00 7.726793e-01 2.273207e-01 0.000000e+00 0.000000e+00
 0.000000e+00 0.000000e+00 9.215693e-01 7.843070e-02 0.000000e+00
 0.000000e+00 0.000000e+00 0.000000e+00 6.830266e-01 3.169735e-01
 0.000000e+00 0.000000e+00 0.000000e+00 0.000000e+00 0.000000e+00
<ENDHMM>
~h "O"
<BEGINHMM>
<NUMSTATES> 5
<STATE> 2
<MEAN> 39
 -1.472678e+00 5.772182e+00 7.898201e+00 6.292119e+00 8.533016e+00 -2.289865e+00 -1.502128e+00 8.287541e+00 5.891129e-01 -2.931373e+00 -9.455647e+00 -1.211305e+01 7.524017e+01 -1.064353e+00 -7.911862e-01 5.383803e-01 1.410369e+00 1.662619e+00 1.120807e+00 -2.639554e-01 -8.208011e-01 -4.075012e-01 7.888946e-01 6.514437e-01 4.461680e-01 -3.065680e-01 2.327988e-02 -2.618145e-01 3.368208e-01 4.047952e-02 2.390003e-01 -3.106614e-01 -4.331611e-01 -3.321988e-01 6.124310e-02 -9.331984e-02 1.134178e-01 3.938383e-01 2.834956e-01
<VARIANCE> 39
 3.872019e+01 5.465011e+01 2.553780e+01 4.541412e+01 5.894990e+01 5.976614e+01 1.967263e+01 3.480194e+01 3.367911e+01 3.632045e+01 1.674915e+01 5.517410e+01 2.502790e+01 3.316408e+00 1.027079e+01 5.922846e+00 2.639445e+00 3.239720e+00 5.807957e+00 6.100076e+00 4.816064e+00 2.818929e+00 3.394853e+00 2.474539e+00 8.834488e+00 4.836600e+00 8.180170e-01 1.549812e+00 5.714035e-01 6.257824e-01 7.587315e-01 8.007194e-01 1.027879e+00 1.149985e+00 5.258899e-01 7.483939e-01 5.968930e-01 2.302702e+00 5.668374e-01
<GCONST> 1.354524e+02
<STATE> 3
<MEAN> 39
 -7.218655e+00 -7.387794e+00 2.035226e+01 1.640545e+01 2.432570e+01 -5.709242e+00 -1.926315e+01 -4.385298e+00 -4.201845e-01 1.747651e+00 -1.352704e+00 -4.385029e+00 8.171988e+01 1.364231e+00 3.098442e-01 4.098535e-01 1.388523e+00 1.252924e+00 -1.500930e+00 -4.108725e+00 -2.237528e+00 -1.850816e-01 3.348640e-02 8.296789e-01 2.007835e+00 9.162577e-01 4.608268e-02 7.909251e-01 -8.019937e-01 -5.343853e-01 -5.135111e-01 5.374106e-01 9.619073e-01 5.362776e-01 4.824048e-02 -1.193563e-02 -6.473635e-01 -7.197915e-01 -4.081592e-01
<VARIANCE> 39
 3.081903e+00 4.944503e+00 2.838734e+00 1.474599e+01 1.180105e+01 1.833044e+01 2.143675e+01 1.576958e+01 1.318507e+01 1.315740e+01 1.018030e+01 1.142420e+01 3.781921e+00 1.690747e-01 1.010502e+00 1.168584e+00 1.728146e+00 1.710996e+00 2.823671e+00 3.801364e+00 3.279109e+00 1.651881e+00 2.187238e+00 1.790044e+00 2.719629e+00 7.883524e-01 2.834712e-01 2.261046e-01 2.075254e-01 3.742285e-01 3.348452e-01 3.166008e-01 6.487335e-01 6.301948e-01 1.830228e-01 6.123566e-01 1.417795e-01 8.733872e-01 2.816459e-02
<GCONST> 8.995262e+01
<STATE> 4
<MEAN> 39
 -5.781624e+00 -2.835010e+00 1.821772e+01 1.499455e+01 2.626691e+01 -7.316556e+00 -2.204864e+01 -9.506336e+00 -3.653784e-01 2.752303e+00 -2.076460e+00 -7.604992e+00 8.271374e+01 1.377864e-01 1.904749e-01 -5.040699e-01 -2.657053e-01 5.362277e-02 1.122817e-01 3.397179e-01 -6.499314e-01 -6.717116e-01 2.237615e-01 4.377717e-01 8.187183e-02 -7.470467e-02 2.372766e-02 -4.439113e-02 -1.664437e-01 -5.716097e-02 -6.253823e-02 1.696490e-01 2.557729e-01 -1.204732e-02 -2.049388e-01 -6.738555e-02 7.621640e-02 1.750662e-01 -8.986285e-02
<VARIANCE> 39
 6.035245e+00 5.771023e+00 1.134132e+01 5.740836e+00 1.226563e+01 1.660407e+01 2.316085e+01 1.560359e+01 2.637101e+01 1.472409e+01 2.018891e+01 3.202586e+01 2.349199e+00 1.266924e+00 9.411069e-01 1.838659e+00 7.537083e-01 1.320871e+00 2.683090e+00 1.863703e+00 1.425022e+00 3.338251e+00 1.771273e+00 1.632682e+00 5.506118e+00 3.688769e-01 2.692236e-01 2.009747e-01 3.572603e-01 1.625891e-01 2.169702e-01 4.856565e-01 5.692022e-01 3.709070e-01 4.353792e-01 5.151899e-01 2.592021e-01 9.127221e-01 7.461074e-02
<GCONST> 9.451789e+01
<TRANSP> 5
 0.000000e+00 1.000000e+00 0.000000e+00 0.000000e+00 0.000000e+00
 0.000000e+00 9.091076e-01 9.089240e-02 0.000000e+00 0.000000e+00
 0.000000e+00 0.000000e+00 7.141640e-01 2.858360e-01 0.000000e+00
 0.000000e+00 0.000000e+00 0.000000e+00 9.114819e-01 8.851806e-02
 0.000000e+00 0.000000e+00 0.000000e+00 0.000000e+00 0.000000e+00
<ENDHMM>
~h "a"
<BEGINHMM>
<NUMSTATES> 5
<STATE> 2
<MEAN> 39
 -1.075516e+01 -1.541296e+00 8.929799e+00 -7.544434e+00 5.706206e+00 5.028683e+00 6.395544e+00 -6.343633e+00 -1.333275e+01 -9.920517e-01 7.178602e-01 3.095621e+00 7.619016e+01 9.723490e-01 -3.363276e-01 7.971915e-01 -9.891455e-01 -8.595625e-01 -4.270848e-02 -2.321891e-01 -9.966376e-01 -1.649754e+00 -6.020058e-01 -5.725741e-01 4.259153e-01 1.440685e+00 3.961355e-01 1.768053e-01 -3.743314e-01 2.358238e-01 -1.315323e-01 4.998886e-02 -1.987393e-01 9.192960e-02 1.431251e-01 -8.228185e-02 -1.463467e-01 3.331743e-02 -1.928749e-01
<VARIANCE> 39
 1.398257e+02 1.280603e+01 5.683026e+01 3.204178e+01 2.192079e+01 3.027561e+01 3.908202e+01 4.307577e+01 5.746349e+01 5.966746e+01 4.880247e+01 6.577283e+00 3.902730e+01 2.254066e+01 2.948315e+00 1.228853e+01 6.115193e+00 2.581908e+00 6.895709e+00 5.484188e+00 5.855974e+00 5.315144e+00 4.617190e+00 8.253331e+00 9.024879e-01 4.222722e+00 4.013618e+00 6.899522e-01 1.623580e+00 1.223547e+00 6.794009e-01 1.568996e+00 9.763985e-01 1.252316e+00 1.017005e+00 7.330394e-01 1.485608e+00 2.428743e-01 9.062178e-01
<GCONST> 1.402486e+02
<STATE> 3
<MEAN> 39
 4.246622e-01 1.369460e+00 2.840393e+00 -6.283124e+00 2.987276e-01 2.274665e+00 2.812862e+00 -8.710366e+00 -1.616083e+01 -6.168004e+00 -3.196551e+00 5.885840e+00 7.717310e+01 6.726427e-03 1.582633e+00 -1.345929e+00 9.371217e-01 -1.067219e+00 -4.432195e-01 -3.631268e-01 3.686963e-01 6.931473e-01 6.169658e-01 8.653996e-01 6.203393e-01 -1.716924e+00 -2.426537e-01 8.585806e-02 -1.036365e-01 1.060579e-01 1.900705e-01 2.442140e-01 -9.596037e-02 2.400340e-01 4.901180e-01 8.855881e-02 8.264937e-02 -4.001677e-02 -3.504441e-01
<VARIANCE> 39
 3.280754e+00 2.380245e+01 1.419785e+01 2.125199e+01 2.459417e+01 3.435700e+01 1.145798e+01 6.504499e+00 1.187076e+01 1.352760e+01 1.175163e+01 1.489730e+01 2.182063e+01 3.901065e-01 1.519549e+00 9.515681e-01 1.905831e+00 4.260583e+00 3.110035e+00 2.336370e+00 2.156900e+00 2.293452e+00 2.290145e+00 2.231075e+00 1.107849e+00 1.231532e+00 1.479486e-01 4.349775e-01 1.571288e-01 3.020681e-01 9.466291e-01 5.436549e-01 3.271892e-01 2.629497e-01 3.774874e-01 5.598020e-01 5.906081e-01 2.827531e-01 1.080777e-01
<GCONST> 9.868990e+01
<STATE> 4
<MEAN> 39
 -1.293643e+00 7.519219e+00 -4.574814e+00 -2.311730e+00 -2.946804e+00 2.874256e+00 -6.805049e-01 -5.051538e+00 -7.935508e+00 -3.199113e+00 1.891475e+00 9.201366e+00 6.764227e+01 -1.695685e+00 -1.599317e-01 -1.105981e+00 1.254501e+00 8.786099e-01 7.087643e-01 -3.575429e-02 2.281148e+00 4.022445e+00 2.395642e+00 4.633527e-01 -1.042230e+00 -2.286780e+00 -3.538714e-01 -6.155586e-01 5.199485e-01 2.484076e-01 7.530860e-01 3.251376e-01 5.868000e-01 3.540913e-01 9.603262e-02 1.816924e-01 -4.278635e-01 -8.010254e-01 2.069063e-01
<VARIANCE> 39
 3.740836e+00 3.281760e+00 6.553166e+00 1.176495e+01 5.062400e+00 1.320621e+01 2.647438e+01 1.113551e+01 1.462454e+01 1.317762e+01 8.711875e+00 1.554144e+01 5.965888e+00 2.053649e-01 2.911015e-01 6.978364e-01 7.629981e-01 2.219350e+00 3.269772e+00 1.986065e+00 4.200529e-01 1.311647e+00 1.290677e+00 1.376281e+00 1.506086e+00 1.499345e-01 1.066618e-01 1.231987e-01 1.070882e-01 3.107860e-01 2.408512e-01 4.914941e-01 1.885262e-01 3.098343e-01 2.144222e-01 3.159192e-01 6.706077e-01 4.138459e-01 2.994483e-02
<GCONST> 7.789424e+01
<TRANSP> 5
 0.000000e+00 1.000000e+00 0.000000e+00 0.000000e+00 0.000000e+00
 0.000000e+00 7.826080e-01 2.173920e-01 0.000000e+00 0.000000e+00
 0.000000e+00 0.000000e+00 8.328989e-01 1.671011e-01 0.000000e+00
 0.000000e+00 0.000000e+00 0.000000e+00 5.324008e-01 4.675992e-01
 0.000000e+00 0.000000e+00 0.000000e+00 0.000000e+00 0.000000e+00
<ENDHMM>
~h "b"
<BEGINHMM>
<NUMSTATES> 5
<STATE> 2
<MEAN> 39
 -6.773769e+00 5.830762e+00 -5.446235e+00 1.902466e+00 2.121720e+00 6.383622e+00 2.355592e+00 2.947612e+00 9.015253e-01 2.543947e+00 1.223398e+00 3.590002e+00 6.175599e+01 -9.835082e-01 -5.714645e-01 -5.332583e-01 3.348787e-01 7.902895e-01 6.164892e-01 7.308108e-01 1.523244e+00 1.433958e+00 1.154920e+00 4.746188e-01 -4.574480e-01 -1.069238e+00 1.974467e-01 -3.777989e-02 -1.085747e-02 -2.394451e-01 -1.356698e-01 -4.672595e-02 7.249265e-02 -2.490431e-01 -4.065083e-01 -1.613619e-01 1.470501e-01 2.642040e-01 2.178482e-01
<VARIANCE> 39
 2.016485e+00 1.790053e+00 3.550195e+00 3.159393e+00 5.400945e+00 7.765954e+00 1.470318e+01 8.748675e+00 5.279489e+00 8.756529e+00 9.611387e+00 5.927911e+00 3.071480e+00 2.709281e-01 2.471855e-01 2.429765e-01 7.425607e-01 8.297496e-01 7.925219e-01 1.650747e+00 2.032074e+00 1.465789e+00 1.451311e+00 2.104585e+00 1.918373e+00 1.872304e-01 4.102592e-02 2.448272e-02 5.402220e-02 7.722521e-02 2.234452e-01 1.802093e-01 3.140525e-01 3.436467e-01 3.623346e-01 2.880676e-01 3.713654e-01 2.956714e-01 3.097004e-02
<GCONST> 6.405526e+01
<STATE> 3
<MEAN> 39
 -1.128917e+01 2.820680e+00 -8.107405e+00 1.327020e+00 3.767455e+00 8.297199e+00 6.483091e+00 9.620745e+00 7.875763e+00 8.140264e+00 5.523586e+00 4.361717e+00 5.140365e+01 -1.015244e-01 -2.807798e-02 -3.694481e-02 -2.139029e-02 4.199718e-02 2.730037e-02 6.933078e-02 1.122009e-01 1.161783e-01 5.822688e-02 4.893506e-02 4.472255e-02 -4.034487e-01 3.548782e-02 1.530552e-02 9.188680e-03 -2.118136e-02 -2.647672e-02 -3.591464e-02 -3.854167e-02 -2.814894e-02 -1.697549e-02 -6.118734e-02 -5.890148e-02 -1.920720e-03 3.095308e-02
<VARIANCE> 39
 3.524924e+00 1.143832e+00 3.607037e+00 3.618107e+00 3.389998e+00 4.366063e+00 4.814507e+00 5.813379e+00 6.887476e+00 6.362804e+00 6.231355e+00 7.836907e+00 2.986967e+01 8.397564e-02 1.314144e-01 2.853032e-01 3.106325e-01 3.395227e-01 5.516834e-01 6.175188e-01 6.708618e-01 6.476355e-01 7.643860e-01 6.658768e-01 7.725386e-01 3.872038e-02 2.090959e-02 3.326463e-02 7.362898e-02 6.673680e-02 7.340728e-02 1.265240e-01 1.348373e-01 1.461667e-01 1.462864e-01 1.940083e-01 1.527842e-01 1.679081e-01 1.932724e-02
<GCONST> 4.626319e+01
<STATE> 4
<MEAN> 39
 -3.462435e+00 1.664148e-01 -1.012437e+01 -8.077784e+00 -7.160285e-01 -3.088653e+00 3.790071e+00 1.090034e+01 1.190740e+01 2.396903e-01 -3.093178e+00 3.779921e+00 6.738914e+01 1.446964e+00 -4.957475e-01 3.549054e-02 -1.649562e+00 -2.583413e-01 -1.727470e+00 -2.979429e-01 -2.337680e-01 8.219984e-01 -1.208923e+00 -1.458527e+00 -1.768804e-01 4.143445e+00 -5.440938e-02 1.447765e-02 1.491528e-01 -3.726813e-02 1.174192e-01 8.738226e-02 -2.194388e-02 -4.599201e-02 -9.905683e-02 1.461452e-01 8.218224e-02 -1.908196e-02 2.525859e-02
<VARIANCE> 39
 4.103470e+01 1.443288e+01 1.407389e+01 5.003367e+01 3.188316e+01 7.026101e+01 2.416581e+01 3.179160e+01 2.344512e+01 7.460953e+01 5.011141e+01 1.115450e+01 3.272139e+02 2.321239e+00 1.228845e+00 1.945989e+00 2.834965e+00 3.830145e+00 5.290987e+00 2.167117e+00 4.061541e+00 2.852636e+00 6.771853e+00 5.073958e+00 1.291234e+00 1.897878e+01 5.439740e-01 2.994461e-01 3.456814e-01 7.287435e-01 6.327118e-01 1.124955e+00 4.468615e-01 8.848703e-01 7.297349e-01 1.429983e+00 1.252538e+00 2.867183e-01 4.669980e+00
<GCONST> 1.303826e+02
<TRANSP> 5
 0.000000e+00 1.000000e+00 0.000000e+00 0.000000e+00 0.000000e+00
 0.000000e+00 8.103548e-01 1.896452e-01 0.000000e+00 0.000000e+00
 0.000000e+00 0.000000e+00 9.663712e-01 3.362885e-02 0.000000e+00
 0.000000e+00 0.000000e+00 0.000000e+00 8.975349e-01 1.024651e-01
 0.000000e+00 0.000000e+00 0.000000e+00 0.000000e+00 0.000000e+00
<ENDHMM>
~h "e"
<BEGINHMM>
<NUMSTATES> 5
<STATE> 2
<MEAN> 39
 -3.466961e+00 1.119445e+01 3.951029e-01 1.128832e+01 1.223852e+01 1.307081e+01 7.192037e+00 7.273610e+00 4.118544e+00 1.360400e+00 -3.851175e+00 -5.426570e+00 6.615800e+01 -7.909625e-01 -6.301034e-01 -5.674384e-01 -5.449178e-01 -4.420207e-01 2.698978e-01 1.234909e+00 1.817868e+00 1.474553e+00 1.174335e+00 1.036894e+00 5.120285e-01 -6.187830e-01 -5.272760e-02 -3.230284e-01 -3.542218e-01 -3.332126e-01 -2.610825e-01 -4.202476e-01 -6.516809e-01 -2.419467e-01 -5.520418e-02 -2.951922e-02 1.488723e-01 2.509734e-01 -2.233022e-03
<VARIANCE> 39
 1.403508e+00 1.428835e+00 4.930373e+00 6.554566e+00 3.159047e+00 3.089132e+00 4.163390e+00 9.306991e+00 1.152871e+01 1.021086e+01 8.600152e+00 7.940015e+00 2.349199e+00 1.468782e-01 3.653567e-01 4.957053e-01 9.043529e-01 5.751688e-01 9.173700e-01 1.879656e+00 5.855455e-01 8.287809e-01 1.681983e+00 1.083399e+00 1.352899e+00 6.226795e-02 2.971610e-02 3.224640e-02 4.723576e-02 1.434727e-01 9.044832e-02 7.915080e-02 1.525441e-01 7.230072e-02 1.763774e-01 3.428934e-01 2.914696e-01 2.766043e-01 2.035555e-02
<GCONST> 5.468826e+01
<STATE> 3
<MEAN> 39
 -8.037314e+00 5.690130e+00 -5.241141e+00 5.396348e+00 7.650254e+00 1.087667e+01 7.450580e+00 1.175800e+01 8.809997e+00 6.701735e+00 2.930848e+00 6.832638e-01 6.241529e+01 -7.183002e-01 -8.805140e-01 -9.289114e-01 -1.068128e+00 -8.895502e-01 -5.275271e-01 1.317989e-03 2.133468e-01 4.641443e-01 9.072095e-01 1.153255e+00 1.103431e+00 -6.905506e-01 1.100533e-01 1.361768e-01 1.221273e-01 1.440661e-01 9.480318e-02 3.747260e-02 -4.704449e-03 -2.399017e-01 -2.031020e-01 -1.597541e-01 -1.909152e-01 -1.068797e-01 3.276559e-02
<VARIANCE> 39
 2.864496e+00 3.169041e+00 4.354382e+00 5.930082e+00 8.392258e+00 1.076682e+01 9.972498e+00 1.164685e+01 9.947865e+00 8.550457e+00 7.098504e+00 9.192333e+00 2.349199e+00 1.591693e-01 2.879511e-01 4.533539e-01 6.478033e-01 4.953190e-01 7.265750e-01 1.504332e+00 1.901176e+00 1.526979e+00 1.056973e+00 7.103232e-01 4.001733e-01 4.826987e-02 2.371470e-02 5.080366e-02 8.000551e-02 1.263792e-01 9.020428e-02 1.561211e-01 3.442424e-01 3.498196e-01 2.912019e-01 2.205889e-01 1.211901e-01 9.175000e-02 9.233199e-03
<GCONST> 5.815493e+01
<STATE> 4
<MEAN> 39
 -1.164369e+01 3.232149e+00 -8.326324e+00 7.171068e-01 3.330605e+00 7.982177e+00 7.040468e+00 1.060984e+01 8.662512e+00 8.052852e+00 5.179919e+00 3.730900e+00 4.851422e+01 -8.567218e-02 8.625923e-03 2.415795e-02 -4.153068e-02 -2.210899e-02 -6.518826e-03 -1.459833e-02 -4.219525e-02 -3.336354e-02 -6.867097e-03 -1.012108e-03 -2.197362e-02 -3.470431e-01 -8.660416e-04 5.709368e-03 1.282588e-02 1.076110e-02 1.090368e-02 5.858598e-03 2.271557e-03 3.513959e-03 -5.509547e-03 -4.967218e-03 -5.332250e-03 -6.691177e-03 4.599724e-03
<VARIANCE> 39
 3.904299e+00 1.163937e+00 3.830339e+00 3.964854e+00 4.005548e+00 4.900874e+00 7.475132e+00 7.320249e+00 5.751324e+00 5.246147e+00 5.365435e+00 5.583973e+00 4.074535e+01 4.466987e-02 1.018817e-01 1.920649e-01 2.508392e-01 4.035507e-01 4.517217e-01 6.098408e-01 8.621647e-01 6.675489e-01 4.990650e-01 5.207016e-01 4.923108e-01 3.872038e-02 9.151827e-03 2.129898e-02 3.952003e-02 4.920895e-02 8.069804e-02 9.162660e-02 1.285412e-01 1.850526e-01 1.300328e-01 9.362803e-02 1.083212e-01 9.656808e-02 4.955909e-03
<GCONST> 3.921598e+01
<TRANSP> 5
 0.000000e+00 1.000000e+00 0.000000e+00 0.000000e+00 0.000000e+00
 0.000000e+00 7.529471e-01 2.470529e-01 0.000000e+00 0.000000e+00
 0.000000e+00 0.000000e+00 8.388544e-01 1.611457e-01 0.000000e+00
 0.000000e+00 0.000000e+00 0.000000e+00 9.832774e-01 1.672257e-02
 0.000000e+00 0.000000e+00 0.000000e+00 0.000000e+00 0.000000e+00
<ENDHMM>
~h "g"
<BEGINHMM>
<NUMSTATES> 5
<STATE> 2
<MEAN> 39
 -1.192617e+00 -4.826329e-01 7.658413e+00 1.084011e+01 2.418640e+01 -9.601610e-01 -1.531381e+01 -1.540193e+01 -1.145565e+01 1.010104e-01 1.555901e+00 3.498272e+00 7.942496e+01 8.381617e-01 1.598042e+00 -2.491213e+00 -1.123033e+00 -1.810034e+00 1.878412e+00 2.025247e+00 -9.534691e-02 -8.025295e-01 -1.421594e+00 -8.429633e-01 8.530427e-01 -1.375084e+00 -1.387293e-01 3.763938e-01 4.961540e-02 2.506177e-01 -4.990891e-01 -9.623873e-02 8.096006e-02 6.838975e-01 7.845848e-01 -4.344472e-02 -4.265576e-01 -8.443260e-01 -2.978851e-01
<VARIANCE> 39
 2.801316e+00 1.024739e+01 2.319878e+01 2.331635e+01 1.962880e+01 3.004768e+01 3.033320e+01 1.145739e+01 3.575982e+01 2.618280e+01 8.611680e+00 5.454939e+01 4.494234e+00 1.793315e-01 1.636045e+00 8.028500e-01 9.778750e-01 2.968570e+00 9.929138e-01 2.488846e+00 3.381874e+00 3.539591e+00 1.768510e+00 1.201459e+00 3.470238e+00 6.289511e-01 7.510456e-02 2.292733e-01 3.269968e-01 3.752784e-01 2.972796e-01 2.300238e-01 4.479413e-01 6.784126e-01 7.640027e-01 6.085906e-01 2.022298e-01 4.256330e-01 5.951048e-02
<GCONST> 9.652312e+01
<STATE> 3
<MEAN> 39
 8.436872e-01 7.703117e+00 -1.003050e+00 9.819592e+00 1.251845e+01 4.199156e+00 -8.424293e+00 -1.011783e+01 -7.750590e+00 -2.654363e+00 -3.868286e+00 -1.208883e+00 7.175823e+01 -1.953851e-01 1.944609e+00 -7.700570e-01 1.047197e+00 -1.553785e+00 1.493532e+00 1.664595e+00 3.393936e+00 3.153391e+00 -1.475753e-01 -1.635326e+00 -2.839659e+00 -2.004054e+00 -3.763346e-01 -3.555952e-01 7.615539e-01 6.261744e-02 7.410203e-01 1.074636e-01 2.483466e-01 5.225191e-01 3.236135e-01 1.474443e-01 1.689287e-01 7.530063e-02 2.510979e-01
<VARIANCE> 39
 2.187888e+00 6.882227e+00 1.423797e+01 1.125825e+01 1.116271e+01 1.926981e+01 6.614176e+00 2.736903e+01 3.249174e+01 1.175910e+01 9.093298e+00 4.636509e+01 4.170348e+00 3.779313e-01 5.038195e-01 3.554317e+00 8.673577e-01 1.963936e+00 1.879098e+00 1.324899e+00 2.252294e+00 2.154263e+00 3.016492e+00 9.188050e-01 1.935318e+00 2.087471e-01 3.305326e-02 9.437155e-02 2.308361e-01 2.702129e-01 2.433541e-01 2.893406e-01 1.719325e-01 4.179792e-01 5.241569e-01 4.754839e-01 2.741798e-01 6.715695e-01 3.445746e-02
<GCONST> 8.591971e+01
<STATE> 4
<MEAN> 39
 -9.877468e-01 1.133096e+01 6.341220e-01 1.213304e+01 1.228994e+01 9.401178e+00 -2.007954e+00 -1.194826e-02 -1.117172e+00 -4.395342e+00 -7.924341e+00 -6.629002e+00 6.833846e+01 -7.068372e-01 7.161242e-01 1.495086e-01 -2.401253e-01 -3.098100e-01 1.414054e+00 2.995573e+00 2.698041e+00 1.304195e+00 2.828785e-01 1.000921e-02 1.138106e-01 -8.603354e-01 -4.215645e-02 -4.464747e-01 6.082207e-04 -2.171271e-01 2.102288e-01 -1.385089e-01 1.083559e-01 -4.360588e-01 -4.170591e-01 6.334603e-01 7.905999e-01 7.107841e-01 2.575882e-01
<VARIANCE> 39
 1.193913e+00 7.808481e-01 3.626252e+00 6.697021e+00 5.441645e+00 4.567628e+00 1.827246e+01 7.485660e+00 5.058394e+00 1.169496e+01 6.346278e+00 8.240794e+00 2.349199e+00 4.399004e-02 2.619725e-01 1.950117e-01 4.113023e-01 1.094111e+00 1.186378e+00 1.503224e+00 1.302349e+00 1.227684e+00 2.760886e+00 3.017311e+00 2.274260e+00 1.016788e-01 7.106753e-03 1.328376e-02 1.296684e-01 1.384071e-01 1.523655e-01 2.060197e-01 3.804594e-01 5.899242e-02 4.385103e-01 5.617670e-01 2.215274e-01 4.274834e-01 2.346349e-02
<GCONST> 5.856999e+01
<TRANSP> 5
 0.000000e+00 1.000000e+00 0.000000e+00 0.000000e+00 0.000000e+00
 0.000000e+00 7.827655e-01 2.172346e-01 0.000000e+00 0.000000e+00
 0.000000e+00 0.000000e+00 6.442764e-01 3.557237e-01 0.000000e+00
 0.000000e+00 0.000000e+00 0.000000e+00 6.345551e-01 3.654449e-01
 0.000000e+00 0.000000e+00 0.000000e+00 0.000000e+00 0.000000e+00
<ENDHMM>
~h "h"
<BEGINHMM>
<NUMSTATES> 5
<STATE> 2
<MEAN> 39
 -1.271096e+01 -6.474330e+00 1.240249e+01 -5.536891e+00 -2.334106e+00 -1.995297e+00 -1.921648e-02 5.245217e+00 -2.626833e+00 -2.328258e+00 -2.367882e+00 8.216480e+00 8.113174e+01 -7.056859e-02 9.951145e-02 2.097633e-01 -4.126549e-02 6.108103e-02 5.371683e-01 3.266684e-01 2.094288e-01 -4.070312e-01 2.489261e-01 -3.768424e-02 -2.359121e-02 -2.849623e-02 5.303332e-03 4.722324e-02 5.201587e-02 1.109291e-01 -2.751073e-03 -1.453255e-01 -1.490303e-02 8.046642e-02 1.371327e-01 5.697673e-02 8.112825e-02 2.753657e-02 -2.862307e-02
<VARIANCE> 39
 1.504688e+02 3.052755e+01 4.409770e+01 5.043364e+01 2.632459e+01 9.335857e+01 3.667181e+01 4.124963e+01 9.329874e+01 4.799223e+01 1.047555e+02 2.825224e+01 4.947092e+01 8.879473e+00 2.523630e+00 4.286815e+00 5.101023e+00 2.360052e+00 1.156480e+01 3.527339e+00 5.473828e+00 8.169157e+00 3.618873e+00 7.092194e+00 3.141403e+00 3.609130e+00 1.137139e+00 3.940928e-01 7.686562e-01 9.598873e-01 4.060288e-01 2.196946e+00 7.363505e-01 1.116364e+00 1.207596e+00 5.719947e-01 1.208439e+00 6.242013e-01 5.326632e-01
<GCONST> 1.407828e+02
<STATE> 3
<MEAN> 39
 -8.658568e+00 -4.182710e+00 1.117892e+01 -3.849715e+00 -9.332024e+00 -4.952687e+00 9.071567e+00 2.197414e+01 1.277614e+01 4.060743e+00 -1.000552e+01 1.998252e+00 7.818603e+01 -1.104747e+00 -1.058861e+00 9.392767e-02 3.688019e-01 -9.426779e-01 -6.968849e-01 3.505127e-01 7.636888e-01 1.004674e+00 7.636780e-01 8.991803e-01 7.309967e-02 -4.143667e-01 3.634663e-02 -5.728677e-02 -3.624409e-02 -1.187176e-01 -2.894895e-03 5.607832e-02 -1.197145e-01 -2.501350e-01 -2.965258e-01 1.788305e-02 8.783402e-02 1.807040e-02 -2.243376e-02
<VARIANCE> 39
 6.488107e+01 4.328607e+01 1.601377e+01 2.316394e+01 3.088230e+01 6.480085e+01 4.320678e+01 4.231462e+01 2.485221e+01 2.344695e+01 4.118114e+01 1.496634e+01 3.063238e+01 1.896040e+00 2.097689e+00 1.909177e+00 3.545378e+00 1.991467e+00 3.151225e+00 5.152567e+00 3.994522e+00 2.935815e+00 1.793292e+00 1.875426e+00 1.562397e+00 1.279667e+00 3.419382e-01 4.444403e-01 2.795651e-01 6.059336e-01 3.580631e-01 5.407236e-01 9.346451e-01 5.340044e-01 3.504296e-01 4.402519e-01 4.441091e-01 2.519506e-01 2.068796e-01
<GCONST> 1.163653e+02
<STATE> 4
<MEAN> 39
 -1.455937e+01 -1.257258e+01 1.111521e+01 -2.275017e+00 -1.602264e+01 -1.427824e+01 2.751103e+00 1.530939e+01 1.557788e+01 1.438194e+01 2.632775e-02 9.257113e+00 6.711715e+01 2.006075e+00 1.619486e+00 2.642161e-01 1.397781e+00 -2.908471e-01 -9.530758e-01 -2.201984e+00 -2.761195e+00 -1.385852e+00 5.538538e-02 -4.985486e-01 2.585872e-01 -3.793651e-01 7.562643e-01 1.078295e+00 3.862822e-02 2.502695e-01 5.153127e-01 -5.966047e-01 -4.744581e-01 -8.991459e-02 -3.238797e-01 -8.214355e-01 -6.629743e-01 3.164441e-03 6.401951e-01
<VARIANCE> 39
 8.548776e+00 2.749872e+00 5.456708e+00 2.396658e+01 1.389723e+01 5.473227e+01 3.277275e+01 4.442875e+01 2.045903e+01 2.716230e+01 7.399612e+00 5.413535e+01 5.288398e+01 3.651985e+00 4.918594e+00 1.116751e+00 3.930061e+00 1.309026e+00 6.204009e+00 2.698986e+00 4.164017e+00 1.917789e+00 3.843705e+00 2.120657e+00 1.890378e+00 3.333978e+00 1.422147e-01 2.185905e-01 2.647960e-01 8.483595e-01 3.341573e-01 2.095728e+00 3.944429e-01 1.369760e+00 5.932419e-01 6.218516e-01 4.382713e-01 3.519836e-01 8.051839e-01
<GCONST> 1.143593e+02
<TRANSP> 5
 0.000000e+00 1.000000e+00 0.000000e+00 0.000000e+00 0.000000e+00
 0.000000e+00 9.628942e-01 3.710582e-02 0.000000e+00 0.000000e+00
 0.000000e+00 0.000000e+00 9.183303e-01 8.166969e-02 0.000000e+00
 0.000000e+00 0.000000e+00 0.000000e+00 7.879061e-01 2.120939e-01
 0.000000e+00 0.000000e+00 0.000000e+00 0.000000e+00 0.000000e+00
<ENDHMM>
~h "i"
<BEGINHMM>
<NUMSTATES> 5
<STATE> 2
<MEAN> 39
 -1.732118e+01 -4.558290e+00 2.380667e+00 -2.220394e+00 7.297109e+00 8.386245e+00 5.540226e+00 1.014036e+01 2.269596e+00 1.059080e+01 2.365442e+00 -3.439638e+00 6.869674e+01 -1.325773e+00 -1.668403e+00 -1.472105e+00 1.865738e+00 6.580676e-01 -3.708466e+00 -1.071961e+00 5.519181e-01 1.818051e+00 -2.496323e+00 -2.002288e+00 5.921140e-01 1.475863e+00 -4.625427e-01 -5.779175e-01 8.036731e-01 -2.500267e-02 3.033405e-01 -4.742937e-01 4.635880e-01 -3.502020e-01 -4.475411e-01 -4.808944e-01 -1.609578e-01 3.412718e-01 7.856374e-01
<VARIANCE> 39
 2.333055e+01 2.529072e+01 2.108690e+01 2.753285e+01 2.651436e+01 5.911193e+01 1.919642e+01 1.433363e+01 3.801469e+01 4.628917e+01 2.842815e+01 5.749285e+00 4.035239e+01 3.428632e+00 4.163673e+00 4.347542e+00 1.887778e+00 3.770194e+00 2.849791e+00 3.992057e+00 2.656664e+00 5.639585e+00 3.118706e+00 1.845837e+00 1.259077e+00 6.876781e+00 7.611683e-01 5.711136e-01 6.922858e-01 4.471865e-01 1.114858e+00 5.837519e-01 8.540550e-01 4.831036e-01 9.973766e-01 1.038264e+00 5.001873e-01 1.993916e-01 1.270311e+00
<GCONST> 1.234494e+02
<STATE> 3
<MEAN> 39
 -2.263435e+01 -1.454509e+01 8.886635e+00 6.057055e+00 1.039909e+01 -9.077994e+00 2.028799e+00 6.951421e+00 2.662717e+00 -3.354329e-01 -6.141069e+00 2.433861e+00 7.755903e+01 1.858042e+00 5.286579e-01 2.711156e+00 1.296086e+00 1.185061e+00 -6.624936e-01 -1.829812e+00 -1.893318e+00 -9.132397e-01 -9.353626e-01 -1.221152e+00 -5.713360e-01 7.201442e-01 9.647705e-01 7.387764e-01 6.280653e-02 -2.691659e-01 4.636513e-01 7.193481e-01 -6.917831e-01 -5.891873e-01 -1.118108e-01 2.678437e-01 -3.633901e-02 -7.846892e-01 4.764996e-02
<VARIANCE> 39
 1.815252e+01 1.239013e+01 2.687109e+01 1.842175e+01 1.700817e+01 1.886268e+01 3.838530e+01 2.930371e+01 2.675046e+01 1.566656e+01 1.620497e+01 2.466890e+01 3.109220e+00 6.316994e+00 4.292267e+00 2.143532e+00 1.272309e+00 3.718704e+00 5.276227e+00 6.202541e+00 3.187177e+00 1.781103e+00 2.059599e+00 2.325712e+00 8.457206e+00 2.050708e+00 4.057445e-01 5.142210e-01 5.742214e-01 4.530645e-01 4.548762e-01 9.263851e-01 1.041358e+00 6.833447e-01 4.048051e-01 4.934584e-01 5.367090e-01 9.338575e-01 8.906189e-01
<GCONST> 1.179828e+02
<STATE> 4
<MEAN> 39
 -1.778678e+00 -7.723833e+00 1.294786e+01 1.080440e+00 1.417021e+01 -6.286278e-01 -1.193542e+01 -7.935543e+00 -2.340449e+00 -4.470275e+00 -1.391998e+01 -5.825882e+00 8.532562e+01 7.305565e-01 3.789043e-01 -3.222722e-01 -8.512645e-01 -4.730493e-01 -2.466545e-01 4.723170e-01 2.923525e-01 -2.531026e-02 -5.957023e-01 -1.308705e-01 -1.294907e-01 3.448579e-01 -2.063586e-01 1.629056e-02 -7.901199e-02 3.282174e-02 -1.969623e-01 -1.480216e-01 2.056044e-01 3.789161e-01 2.284168e-01 8.436555e-02 7.199521e-02 1.621895e-02 -1.807181e-01
<VARIANCE> 39
 1.334285e+01 7.009506e+00 2.090727e+01 2.254600e+01 4.073198e+01 1.231310e+02 5.979591e+01 3.012672e+01 3.035699e+01 4.165710e+01 1.889748e+01 1.701405e+01 1.069244e+01 1.604249e+00 1.652327e+00 1.934763e+00 1.453624e+00 3.051348e+00 1.586818e+01 8.620398e+00 6.473700e+00 5.990790e+00 4.170890e+00 3.015870e+00 3.363726e+00 2.571456e+00 2.484543e-01 4.607712e-01 4.885769e-01 3.276433e-01 5.686889e-01 2.131877e+00 1.505767e+00 5.694786e-01 1.383013e+00 8.131511e-01 6.770611e-01 8.106636e-01 3.951488e-01
<GCONST> 1.246917e+02
<TRANSP> 5
 0.000000e+00 1.000000e+00 0.000000e+00 0.000000e+00 0.000000e+00
 0.000000e+00 8.182056e-01 1.817944e-01 0.000000e+00 0.000000e+00
 0.000000e+00 0.000000e+00 8.269416e-01 1.730584e-01 0.000000e+00
 0.000000e+00 0.000000e+00 0.000000e+00 9.435853e-01 5.641465e-02
 0.000000e+00 0.000000e+00 0.000000e+00 0.000000e+00 0.000000e+00
<ENDHMM>
~h "k"
<BEGINHMM>
<NUMSTATES> 5
<STATE> 2
<MEAN> 39
 -7.180134e+00 -4.141611e+00 1.806317e+01 1.620461e+01 1.586562e+01 -1.193020e+01 -9.667066e+00 1.097942e+00 -8.137889e+00 -1.285040e+01 -3.057150e+00 -7.367381e+00 7.310715e+01 1.354373e+00 -1.216989e-02 2.698495e+00 1.676491e-01 1.714270e+00 -8.142416e-01 -1.538782e+00 -1.069846e+00 -1.718182e+00 -1.883451e+00 -6.089938e-02 -7.391921e-01 5.499205e+00 1.186786e-01 7.540601e-01 -1.744359e+00 -1.281639e+00 -2.956866e-01 1.596576e+00 1.001715e+00 5.407950e-01 6.215730e-01 1.390785e+00 2.604008e-01 6.512401e-01 -1.121567e+00
<VARIANCE> 39
 4.526239e+00 1.358569e+01 2.719551e+01 1.515115e+01 2.104508e+01 2.024798e+01 8.569121e+00 3.531494e+01 1.163065e+01 9.759924e+00 1.723059e+01 1.740009e+01 5.216933e+01 6.503435e-01 3.098873e+00 9.945985e+00 5.607957e+00 2.170965e+00 1.024114e+01 4.500973e+00 3.918363e+00 1.985331e+00 3.791284e+00 3.490746e+00 2.084784e+00 4.217299e+00 9.891056e-02 4.344721e-01 5.220235e-01 6.789299e-01 5.734921e-01 9.842044e-01 3.468957e-01 6.934966e-01 9.608819e-02 6.343232e-01 5.743831e-01 3.163862e-01 8.152303e-01
<GCONST> 1.132219e+02
<STATE> 3
<MEAN> 39
 -2.140316e+00 6.368216e-01 1.498163e+01 4.450326e+00 2.447964e+01 4.283097e-02 -7.579651e+00 -3.211168e+00 -1.048485e+01 -2.923940e+00 -5.904102e+00 -2.827288e+00 8.219035e+01 -5.254192e-01 1.114015e+00 1.276017e-01 -1.762816e+00 5.331680e-01 2.164412e+00 1.383117e+00 -1.355549e+00 -8.560900e-02 1.624688e+00 1.973534e-01 8.614508e-01 4.067067e-01 -7.755194e-01 1.177260e-01 3.935422e-01 3.202112e-01 -5.527945e-01 -2.639802e-01 4.609019e-01 -8.392561e-03 1.552275e-01 -3.341504e-01 4.037826e-01 -1.817832e-01 -2.148037e-01
<VARIANCE> 39
 2.291661e+00 6.769557e+00 7.310553e+00 4.058672e+01 1.526781e+01 5.023693e+01 1.986770e+01 2.080408e+01 1.345223e+01 6.952039e+01 3.369236e+01 2.386308e+01 2.349199e+00 3.342173e+00 1.795455e+00 2.829485e+00 1.921391e+00 4.707057e+00 2.687411e+00 3.141539e+00 1.630744e+00 1.054895e+00 9.584079e+00 6.437477e+00 2.775259e+00 4.005491e-01 2.450927e-01 3.108830e-01 3.994796e-01 4.451277e-01 4.804574e-01 7.054986e-01 3.937742e-01 4.206802e-01 2.944086e-01 2.234026e+00 1.135413e+00 8.396449e-01 3.279786e-01
<GCONST> 1.103380e+02
<STATE> 4
<MEAN> 39
 -2.313725e+01 -2.969890e-01 1.537472e+01 -1.039409e+00 1.675654e+01 1.236660e+01 1.306280e+01 -1.636537e+00 -8.818770e+00 1.835476e+00 4.914808e+00 -3.527211e+00 8.385428e+01 -5.269645e-01 -6.381871e-01 -5.846941e-01 -5.451639e-01 -1.084399e+00 6.524929e-01 6.552695e-01 1.105126e+00 3.760150e-01 1.213472e+00 5.601261e-01 -2.176145e-01 -1.010754e+00 3.638889e-01 -8.866519e-02 -3.413704e-01 2.900325e-02 4.827452e-02 -9.308659e-02 -4.189225e-01 1.180233e-01 1.165324e-01 1.409664e-01 -2.344730e-01 8.192707e-02 -1.983320e-01
<VARIANCE> 39
 3.961243e+01 4.722001e+01 4.926706e+01 4.056491e+01 3.145862e+01 4.704384e+01 4.425254e+01 3.656958e+01 2.344472e+01 5.925005e+01 2.488962e+01 1.610299e+01 4.576483e+01 8.262261e+00 3.556249e+00 5.509968e+00 2.987369e+00 3.780139e+00 2.938229e+00 5.771586e+00 1.903483e+00 1.414065e+00 4.403131e+00 3.668047e+00 2.667290e+00 4.752038e+00 4.853680e-01 6.808487e-01 1.229306e+00 6.310314e-01 7.323094e-01 5.238985e-01 5.576304e-01 5.177861e-01 2.666593e-01 9.784154e-01 8.547181e-01 5.146123e-01 4.417576e-01
<GCONST> 1.286638e+02
<TRANSP> 5
 0.000000e+00 1.000000e+00 0.000000e+00 0.000000e+00 0.000000e+00
 0.000000e+00 7.245659e-01 2.754342e-01 0.000000e+00 0.000000e+00
 0.000000e+00 0.000000e+00 8.678880e-01 1.321120e-01 0.000000e+00
 0.000000e+00 0.000000e+00 0.000000e+00 9.320694e-01 6.793055e-02
 0.000000e+00 0.000000e+00 0.000000e+00 0.000000e+00 0.000000e+00
<ENDHMM>
~h "m"
<BEGINHMM>
<NUMSTATES> 5
<STATE> 2
<MEAN> 39
 -1.003038e+01 1.534495e-01 -1.016502e+01 1.645825e+00 4.195107e+00 7.614232e+00 7.390873e+00 1.127141e+01 8.204990e+00 8.740119e+00 5.489267e+00 2.959410e+00 5.759694e+01 -1.389213e-02 9.385250e-02 -3.519123e-02 4.326532e-03 1.075295e-01 -4.048740e-02 -5.561494e-02 -2.184454e-02 -4.787760e-02 -4.216902e-02 -1.539682e-02 6.767309e-03 -1.129080e-01 -6.545596e-04 -1.435289e-02 3.893974e-02 -3.053417e-03 -9.012589e-03 3.176156e-02 -3.706124e-03 -2.091159e-02 -3.303954e-02 -3.785909e-02 -3.572362e-02 -2.371178e-02 2.052999e-02
<VARIANCE> 39
 8.650350e+00 1.013153e+01 1.057101e+01 9.788466e+00 8.367660e+00 1.723246e+01 1.558418e+01 1.073425e+01 1.256589e+01 1.895904e+01 2.195991e+01 1.450944e+01 8.798769e+01 8.557418e-02 2.247587e-01 4.028021e-01 5.108039e-01 5.909048e-01 8.040941e-01 9.430724e-01 1.383503e+00 1.358198e+00 1.359178e+00 1.570122e+00 1.573893e+00 5.444492e-02 1.546763e-02 4.327093e-02 7.776491e-02 1.047044e-01 1.234821e-01 1.436642e-01 1.806047e-01 3.037325e-01 2.905878e-01 2.843304e-01 3.084835e-01 3.300807e-01 7.380832e-03
<GCONST> 7.045020e+01
<STATE> 3
<MEAN> 39
 -1.024919e+01 3.071170e-01 -1.192347e+01 1.595610e-01 6.463091e+00 7.963913e+00 6.312830e+00 9.674845e+00 5.000331e+00 6.924755e+00 5.082366e+00 2.861624e+00 5.532343e+01 3.756825e-01 1.616248e-01 4.187333e-01 4.650112e-01 -4.195937e-01 -9.967992e-01 -8.578696e-01 -5.235358e-01 -8.343674e-01 -7.899767e-01 -3.242963e-01 -2.491274e-01 6.248907e-01 2.356819e-01 3.770979e-02 7.193525e-01 2.994692e-01 -1.035060e-01 -4.620413e-01 -9.676412e-01 -8.220907e-01 -2.450367e-01 -2.170453e-01 -2.845233e-01 -3.955292e-01 5.482976e-01
<VARIANCE> 39
 9.573695e+00 1.594155e+01 2.047288e+01 1.139201e+01 2.161818e+00 1.347664e+01 7.453009e+00 7.558240e+00 9.978713e+00 8.740129e+00 8.798025e+00 1.010561e+01 1.243894e+02 1.148859e-01 3.914138e-01 4.817885e-01 1.315136e+00 7.526295e-01 1.156759e+00 9.228709e-01 1.821480e+00 6.457927e-01 4.694747e-01 8.840252e-01 9.626912e-01 4.681522e-01 3.333236e-02 8.330493e-02 7.182764e-02 1.788275e-01 2.528950e-01 4.738723e-01 2.935842e-01 3.556741e-01 2.273277e-01 2.455774e-01 8.312335e-02 2.978408e-02 1.005177e-01
<GCONST> 7.224242e+01
<STATE> 4
<MEAN> 39
 -1.216440e+01 1.743429e+00 -8.567914e+00 2.011255e+00 4.593203e+00 6.338359e+00 4.743714e+00 9.633597e+00 6.846938e+00 7.020717e+00 3.913107e+00 2.603090e+00 5.258665e+01 9.407751e-01 -2.740551e-03 1.637439e+00 6.614492e-01 -2.985136e-01 -1.739344e+00 -3.152421e+00 -2.469440e+00 -1.276946e+00 -1.281028e+00 -9.568818e-01 -1.132162e+00 1.692473e+00 3.935519e-01 -3.323988e-01 1.461953e+00 3.958271e-01 9.588557e-01 -4.672178e-01 -1.414764e+00 -1.577091e+00 -1.186407e+00 -1.169238e+00 -5.309982e-01 -7.835836e-01 1.917406e+00
<VARIANCE> 39
 2.714890e+01 5.830132e+00 5.704239e+00 2.683476e+00 2.590334e+00 7.501423e+00 1.010476e+01 3.575145e+00 3.601883e+00 4.658802e+00 9.339785e+00 5.219910e+00 1.533298e+02 5.330146e-01 4.534316e-01 1.304204e+00 4.541659e-01 2.228083e+00 4.148944e+00 2.850913e+00 1.683438e+00 1.818049e+00 2.752677e+00 1.408493e+00 1.606234e+00 2.596068e+00 1.626028e-01 4.749724e-02 1.447411e-01 2.052022e-01 4.065483e-01 5.227750e-01 2.591513e-01 3.644765e-01 2.206849e-01 2.158774e-01 1.110698e-01 1.122967e-01 1.316751e+00
<GCONST> 8.355128e+01
<TRANSP> 5
 0.000000e+00 1.000000e+00 0.000000e+00 0.000000e+00 0.000000e+00
 0.000000e+00 9.725372e-01 2.746277e-02 0.000000e+00 0.000000e+00
 0.000000e+00 0.000000e+00 5.418471e-01 4.581529e-01 0.000000e+00
 0.000000e+00 0.000000e+00 0.000000e+00 1.666682e-01 8.333319e-01
 0.000000e+00 0.000000e+00 0.000000e+00 0.000000e+00 0.000000e+00
<ENDHMM>
~h "n"
<BEGINHMM>
<NUMSTATES> 5
<STATE> 2
<MEAN> 39
 -4.474710e+00 1.256681e-01 -3.399301e+00 -8.055397e+00 4.583751e+00 -2.858126e+00 5.852447e+00 8.934258e+00 9.873662e+00 -3.757060e-01 -4.777070e+00 1.339388e+00 7.135804e+01 -1.975233e-01 6.056867e-01 7.155629e-01 -5.748085e-01 -3.635903e-01 -5.764757e-01 -6.616265e-01 6.101146e-01 1.023224e-01 3.665707e-01 2.835119e-01 -4.418511e-01 -1.278108e-01 -3.851158e-02 -3.019079e-02 2.720927e-03 2.468885e-02 -5.475650e-01 1.116539e-02 -4.046196e-01 -3.138509e-01 -3.176512e-01 -2.146266e-01 1.644288e-01 -6.505197e-02 -1.291251e-01
<VARIANCE> 39
 5.773415e+01 9.076802e+00 6.440931e+01 6.078783e+01 1.066985e+01 9.614941e+01 1.320623e+01 6.688482e+00 2.887218e+01 7.159364e+01 7.410057e+01 3.103562e+01 4.708282e+02 9.001489e-01 1.243179e+00 1.182085e+00 1.313865e+00 1.469881e+00 1.558324e+00 1.423521e+00 2.328571e+00 3.418429e+00 1.602880e+00 1.006280e+00 2.546428e+00 5.051813e-01 5.469219e-02 9.191428e-02 2.104219e-01 1.578836e-01 3.676338e-01 3.920199e-01 3.636825e-01 3.740956e-01 2.313330e-01 3.532973e-01 2.374547e-01 1.918211e-01 1.104416e-01
<GCONST> 1.032679e+02
<STATE> 3
<MEAN> 39
 -5.434289e+00 1.981124e+00 3.069611e-01 -7.707326e+00 3.711919e+00 -4.277328e+00 2.260409e+00 9.268314e+00 8.792400e+00 -8.282470e-01 -3.818795e+00 -2.877425e-01 6.864676e+01 -1.170133e-01 2.827059e-01 6.440280e-01 -2.334699e-01 -1.410534e+00 -4.420592e-01 -1.677062e+00 -6.117825e-02 -1.022492e-01 1.770772e-01 1.947765e-01 -5.806133e-01 -3.739758e-01 -1.903388e-02 -2.045263e-01 -1.704912e-01 3.539487e-01 -1.784561e-01 2.439088e-01 8.972952e-02 -2.875955e-01 -3.938077e-01 -2.059152e-01 3.122123e-02 -1.278035e-01 -5.114329e-02
<VARIANCE> 39
 7.227025e+01 5.123854e+00 1.096056e+02 7.192258e+01 1.250364e+01 1.391907e+02 3.982418e+01 1.320875e+01 1.994900e+01 6.298058e+01 7.672021e+01 5.690273e+01 4.510431e+02 8.172821e-01 8.235020e-01 9.833919e-01 1.619152e+00 2.718868e+00 2.086500e+00 2.542447e+00 2.408708e+00 2.145453e+00 2.854100e+00 1.064241e+00 3.154521e+00 6.646768e-01 2.128836e-01 1.315477e-01 4.996076e-01 2.479976e-01 3.903252e-01 7.315922e-01 5.064164e-01 8.207833e-01 6.697399e-01 2.523449e-01 2.879587e-01 2.542650e-01 1.103585e-01
<GCONST> 1.137612e+02
<STATE> 4
<MEAN> 39
 -6.822084e+00 1.658735e+00 -1.099707e-01 -6.352263e+00 2.053515e+00 -2.904091e+00 5.549723e-01 9.431067e+00 8.002122e+00 -2.525541e-02 -3.016770e+00 -7.769355e-01 6.547295e+01 -2.741877e-01 1.336528e-01 3.219550e-01 2.543862e-01 -1.099680e+00 -1.779615e-01 -5.277371e-01 -1.707862e-01 -4.063491e-01 -2.907525e-01 1.538865e-01 -8.356432e-01 -3.503182e-01 4.549862e-02 9.208363e-03 -5.557409e-02 5.161471e-01 3.032882e-01 2.758971e-02 5.211313e-01 -1.271912e-01 -3.593396e-01 -3.173817e-01 -1.452825e-01 -1.303423e-01 1.001026e-02
<VARIANCE> 39
 9.025722e+01 6.406576e+00 8.765212e+01 8.413509e+01 1.768440e+01 1.205783e+02 5.167635e+01 1.998687e+01 2.173655e+01 6.158504e+01 6.429700e+01 6.537688e+01 4.327502e+02 9.063739e-01 6.286300e-01 1.936668e+00 9.949564e-01 3.180101e+00 2.762523e+00 1.124031e+00 5.227746e+00 1.813200e+00 2.800368e+00 1.224522e+00 2.243689e+00 7.583882e-01 3.663630e-01 1.576459e-01 8.851789e-01 5.284471e-01 4.056575e-01 8.048844e-01 9.744517e-01 7.900910e-01 5.636629e-01 5.874290e-01 4.013716e-01 7.024361e-01 3.312991e-01
<GCONST> 1.210894e+02
<TRANSP> 5
 0.000000e+00 1.000000e+00 0.000000e+00 0.000000e+00 0.000000e+00
 0.000000e+00 2.547915e-01 7.452084e-01 0.000000e+00 0.000000e+00
 0.000000e+00 0.000000e+00 1.593295e-01 8.406705e-01 0.000000e+00
 0.000000e+00 0.000000e+00 0.000000e+00 2.713639e-02 9.728636e-01
 0.000000e+00 0.000000e+00 0.000000e+00 0.000000e+00 0.000000e+00
<ENDHMM>
~h "s"
<BEGINHMM>
<NUMSTATES> 5
<STATE> 2
<MEAN> 39
 -1.114174e+01 3.337205e+00 -7.134850e+00 1.865693e+00 4.261179e+00 5.888255e+00 6.184822e+00 8.990328e+00 6.846399e+00 9.460496e+00 3.012183e+00 4.353670e+00 4.717901e+01 1.840806e-01 -5.091664e-01 2.161186e+00 1.654336e+00 1.078059e+00 -2.251742e+00 -1.057565e+00 2.790663e-02 -2.419836e+00 -2.869023e+00 -1.809999e+00 -1.255783e+00 9.482170e-01 2.326786e-01 -6.242091e-01 1.605075e+00 1.068389e+00 9.268686e-01 -1.365922e+00 -1.158431e+00 -2.546953e-01 -8.397918e-01 -1.650522e+00 -3.962459e-01 -9.637879e-01 1.652319e+00
<VARIANCE> 39
 7.185759e-01 6.928674e-01 3.271054e+00 2.938730e+00 2.920314e+00 7.754938e+00 2.718671e+00 4.913871e+00 8.526359e+00 2.271290e+00 1.162657e+01 6.837006e+00 2.349199e+00 2.556999e-01 3.502781e-01 1.209983e+00 2.296542e+00 1.639220e+00 3.563544e+00 1.975120e+00 1.821689e-01 2.704899e+00 4.670930e+00 6.658771e-01 1.106601e+00 1.170319e+00 1.915519e-02 4.592903e-02 4.410184e-01 2.399972e-01 1.265604e-01 4.069114e-01 2.006754e-01 3.849089e-01 7.795632e-02 1.230706e-01 3.629030e-01 9.379523e-02 3.157289e-01
<GCONST> 6.490033e+01
<STATE> 3
<MEAN> 39
 -1.058836e+01 3.220155e+00 -5.904932e+00 3.789701e+00 4.547806e+00 4.665918e+00 6.806549e+00 9.693573e+00 3.312835e+00 2.090874e+00 1.527135e+00 3.070338e+00 4.767355e+01 6.368690e-01 -1.838554e+00 5.734991e+00 3.658862e+00 2.918832e+00 -4.867940e+00 -4.196574e+00 -1.285546e+00 -4.022287e+00 -5.782917e+00 -2.485654e+00 -3.374026e+00 4.347416e+00 2.814586e-01 -5.235031e-01 1.547175e+00 6.859721e-01 7.662120e-01 -8.581004e-01 -1.165314e+00 -8.288484e-01 -3.695477e-01 -6.440362e-01 1.233244e-01 -4.900094e-01 2.113097e+00
<VARIANCE> 39
 1.814143e+00 1.062166e+00 1.121025e+01 1.993308e+01 5.683102e+00 2.221644e+01 9.383652e+00 4.688155e+00 4.255790e+01 4.483278e+01 9.769177e+00 1.291600e+01 2.349199e+00 2.340565e-01 6.368269e-01 3.603501e+00 2.538459e+00 3.360822e+00 5.259074e+00 1.034042e+00 2.117934e+00 8.541551e-01 2.678277e+00 2.211015e+00 4.919109e-01 2.497549e+00 9.173802e-02 1.823015e-01 3.028527e-01 2.222157e-01 1.348365e-01 6.603447e-01 1.754188e-01 1.927337e-01 5.271358e-01 7.190270e-01 2.481992e-01 2.436404e-01 8.590131e-02
<GCONST> 8.657761e+01
<STATE> 4
<MEAN> 39
 -1.018072e+01 -2.123839e+00 4.055729e+00 1.111395e+01 1.076488e+01 -5.456893e+00 -2.376210e+00 1.015613e+01 -3.435601e+00 -5.754219e+00 -3.253021e+00 -4.861433e+00 5.519778e+01 1.028229e+00 -2.327236e+00 7.064729e+00 4.274381e+00 3.363700e+00 -5.255763e+00 -4.955124e+00 -2.814282e+00 -3.586608e+00 -5.442734e+00 -1.784744e+00 -3.030717e+00 6.912780e+00 2.558259e-01 2.181728e-01 2.100331e-01 -4.493575e-01 4.090135e-02 5.886187e-01 1.123618e-01 -5.635419e-01 3.267818e-01 5.704783e-01 5.584664e-01 4.304605e-01 1.270396e+00
<VARIANCE> 39
 8.467603e+00 5.182551e+00 2.490941e+01 4.221337e+01 4.064333e+01 1.015661e+02 5.538389e+00 8.837969e-01 4.067742e+01 6.927400e+01 1.997107e+01 5.111888e+00 2.309192e+01 3.106895e-01 6.831157e-01 2.748667e+00 1.618236e+00 1.567770e+00 1.862394e+00 2.154492e-01 3.092926e+00 5.959898e-01 6.832176e-01 2.495525e+00 1.441276e+00 2.585679e+00 1.714365e-01 3.637373e-01 4.850612e-01 8.240885e-01 4.180522e-01 2.242516e+00 3.304903e-01 3.332290e-02 5.881494e-01 1.320848e+00 2.845884e-01 1.904522e-01 2.566602e-01
<GCONST> 9.718645e+01
<TRANSP> 5
 0.000000e+00 1.000000e+00 0.000000e+00 0.000000e+00 0.000000e+00
 0.000000e+00 3.749757e-01 6.250243e-01 0.000000e+00 0.000000e+00
 0.000000e+00 0.000000e+00 1.136837e-12 1.000000e+00 0.000000e+00
 0.000000e+00 0.000000e+00 0.000000e+00 1.614835e-30 1.000000e+00
 0.000000e+00 0.000000e+00 0.000000e+00 0.000000e+00 0.000000e+00
<ENDHMM>
~h "t"
<BEGINHMM>
<NUMSTATES> 5
<STATE> 2
<MEAN> 39
 2.751045e+00 4.244339e+00 -1.711571e+00 -6.549343e+00 -2.820894e+00 -4.571435e+00 1.567904e-01 -6.652423e-01 3.491564e+00 -4.643262e+00 -6.490924e+00 -2.041700e+00 7.871207e+01 1.438631e-01 -1.488790e-02 1.430585e-01 9.747133e-01 1.377000e-01 7.627857e-01 6.253737e-02 -9.348438e-01 -1.501136e+00 2.283453e-01 1.426937e-01 1.527646e-02 -4.342940e-01 -4.574834e-02 -3.372112e-02 5.379804e-02 5.218430e-02 6.090894e-02 9.939314e-02 2.974989e-02 2.666079e-01 -4.855618e-03 1.451347e-01 -8.228786e-03 1.383568e-01 -3.210143e-02
<VARIANCE> 39
 9.672973e+00 5.703315e+01 2.398745e+01 5.158403e+01 7.870438e+01 6.626174e+01 4.176729e+01 9.950917e+01 1.148609e+02 4.071666e+01 4.350109e+01 2.588749e+01 4.855511e+01 1.410726e+00 7.069434e+00 2.266331e+00 2.996119e+00 4.296729e+00 6.089403e+00 3.675816e+00 1.211227e+01 4.818938e+00 5.854538e+00 6.726317e+00 3.377665e+00 7.063372e+00 3.009214e-01 1.040051e+00 1.624600e-01 5.009199e-01 5.257926e-01 1.168822e+00 6.829866e-01 2.331923e+00 8.335254e-01 1.258824e+00 1.618598e+00 6.289710e-01 9.652094e-01
<GCONST> 1.373947e+02
<STATE> 3
<MEAN> 39
 1.882030e+00 3.758303e+00 6.792941e+00 7.205991e+00 5.725686e+00 1.202768e+01 -4.070598e+00 -5.877679e+00 -6.485087e-01 -4.518260e+00 -1.272841e+01 -1.384076e+00 7.513306e+01 -2.699649e-01 1.059774e+00 -1.594234e-02 1.001559e+00 -2.938641e-01 2.267306e-01 -2.491859e-01 7.161133e-01 1.643162e+00 2.586482e-01 -2.047149e-01 1.615921e-01 -1.158453e+00 -2.108306e-01 -1.351807e-01 2.298074e-02 -3.516614e-01 7.053320e-02 -5.972884e-01 1.121624e-01 3.331082e-01 -2.526940e-02 -7.380590e-03 2.505724e-01 -2.082616e-02 1.244932e-01
<VARIANCE> 39
 6.062452e+00 2.477292e+01 2.093463e+01 4.563726e+01 3.420651e+01 4.903572e+01 3.738645e+01 1.839534e+01 1.003082e+02 1.778878e+01 6.805388e+01 4.337805e+01 1.954767e+01 4.958905e-01 8.546155e-01 2.359469e+00 2.128367e+00 3.956857e+00 6.484853e+00 3.564716e+00 2.514801e+00 6.110594e+00 3.026418e+00 7.078205e+00 3.041376e+00 1.195855e+00 1.081577e-01 2.542499e-01 4.184657e-01 3.416850e-01 6.431395e-01 8.111606e-01 5.261021e-01 4.313457e-01 1.497055e+00 5.419523e-01 1.150024e+00 4.655618e-01 1.230780e-01
<GCONST> 1.177174e+02
<STATE> 4
<MEAN> 39
 -1.029012e+01 1.789728e+00 4.839468e+00 2.570292e+00 7.539142e+00 6.442457e+00 3.877703e+00 -1.233187e+00 -4.608706e+00 7.211000e-01 1.623443e+00 -1.030641e+00 6.958935e+01 -4.722914e-01 -5.624670e-01 -1.019550e-01 -7.738639e-01 -3.096318e-01 -2.627131e-01 1.213708e+00 7.588477e-01 -1.601054e-01 7.078949e-02 5.236757e-01 3.827494e-01 -4.030891e-02 2.013341e-01 -6.453594e-03 -2.703205e-02 -1.675825e-01 8.763172e-02 -7.961968e-02 -2.759736e-01 -1.066516e-01 1.888567e-01 -1.545576e-01 -2.927728e-01 1.888429e-01 1.887889e-01
<VARIANCE> 39
 8.190936e+01 3.775913e+01 4.816595e+01 3.956027e+01 2.192574e+01 3.337692e+01 6.635680e+01 7.129029e+01 7.281453e+01 3.755111e+01 5.644019e+01 1.709739e+01 3.574627e+01 1.293746e+01 4.627652e+00 7.566871e+00 4.644694e+00 2.054985e+00 8.369617e+00 5.856450e+00 3.616284e+00 4.521783e+00 5.052510e+00 1.113569e+01 3.585428e+00 4.050431e+00 2.180186e+00 1.029716e+00 1.602472e+00 1.143955e+00 4.830583e-01 1.272559e+00 7.267830e-01 6.302444e-01 7.367068e-01 7.622082e-01 1.703575e+00 5.610485e-01 9.043943e-01
<GCONST> 1.418748e+02
<TRANSP> 5
 0.000000e+00 1.000000e+00 0.000000e+00 0.000000e+00 0.000000e+00
 0.000000e+00 8.355054e-01 1.644947e-01 0.000000e+00 0.000000e+00
 0.000000e+00 0.000000e+00 8.409040e-01 1.590960e-01 0.000000e+00
 0.000000e+00 0.000000e+00 0.000000e+00 8.062872e-01 1.937129e-01
 0.000000e+00 0.000000e+00 0.000000e+00 0.000000e+00 0.000000e+00
<ENDHMM>
~h "OE"
<BEGINHMM>
<NUMSTATES> 5
<STATE> 2
<MEAN> 39
 -8.795139e+00 2.070486e+00 -5.184484e+00 2.920673e+00 3.930621e+00 6.199019e+00 -4.508715e-01 3.457195e+00 4.283514e+00 5.384046e+00 9.898434e-01 -1.125553e+00 5.910712e+01 1.183066e+00 -8.225952e-01 5.173795e+00 1.129185e+00 2.003787e+00 -1.692340e+00 -5.652409e+00 -6.247926e+00 -4.852899e+00 -3.916776e+00 -2.194103e+00 -2.853927e+00 5.680160e+00 1.508275e-01 -4.298307e-01 1.064361e+00 3.914801e-01 1.195082e+00 -4.426253e-01 -1.954433e-01 -4.496067e-01 -1.022310e+00 -8.164678e-01 1.114732e-01 -1.645232e-01 1.499076e+00
<VARIANCE> 39
 1.316551e+01 1.563832e+01 1.441315e+01 1.275364e+00 2.880633e+00 2.375946e+01 1.583474e+01 2.443216e+01 2.641176e+01 1.332548e+01 1.377972e+01 1.509119e+01 8.502047e+01 1.014710e+00 6.831478e-01 2.434790e+00 5.226060e-01 3.472834e+00 3.270318e+00 2.480417e+00 3.670469e+00 3.667462e+00 2.135894e+00 2.062547e+00 6.307325e-01 1.147229e+01 6.453223e-02 2.905399e-02 2.862376e-01 1.104571e-01 2.485954e-01 7.283249e-01 3.530318e-01 1.395644e+00 4.958973e-01 2.799340e-01 2.139313e-01 6.012279e-01 7.696338e-01
<GCONST> 9.858085e+01
<STATE> 3
<MEAN> 39
 -5.397367e+00 -1.405563e+00 1.005758e+01 7.316113e+00 1.503030e+01 -2.185199e+00 -1.460216e+01 -1.174910e+01 -1.165985e+01 -7.634662e+00 -2.952342e+00 -6.851487e+00 7.868766e+01 8.742772e-01 -1.377261e+00 3.586664e+00 9.893074e-01 3.144559e+00 -1.850263e+00 -1.370039e+00 -1.389056e+00 -2.041350e+00 -1.930155e+00 3.892690e-01 -4.382816e-01 4.903981e+00 -2.023409e-01 -4.169714e-03 -9.400340e-01 -3.245386e-01 -2.858347e-01 4.091634e-01 1.177070e+00 1.645793e+00 1.424553e+00 1.032456e+00 7.412552e-01 6.698217e-01 -1.011801e+00
<VARIANCE> 39
 4.677227e+00 1.719141e+01 3.999826e+01 1.227859e+01 8.246801e+01 3.120393e+01 2.158601e+01 3.947771e+01 3.019511e+01 1.984702e+01 2.845996e+01 2.084358e+01 4.186858e+01 1.303633e+00 4.413229e-01 4.943003e+00 1.444779e+00 4.430400e+00 5.035712e+00 5.877962e+00 1.038396e+01 7.138227e+00 5.304637e+00 3.870892e+00 3.496001e+00 1.244864e+01 1.246038e-01 1.961741e-01 7.644888e-01 2.563699e-01 1.314531e+00 8.581454e-01 6.808063e-01 7.754846e-01 7.277380e-01 6.755356e-01 5.946618e-01 6.339666e-01 1.676994e+00
<GCONST> 1.237401e+02
<STATE> 4
<MEAN> 39
 -1.942390e+01 -7.477082e+00 1.922970e+01 1.276291e+01 1.816826e+01 -1.770855e+00 -4.512788e+00 1.977037e+00 -1.057531e+00 -6.587830e+00 1.578275e-01 -8.014151e+00 8.869431e+01 -1.261176e+00 -4.816142e-01 -1.455857e-01 1.017164e-01 -1.986262e-01 1.446669e-01 7.321357e-01 1.220396e+00 7.741392e-01 4.737127e-01 -5.570430e-02 -1.565225e-02 9.602891e-02 1.758502e-01 4.463630e-02 -1.713536e-01 -1.277331e-01 -1.291921e-01 1.543742e-01 1.847651e-02 -3.729207e-02 -1.259090e-01 4.993374e-02 -1.371042e-01 5.774656e-02 -2.812129e-01
<VARIANCE> 39
 1.138877e+02 7.887496e+00 1.935714e+01 2.133796e+01 3.380967e+01 1.792988e+01 7.269007e+01 6.310654e+01 3.314927e+01 1.299653e+01 2.055574e+01 1.973921e+01 5.574947e+00 5.210789e+00 4.054528e-01 2.794945e+00 2.504920e+00 2.509736e+00 2.774817e+00 4.861573e+00 3.129982e+00 2.626165e+00 2.029214e+00 3.652461e+00 2.067989e+00 9.265986e-01 8.952143e-01 9.572533e-02 3.661847e-01 4.317796e-01 4.433784e-01 7.631689e-01 9.445053e-01 7.111935e-01 4.112608e-01 3.664924e-01 7.366211e-01 4.215212e-01 2.237336e-01
<GCONST> 1.137632e+02
<TRANSP> 5
 0.000000e+00 1.000000e+00 0.000000e+00 0.000000e+00 0.000000e+00
 0.000000e+00 3.749992e-01 6.250008e-01 0.000000e+00 0.000000e+00
 0.000000e+00 0.000000e+00 7.241765e-01 2.758235e-01 0.000000e+00
 0.000000e+00 0.000000e+00 0.000000e+00 9.379139e-01 6.208611e-02
 0.000000e+00 0.000000e+00 0.000000e+00 0.000000e+00 0.000000e+00
<ENDHMM>
~h "OY"
<BEGINHMM>
<NUMSTATES> 5
<STATE> 2
<MEAN> 39
 1.290217e+00 3.435030e+00 1.307736e+01 3.006671e+00 -1.139402e+01 -3.272765e+01 -1.088749e+01 1.066521e+01 1.002499e+01 3.215697e+00 -8.710540e+00 1.183337e+01 7.851521e+01 1.703658e+00 1.311285e+00 3.007492e-02 5.296426e-02 1.119197e+00 -4.395772e+00 -1.567486e+00 9.436647e-01 9.811025e-01 -1.968582e+00 -1.596137e+00 5.806243e-01 2.500930e+00 -6.013645e-01 -8.756412e-01 -4.642541e-01 -2.515298e-01 -1.390538e-01 8.236269e-01 6.597800e-01 1.721801e-01 5.384490e-01 1.218847e-01 2.128618e-01 -5.468298e-01 -2.484697e-01
<VARIANCE> 39
 7.923812e+00 6.789988e+00 2.100769e+01 2.308547e+01 1.903138e+01 1.391368e+02 2.083138e+01 2.697802e+01 1.894732e+01 2.799902e+01 3.075531e+01 3.725544e+01 3.208848e+01 2.956935e+00 5.295610e+00 2.307659e+00 3.124988e+00 3.295233e+00 1.245897e+01 3.459362e+00 3.406072e+00 3.225364e+00 2.982696e+00 5.178185e+00 5.981919e+00 3.924222e+00 3.196849e-01 4.322520e-01 3.295565e-01 8.818693e-01 6.354364e-01 3.171101e+00 2.736665e-01 1.276854e+00 5.922986e-01 5.808375e-01 9.925818e-01 1.131989e+00 9.751335e-01
<GCONST> 1.262770e+02
<STATE> 3
<MEAN> 39
 5.169816e+00 -4.774336e-01 2.094370e+00 -2.275017e+00 -4.030066e+00 -2.535885e+01 -8.017210e+00 7.936771e+00 1.584088e+01 -6.570660e+00 -1.417395e+01 1.027411e+00 8.512630e+01 3.546093e-01 -6.139112e-01 -2.523264e+00 -1.700597e+00 2.355171e+00 4.328180e+00 1.623919e+00 -2.384452e+00 -1.622477e+00 -1.721200e+00 9.482445e-01 -1.646481e+00 4.017419e-01 -1.151499e-01 8.812809e-02 3.946253e-02 -9.576070e-02 4.778436e-01 2.191761e-01 4.347488e-02 -5.051379e-01 -1.188953e+00 3.164487e-01 8.081831e-01 5.429050e-01 -1.801274e-01
<VARIANCE> 39
 5.898964e+00 7.211868e+00 5.051630e+01 3.063276e+01 4.333526e+01 1.584681e+02 6.704076e+01 5.588684e+01 2.740240e+01 2.520763e+01 4.665995e+01 3.034739e+01 4.698399e+00 3.644581e-01 6.717676e-01 1.816464e+00 3.228180e+00 3.970551e+00 5.845249e+00 3.403092e+00 6.429727e+00 9.789790e+00 1.964840e+00 1.095709e+01 3.735234e+00 3.460289e-01 5.975465e-02 1.263826e-01 4.752133e-01 7.807495e-01 5.447618e-01 2.480504e+00 8.822618e-01 1.098032e+00 7.511801e-01 5.752991e-01 1.374503e+00 7.875524e-01 8.313365e-02
<GCONST> 1.185198e+02
<STATE> 4
<MEAN> 39
 1.395700e+00 -4.232793e+00 -9.561271e-01 -5.549217e+00 1.736014e+01 -8.118032e+00 -1.019658e+01 -9.366292e+00 -1.218558e+01 -5.703965e+00 2.202827e+00 5.023310e-01 8.394625e+01 -8.977095e-01 2.105114e-01 1.248882e+00 1.011230e+00 1.147368e+00 1.006900e+00 -1.735761e+00 -8.941081e-01 -1.242967e+00 1.139559e+00 9.242051e-01 2.447534e-01 -9.902973e-01 4.300080e-02 2.421226e-01 -1.062414e-01 3.196663e-01 -6.699294e-01 1.551932e-01 9.499283e-02 4.818925e-01 8.075809e-01 5.187352e-02 -3.930280e-01 -1.250380e-01 -3.557944e-01
<VARIANCE> 39
 1.718675e+01 1.464673e+01 7.207251e+01 2.732368e+01 2.076471e+01 1.818987e+01 7.607985e+01 3.937370e+01 6.498329e+01 3.754891e+01 2.308898e+01 1.497317e+01 4.594370e+00 1.107629e+00 2.969631e+00 7.300457e+00 1.388684e+00 4.415849e+00 3.926717e+00 3.836352e+00 7.392491e+00 2.163741e+01 3.985163e+00 5.551593e+00 3.660243e+00 1.833006e+00 2.434115e-01 4.310922e-01 2.231650e+00 3.520918e-01 5.320294e-01 1.139835e+00 1.342469e+00 1.920770e+00 2.472443e+00 1.025753e+00 1.084689e+00 9.121901e-01 3.108612e-01
<GCONST> 1.293829e+02
<TRANSP> 5
 0.000000e+00 1.000000e+00 0.000000e+00 0.000000e+00 0.000000e+00
 0.000000e+00 8.199511e-01 1.800489e-01 0.000000e+00 0.000000e+00
 0.000000e+00 0.000000e+00 8.597601e-01 1.402399e-01 0.000000e+00
 0.000000e+00 0.000000e+00 0.000000e+00 8.902214e-01 1.097786e-01
 0.000000e+00 0.000000e+00 0.000000e+00 0.000000e+00 0.000000e+00
<ENDHMM>
~h "at"
<BEGINHMM>
<NUMSTATES> 5
<STATE> 2
<MEAN> 39
 -1.486766e+00 3.974270e+00 6.088918e+00 -5.450875e-02 3.022842e+00 -6.713954e+00 -7.876789e+00 4.394394e+00 7.812074e+00 -4.427536e+00 -2.067421e+00 6.178699e+00 7.216485e+01 -1.814570e-01 -3.743338e-01 -6.341269e-01 -1.961510e+00 -8.178231e-01 -3.245453e+00 6.641304e-01 1.134723e+00 8.388870e-01 -3.235756e-01 5.280524e-01 7.785738e-01 5.765182e-01 -1.664062e-01 -4.520662e-01 -2.244012e-01 1.442400e-01 4.071342e-02 8.199350e-01 5.158786e-01 -2.886812e-01 1.180784e-02 1.533166e-01 -4.459609e-01 -5.870815e-01 -1.186083e-01
<VARIANCE> 39
 5.176218e+01 7.779920e+00 6.286745e+01 2.164969e+01 2.074169e+01 2.310556e+02 1.052110e+02 5.024408e+01 1.095159e+02 7.891861e+01 3.297173e+01 2.596109e+01 2.758984e+02 3.379222e-01 7.083352e-01 9.476002e-01 3.021916e+00 2.210528e+00 1.588531e+01 2.625252e+00 2.002694e+00 2.199351e+00 1.967677e+00 3.659551e+00 3.806708e+00 1.091537e+00 2.533838e-01 8.590562e-02 3.074922e-01 1.987849e-01 2.744474e-01 1.825578e+00 4.716762e-01 5.313099e-01 2.419019e-01 4.925614e-01 1.652867e+00 8.853887e-01 7.575507e-02
<GCONST> 1.193792e+02
<STATE> 3
<MEAN> 39
 -9.056666e+00 2.547760e+00 -5.185940e+00 4.877154e-01 3.778060e+00 5.991883e+00 5.835785e+00 9.210410e+00 6.952260e+00 4.075272e+00 2.592960e+00 3.500766e+00 5.698433e+01 -2.314988e-01 -3.952291e-01 -3.712867e-01 -4.812067e-01 -1.978995e-01 -1.756946e-01 4.380698e-01 2.806065e-01 3.375117e-01 7.273605e-02 -1.930800e-01 4.251685e-03 -2.973789e-01 -5.815470e-02 -2.993131e-02 9.901323e-02 2.484545e-02 -4.149708e-02 3.732543e-02 -4.964878e-02 -9.981310e-02 -1.582281e-01 3.937580e-02 -2.468473e-02 2.502725e-02 3.082797e-02
<VARIANCE> 39
 2.739382e+01 6.172574e+00 4.199204e+01 1.968669e+01 1.068291e+01 8.920875e+01 4.922698e+01 3.685904e+01 4.590680e+01 5.364024e+01 2.326846e+01 8.291250e+00 1.573967e+02 1.493840e-01 4.385376e-01 5.867915e-01 1.028219e+00 1.114002e+00 1.560141e+00 1.520762e+00 1.401332e+00 1.268731e+00 1.072402e+00 1.716516e+00 1.413542e+00 2.819776e-01 6.628539e-02 6.609878e-02 1.109890e-01 1.957767e-01 1.639748e-01 5.716570e-01 2.052922e-01 2.240796e-01 2.936736e-01 3.317767e-01 5.705691e-01 3.429008e-01 8.867647e-02
<GCONST> 9.293656e+01
<STATE> 4
<MEAN> 39
 -5.512460e+00 1.082262e+00 -3.719599e-01 -2.878656e+00 2.215182e+00 -3.591904e+00 5.662498e-01 4.628596e+00 6.057747e+00 -1.702094e+00 -2.431257e+00 4.149153e+00 6.490589e+01 -5.428333e-01 -9.795865e-01 -2.537819e-01 -1.114482e+00 -9.362103e-01 -2.940634e-01 8.676211e-01 4.131407e-02 7.297552e-02 3.146449e-01 -1.144379e+00 1.965152e-01 1.520672e-01 -2.477751e-01 4.326627e-02 4.986838e-01 -1.665144e-02 -5.148305e-02 3.988746e-01 -1.813878e-01 -1.300004e-01 -3.820333e-01 1.691819e-01 1.540704e-01 2.303349e-01 1.919456e-01
<VARIANCE> 39
 6.285471e+01 8.242043e+00 4.573611e+01 3.819802e+01 4.056943e+01 2.642936e+02 6.382196e+01 5.646340e+01 1.134263e+02 6.777659e+01 5.181971e+01 7.857574e+00 3.632251e+02 6.426716e-01 1.105987e+00 2.766198e+00 1.802078e+00 1.437389e+00 2.358863e+00 1.482104e+00 2.713799e+00 7.823328e-01 1.306395e+00 7.056890e+00 2.254103e+00 3.642411e-01 2.551292e-01 3.303770e-01 4.034708e-01 5.348389e-01 6.208542e-01 2.114964e+00 1.643050e-01 7.818726e-01 5.598117e-01 4.186277e-01 5.833693e-01 3.605940e-01 5.446988e-01
<GCONST> 1.199668e+02
<TRANSP> 5
 0.000000e+00 1.000000e+00 0.000000e+00 0.000000e+00 0.000000e+00
 0.000000e+00 4.469528e-01 5.530472e-01 0.000000e+00 0.000000e+00
 0.000000e+00 0.000000e+00 6.626692e-01 3.373308e-01 0.000000e+00
 0.000000e+00 0.000000e+00 0.000000e+00 2.335402e-01 7.664598e-01
 0.000000e+00 0.000000e+00 0.000000e+00 0.000000e+00 0.000000e+00
<ENDHMM>
~h "sil"
<BEGINHMM>
<NUMSTATES> 5
<STATE> 2
<MEAN> 39
 -2.097454e+01 2.625327e-01 -6.469827e+00 -1.191289e+00 -1.105461e+00 1.660330e+00 3.935108e-01 3.625005e+00 1.821267e+00 3.312219e+00 1.621130e+00 2.515811e-01 4.830072e+01 2.660117e+00 6.399304e-01 -2.176962e-01 4.951077e-01 1.829628e+00 1.958132e+00 2.031657e+00 2.126437e+00 8.735802e-01 1.046118e+00 1.024079e+00 5.398816e-01 5.069364e+00 1.863872e-01 -2.679486e-01 -2.342113e-01 -9.824526e-02 8.452381e-02 5.730218e-02 2.211853e-01 4.040929e-01 4.869616e-01 2.738781e-01 8.861293e-02 -8.907072e-03 -4.481851e-01
<VARIANCE> 39
 5.741659e+01 1.401715e+01 1.768299e+01 1.244379e+01 1.956837e+01 3.030560e+01 3.525368e+01 4.513733e+01 2.456304e+01 1.609669e+01 1.351078e+01 1.723255e+01 2.215012e+02 7.078683e+00 1.904997e+00 2.819817e+00 1.481264e+00 1.255852e+00 2.447046e+00 2.644712e+00 3.501283e+00 4.799349e+00 2.247571e+00 1.281455e+00 1.460773e+00 1.873442e+01 1.103126e+00 2.884199e-01 3.381329e-01 2.288359e-01 4.095072e-01 5.760167e-01 5.295902e-01 7.380068e-01 7.391080e-01 3.115403e-01 1.572606e-01 3.723228e-01 3.998791e+00
<GCONST> 1.186564e+02
<STATE> 3
<MEAN> 39
 -1.267823e+01 -5.675676e-01 -9.986784e+00 -3.707615e-01 5.499470e+00 8.285592e+00 9.701920e+00 1.336241e+01 7.626200e+00 5.112429e+00 4.962028e+00 6.071075e+00 5.311932e+01 1.160285e-03 -1.147735e-01 2.913039e-02 -6.443997e-02 1.569935e-02 1.182949e-01 2.092453e-01 1.205157e-01 -1.700993e-01 -4.673279e-02 2.231452e-01 2.920399e-01 -2.316186e-01 -1.268267e-01 3.025507e-02 3.386828e-02 -3.430162e-02 -1.161884e-01 -4.135874e-02 -1.013604e-01 -1.641472e-01 -1.232160e-01 -6.589746e-02 -3.054152e-02 -8.278508e-02 -1.524158e-01
<VARIANCE> 39
 1.745438e+01 4.514000e+00 1.575765e+01 8.220911e+00 7.734037e+00 1.276156e+01 2.440782e+01 1.154564e+01 1.273520e+01 2.167924e+01 1.654180e+01 1.545519e+01 5.457136e+01 8.456178e-01 3.957064e-01 1.172943e+00 1.292385e+00 1.247686e+00 1.342538e+00 2.043205e+00 2.245296e+00 1.858450e+00 1.648121e+00 1.732798e+00 1.871854e+00 5.238605e-01 2.386189e-01 9.314886e-02 2.202919e-01 2.439525e-01 3.425774e-01 3.251725e-01 5.110649e-01 4.766026e-01 3.546479e-01 3.098132e-01 3.621671e-01 3.109977e-01 3.254083e-01
<GCONST> 9.346359e+01
<STATE> 4
<MEAN> 39
 -1.648416e+01 4.237138e-01 -4.371177e+00 -3.126112e+00 4.344941e+00 7.426146e+00 7.983253e+00 1.388966e+01 3.043280e+00 7.376302e+00 8.300680e+00 6.865422e+00 5.127879e+01 -5.227644e-01 -3.166592e-01 3.556378e-01 -6.471961e-01 -1.921668e-01 7.074951e-02 2.208460e-01 6.919440e-01 -5.047097e-01 6.108370e-02 6.453797e-01 -1.033324e-01 6.044853e-02 -4.557445e-02 2.524012e-02 -1.419606e-01 1.809469e-01 -2.305536e-02 -1.576732e-01 -1.247754e-01 -1.291978e-01 2.614094e-01 2.371199e-02 -2.793579e-01 -2.551848e-01 2.341741e-02
<VARIANCE> 39
 7.406815e+01 4.370817e+00 6.281727e+01 2.532054e+01 6.263415e+00 1.046968e+01 1.848904e+01 3.471323e+01 3.002206e+01 3.172134e+01 2.664361e+01 5.145491e+01 1.106448e+02 2.088961e+00 3.688527e-01 2.304927e+00 1.008259e+00 9.410872e-01 8.222842e-01 6.274884e-01 3.130587e+00 3.886692e+00 1.689576e+00 8.827182e-01 3.170634e+00 1.081815e+00 3.960024e-01 4.759899e-02 1.897129e-01 2.118055e-01 7.214353e-02 1.729888e-01 1.996412e-01 2.183631e-01 2.375642e-01 1.566551e-01 2.181580e-01 3.630351e-01 1.220511e-01
<GCONST> 9.562401e+01
<TRANSP> 5
 0.000000e+00 1.000000e+00 0.000000e+00 0.000000e+00 0.000000e+00
 0.000000e+00 6.878641e-01 3.121360e-01 0.000000e+00 0.000000e+00
 0.000000e+00 0.000000e+00 8.613998e-01 1.386002e-01 0.000000e+00
 0.000000e+00 0.000000e+00 0.000000e+00 1.502381e-01 8.497620e-01
 0.000000e+00 0.000000e+00 0.000000e+00 0.000000e+00 0.000000e+00
<ENDHMM>
